<?xml version="1.0"?>
<opencv_storage>
<opencv_ml_svm>
  <format>3</format>
  <svmType>C_SVC</svmType>
  <kernel>
    <type>RBF</type>
    <gamma>1.</gamma></kernel>
  <C>1.</C>
  <term_criteria><epsilon>1.1920928955078125e-07</epsilon>
    <iterations>1000</iterations></term_criteria>
  <var_count>13</var_count>
  <class_count>2</class_count>
  <class_labels type_id="opencv-matrix">
    <rows>2</rows>
    <cols>1</cols>
    <dt>i</dt>
    <data>
      -1 1</data></class_labels>
  <sv_total>1932</sv_total>
  <support_vectors>
    <_>
      2.47352934e+00 2.95097232e-01 9.94026124e-01 9.94406164e-01
      7.00836182e-02 1.30516171e+00 6.44438410e+00 6.47530913e-01
      1.70344710e+00 9.99927402e-01 7.06022827e+02 2.33637486e+01
      6.45150528e+01</_>
    <_>
      5.12928903e-01 2.36185148e-01 9.99142170e-01 9.99210596e-01
      1.16933184e-02 5.68141699e-01 4.53770399e+00 2.55165160e-01
      3.22785020e-01 9.99565244e-01 4.65038184e+03 6.12051926e+01
      1.14054672e-01</_>
    <_>
      7.24417865e-01 7.95692563e-01 9.95312750e-01 9.97317672e-01
      7.67567977e-02 1.30388153e+00 6.59566307e+00 6.78162932e-01
      1.70010710e+00 9.99933720e-01 4.26263000e+02 1.94309254e+01
      3.88493323e+00</_>
    <_>
      1.82843137e+00 4.98514265e-01 9.97166336e-01 9.97378409e-01
      4.40572090e-02 1.30796659e+00 5.60758066e+00 4.76487786e-01
      1.71077669e+00 9.99884546e-01 2.01294849e+03 4.08468513e+01
      1.25584707e+01</_>
    <_>
      1.18449759e+00 6.10928893e-01 9.94638801e-01 9.96539891e-01
      7.33439103e-02 1.23115349e+00 6.61983776e+00 6.93363965e-01
      1.51573884e+00 9.99930680e-01 4.21390656e+02 1.92466221e+01
      2.38686395e+00</_>
    <_>
      0. 1. 1. 1. 0. 0. 0. 0. 0. 0. -3. 0. 0.</_>
    <_>
      7.84313772e-03 -1.53188630e-05 9.99969363e-01 9.99969482e-01
      2.39054367e-04 6.25402182e-02 1.07665229e+00 5.10808453e-02
      3.91127914e-03 9.79166687e-01 7.69149766e+04 2.72441376e+02
      1.09274685e-03</_>
    <_>
      0. 1. 1. 1. 0. 0. 0. 0. 0. 0. -3. 0. 0.</_>
    <_>
      5.71507335e-01 2.77165920e-01 9.98131275e-01 9.98213470e-01
      1.91599522e-02 6.20814562e-01 5.28831816e+00 3.77211094e-01
      3.85410696e-01 9.99734581e-01 1.45379773e+03 3.61761398e+01
      1.98638935e+01</_>
    <_>
      1.94705880e+00 2.89976299e-01 9.96201098e-01 9.96310353e-01
      5.03133126e-02 1.15285408e+00 5.99417067e+00 5.13707757e-01
      1.32907259e+00 9.99898911e-01 7.23663330e+02 2.57130280e+01
      3.89598072e-01</_>
    <_>
      8.73835802e-01 4.81517047e-01 9.95573997e-01 9.96947765e-01
      4.71089669e-02 9.01606917e-01 6.31585455e+00 6.04893029e-01
      8.12895060e-01 9.99892056e-01 4.29297363e+02 2.02444038e+01
      5.27066650e+01</_>
    <_>
      3.33627462e+00 4.84553933e-01 9.88589227e-01 9.91305590e-01
      1.42440796e-01 1.80438018e+00 7.22617531e+00 9.79628026e-01
      3.25578785e+00 9.99964297e-01 3.28074036e+02 1.60607624e+01
      7.90287170e+01</_>
    <_>
      1.68489587e+00 5.74616015e-01 9.92785513e-01 9.94750142e-01
      9.49147567e-02 1.40064669e+00 6.86136150e+00 7.63412893e-01
      1.96181130e+00 9.99946415e-01 2.90993286e+02 1.63516159e+01
      4.00454569e+00</_>
    <_>
      0. 1. 1. 1. 0. 0. 0. 0. 0. 0. -3. 0. 0.</_>
    <_>
      5.55845594e+00 8.29634368e-01 9.84070718e-01 9.89989758e-01
      4.45149750e-01 3.92355061e+00 7.85463810e+00 1.25154531e+00
      1.53942490e+01 9.99988556e-01 8.70474396e+01 9.21266270e+00
      5.31243019e+01</_>
    <_>
      0. 1. 1. 1. 0. 0. 0. 0. 0. 0. -3. 0. 0.</_>
    <_>
      4.57870722e+00 4.73968536e-01 9.89278078e-01 9.90878522e-01
      1.47099808e-01 2.05273438e+00 7.10010719e+00 8.98315787e-01
      4.21371841e+00 9.99965429e-01 6.64886353e+02 2.11966820e+01
      3.70127411e+02</_>
    <_>
      7.75336981e-01 5.56869566e-01 9.98115838e-01 9.98340011e-01
      3.17077637e-02 9.18404520e-01 5.50468445e+00 4.01096612e-01
      8.43466878e-01 9.99839604e-01 1.05951880e+03 3.14808445e+01
      7.93082714e-01</_>
    <_>
      0. 1. 1. 1. 0. 0. 0. 0. 0. 0. -3. 0. 0.</_>
    <_>
      0. 1. 1. 1. 0. 0. 0. 0. 0. 0. -3. 0. 0.</_>
    <_>
      2.42760420e+00 2.59452790e-01 9.94210064e-01 9.94597435e-01
      6.72454834e-02 1.26882780e+00 6.40743494e+00 6.23847425e-01
      1.60992408e+00 9.99924362e-01 5.88091553e+02 2.24455929e+01
      7.02170029e+01</_>
    <_>
      2.86427706e-01 2.35895053e-01 9.99249399e-01 9.99277115e-01
      8.00069142e-03 4.22275156e-01 4.32129669e+00 2.19481200e-01
      1.78316325e-01 9.99364674e-01 3.88039502e+03 5.93061180e+01
      3.35464263e+00</_>
    <_>
      3.35110307e-01 4.35909152e-01 9.99356627e-01 9.99475420e-01
      1.01928711e-02 5.31429827e-01 4.31663513e+00 2.16435865e-01
      2.82417685e-01 9.99501228e-01 3.23134180e+03 5.54795609e+01
      3.75660241e-01</_>
    <_>
      1.49537373e+00 4.52343941e-01 9.97334599e-01 9.97647285e-01
      4.46319580e-02 1.13917339e+00 5.78666973e+00 4.65160966e-01
      1.29771602e+00 9.99886036e-01 1.08897986e+03 3.00575676e+01
      5.13669014e+01</_>
    <_>
      2.63020825e+00 4.16892916e-01 9.99234080e-01 9.99245763e-01
      3.16314697e-02 1.47854924e+00 4.53021193e+00 2.38537267e-01
      2.18610787e+00 9.99839246e-01 2.55660889e+03 4.94094009e+01
      3.98864079e+00</_>
    <_>
      0. 1. 1. 1. 0. 0. 0. 0. 0. 0. -3. 0. 0.</_>
    <_>
      8.44546556e-01 2.84889132e-01 9.98651981e-01 9.98688519e-01
      1.99839268e-02 7.52858043e-01 4.97660398e+00 2.96695054e-01
      5.66795290e-01 9.99745548e-01 1.77416614e+03 4.07933693e+01
      1.61171150e+01</_>
    <_>
      0. 1. 1. 1. 0. 0. 0. 0. 0. 0. -3. 0. 0.</_>
    <_>
      6.73192382e-01 3.18579435e-01 9.98253763e-01 9.98325646e-01
      1.89412441e-02 6.89610660e-01 5.13143396e+00 3.50794882e-01
      4.75562871e-01 9.99731541e-01 3.16383765e+03 4.89367027e+01
      1.18679934e+01</_>
    <_>
      5.62806390e-02 -4.44401703e-05 9.99908090e-01 9.99908268e-01
      1.06302893e-03 1.64878577e-01 2.14408255e+00 6.12256154e-02
      2.71849465e-02 9.95238066e-01 2.93142070e+04 1.66613022e+02
      2.87606776e-01</_>
    <_>
      0. 1. 1. 1. 0. 0. 0. 0. 0. 0. -3. 0. 0.</_>
    <_>
      6.20404407e-02 -1.53188630e-05 9.99969363e-01 9.99969363e-01
      6.71386719e-04 1.76631495e-01 1.07108295e+00 3.53726000e-02
      3.11986860e-02 9.92481232e-01 8.00898750e+04 2.76856232e+02
      1.35849055e-03</_>
    <_>
      6.81678951e-01 3.98023725e-01 9.99142170e-01 9.99186397e-01
      1.42466230e-02 7.32409179e-01 4.46886301e+00 2.50335455e-01
      5.36423206e-01 9.99643087e-01 5.16501953e+03 6.61128540e+01
      2.02256513e+00</_>
    <_>
      1.47141540e+00 2.92396843e-01 9.96093929e-01 9.96229529e-01
      4.44590263e-02 1.00869632e+00 6.02218962e+00 5.08948028e-01
      1.01746821e+00 9.99885619e-01 7.52386414e+02 2.59275780e+01
      9.19212532e+00</_>
    <_>
      0. 1. 1. 1. 0. 0. 0. 0. 0. 0. -3. 0. 0.</_>
    <_>
      1.15410537e-01 5.25953054e-01 9.99724269e-01 9.99762774e-01
      4.47082520e-03 3.41799259e-01 3.57876039e+00 1.43152207e-01
      1.16826735e-01 9.98863637e-01 7.56376514e+03 8.41435242e+01
      3.90191711e-02</_>
    <_>
      8.04013491e-01 2.75075257e-01 9.98192430e-01 9.98243690e-01
      2.18353271e-02 7.28901327e-01 5.24506760e+00 3.43090922e-01
      5.31297088e-01 9.99767125e-01 1.52044238e+03 3.74028168e+01
      1.38483691e+00</_>
    <_>
      2.77910531e-01 2.49986619e-01 9.98897135e-01 9.98993456e-01
      1.02132158e-02 4.26738769e-01 4.76450205e+00 2.86268890e-01
      1.82105973e-01 9.99502242e-01 2.13276611e+03 4.48767929e+01
      4.98004332e-02</_>
    <_>
      2.97181364e-02 -3.05750218e-05 9.99938726e-01 9.99938846e-01
      6.30696595e-04 1.16968587e-01 1.76636791e+00 6.75830171e-02
      1.36816502e-02 9.91999984e-01 3.85845430e+04 1.93210068e+02
      3.00792768e-03</_>
    <_>
      6.96259212e+00 8.14812183e-01 9.81880307e-01 9.87942994e-01
      5.08961976e-01 4.19489670e+00 7.98318863e+00 1.36099041e+00
      1.75971584e+01 9.99989986e-01 7.42764893e+01 8.54606819e+00
      4.06515564e+02</_>
    <_>
      4.11366433e-01 1.46557078e-01 9.99249399e-01 9.99304295e-01
      9.07897949e-03 4.74502444e-01 4.33030891e+00 2.28162006e-01
      2.25152552e-01 9.99440074e-01 3.51404102e+03 5.72433357e+01
      2.81395819e-02</_>
    <_>
      3.16853547e+00 5.08149803e-01 9.95067596e-01 9.95630801e-01
      9.11305770e-02 1.75990939e+00 6.39613152e+00 6.31311715e-01
      3.09728098e+00 9.99944210e-01 9.74884216e+02 2.64678879e+01
      3.74840057e+02</_>
    <_>
      2.18998170e+00 2.36537993e-01 9.95481193e-01 9.95619535e-01
      5.43975830e-02 1.17941415e+00 6.12806606e+00 5.53838670e-01
      1.39101779e+00 9.99906480e-01 7.27396362e+02 2.53614426e+01
      3.65389180e+00</_>
    <_>
      5.49457741e+00 3.59207571e-01 9.92938519e-01 9.93864477e-01
      1.13062538e-01 2.01197004e+00 6.60593987e+00 7.07750261e-01
      4.04802322e+00 9.99954998e-01 6.66154663e+02 2.36574574e+01
      1.72382507e+01</_>
    <_>
      0. 1. 1. 1. 0. 0. 0. 0. 0. 0. -3. 0. 0.</_>
    <_>
      0. 1. 1. 1. 0. 0. 0. 0. 0. 0. -3. 0. 0.</_>
    <_>
      0. 1. 1. 1. 0. 0. 0. 0. 0. 0. -3. 0. 0.</_>
    <_>
      0. 1. 1. 1. 0. 0. 0. 0. 0. 0. -3. 0. 0.</_>
    <_>
      9.37622547e-01 6.13955200e-01 9.97564435e-01 9.97934461e-01
      4.39300537e-02 1.08573973e+00 5.80622959e+00 4.48992252e-01
      1.17883086e+00 9.99884248e-01 7.21207703e+02 2.62196732e+01
      1.05386543e+00</_>
    <_>
      1.58869481e+00 6.73008263e-01 9.95741546e-01 9.96954858e-01
      8.33689347e-02 1.52543688e+00 6.41174030e+00 6.02124512e-01
      2.32695770e+00 9.99938965e-01 4.04753479e+02 1.95802021e+01
      4.85490656e+00</_>
    <_>
      2.73556995e+00 6.58286273e-01 9.95435178e-01 9.96381581e-01
      1.10341392e-01 1.94308650e+00 6.48576736e+00 6.47511244e-01
      3.77558517e+00 9.99953926e-01 3.68620209e+02 1.87369633e+01
      3.24142570e+01</_>
    <_>
      2.14142156e+00 5.70916057e-01 9.96583998e-01 9.96963561e-01
      7.24334717e-02 1.53913105e+00 6.12266541e+00 5.27083278e-01
      2.36892438e+00 9.99929786e-01 5.62305115e+02 2.30069561e+01
      2.49049530e+01</_>
    <_>
      4.72518384e-01 9.04323533e-02 9.99004304e-01 9.99022961e-01
      1.03861494e-02 5.04832983e-01 4.53240824e+00 2.74365991e-01
      2.54856318e-01 9.99510527e-01 5.24977490e+03 6.30497437e+01
      4.94806886e-01</_>
    <_>
      3.04258585e-01 5.08679748e-01 9.98422265e-01 9.98732865e-01
      1.70135498e-02 5.50121009e-01 5.27933884e+00 3.69128555e-01
      3.02633107e-01 9.99701142e-01 1.27930530e+03 3.47732620e+01
      3.00061059e+00</_>
    <_>
      1.93014711e-01 2.16364309e-01 9.99417901e-01 9.99489903e-01
      6.01196289e-03 3.46130580e-01 4.13931561e+00 2.13597238e-01
      1.19806387e-01 9.99154687e-01 4.89689648e+03 6.52930908e+01
      5.12481108e-02</_>
    <_>
      3.89099264e+00 7.79643357e-01 9.91590500e-01 9.94187593e-01
      2.33337402e-01 2.89785075e+00 7.17642164e+00 8.78063858e-01
      8.39753914e+00 9.99978185e-01 1.78170441e+02 1.30904856e+01
      1.28916733e+02</_>
    <_>
      1.28339455e-01 5.96264452e-02 9.99800861e-01 9.99801934e-01
      2.33968091e-03 2.61718005e-01 2.90118647e+00 1.17534213e-01
      6.84963167e-02 9.97830808e-01 2.58612441e+04 1.46005432e+02
      8.24242756e-02</_>
    <_>
      8.55698511e-02 4.80469137e-01 9.99693632e-01 9.99701440e-01
      3.67736816e-03 2.83612221e-01 3.56892180e+00 1.47836640e-01
      8.04359019e-02 9.98618782e-01 8.11711719e+03 8.63925018e+01
      2.20902264e-02</_>
    <_>
      1.51000309e+00 3.61486435e-01 9.94701028e-01 9.95707393e-01
      5.82377128e-02 1.08114290e+00 6.41626072e+00 6.84935451e-01
      1.16886997e+00 9.99912679e-01 5.71868530e+02 2.18275452e+01
      3.56818199e+00</_>
    <_>
      2.58609056e-01 4.15816568e-02 9.99525130e-01 9.99526739e-01
      4.95402003e-03 3.56627107e-01 3.76571441e+00 1.82913750e-01
      1.27182901e-01 9.98974383e-01 1.19455879e+04 9.59926147e+01
      2.42774472e-01</_>
    <_>
      1.11636031e+00 3.34377944e-01 9.97197032e-01 9.97550368e-01
      3.37219238e-02 9.09612417e-01 5.71709108e+00 4.92538720e-01
      8.27394724e-01 9.99849200e-01 1.47234680e+03 3.44072227e+01
      2.15974832e+00</_>
    <_>
      5.21139689e-02 -7.45814323e-05 9.99846816e-01 9.99847293e-01
      1.33260095e-03 1.58699080e-01 2.66687417e+00 9.08850431e-02
      2.51853988e-02 9.96197701e-01 1.71910508e+04 1.27451439e+02
      8.55577365e-02</_>
    <_>
      0. 1. 1. 1. 0. 0. 0. 0. 0. 0. -3. 0. 0.</_>
    <_>
      1.41482845e-01 -1.12318252e-04 9.99754906e-01 9.99755502e-01
      2.62959790e-03 2.59362847e-01 3.08166099e+00 1.23258539e-01
      6.72690868e-02 9.98069525e-01 13479. 1.11219238e+02 3.31738625e+01</_>
    <_>
      1.14522062e-01 5.55762172e-01 9.99708951e-01 9.99720633e-01
      4.56746435e-03 3.47414017e-01 3.58761144e+00 1.51858866e-01
      1.20696507e-01 9.98887658e-01 7.56141113e+03 8.39607544e+01
      4.10872586e-02</_>
    <_>
      0. 1. 1. 1. 0. 0. 0. 0. 0. 0. -3. 0. 0.</_>
    <_>
      3.30330878e-01 6.84933066e-01 9.99325991e-01 9.99559999e-01
      1.55588789e-02 7.04199851e-01 4.59290934e+00 2.47474626e-01
      4.95897442e-01 9.99673188e-01 2.37155371e+03 4.76761284e+01
      1.05554543e-01</_>
    <_>
      1.40134797e-01 5.18475831e-01 9.99693632e-01 9.99721527e-01
      5.27445460e-03 3.74603271e-01 3.69827843e+00 1.43400699e-01
      1.40327603e-01 9.99036610e-01 6.03208691e+03 7.56530914e+01
      7.14178383e-02</_>
    <_>
      2.56394005e+00 7.36453414e-01 9.88543689e-01 9.92760241e-01
      1.99554443e-01 2.16185045e+00 7.45207453e+00 1.05259240e+00
      4.67359781e+00 9.99974489e-01 1.37251709e+02 1.14789124e+01
      2.54894295e+01</_>
    <_>
      3.36384797e+00 7.52698600e-01 9.90870535e-01 9.92960870e-01
      2.09040329e-01 2.54232526e+00 7.23044348e+00 9.28052962e-01
      6.46341801e+00 9.99975681e-01 1.79654205e+02 1.30600119e+01
      1.02662337e+00</_>
    <_>
      0. 1. 1. 1. 0. 0. 0. 0. 0. 0. -3. 0. 0.</_>
    <_>
      4.45839453e+00 4.29525137e-01 9.91897047e-01 9.92956460e-01
      1.21358238e-01 1.93833256e+00 6.78798008e+00 7.58449852e-01
      3.75713301e+00 9.99958098e-01 6.38184570e+02 2.17331944e+01
      9.39866662e-01</_>
    <_>
      1.23688722e+00 6.24573648e-01 9.91316199e-01 9.94631946e-01
      9.57895890e-02 1.29120910e+00 7.05105257e+00 9.01729167e-01
      1.66722107e+00 9.99946892e-01 2.39600342e+02 1.49552917e+01
      2.86633682e+01</_>
    <_>
      0. 1. 1. 1. 0. 0. 0. 0. 0. 0. -3. 0. 0.</_>
    <_>
      2.85539210e-01 2.08757132e-01 9.99341309e-01 9.99362171e-01
      7.35473633e-03 4.15113688e-01 4.18786430e+00 1.95598751e-01
      1.72319368e-01 9.99308944e-01 4.23756445e+03 6.26670723e+01
      4.46687974e-02</_>
    <_>
      1.07659310e-01 -1.44418751e-04 9.99693632e-01 9.99694645e-01
      2.64994311e-03 2.28102028e-01 3.34005880e+00 1.48625836e-01
      5.20305336e-02 9.98084307e-01 1.05983916e+04 9.72314987e+01
      2.07346363e+01</_>
    <_>
      5.94368887e+00 5.14014900e-01 9.86797750e-01 9.91013169e-01
      2.00144455e-01 2.45635772e+00 7.36922789e+00 1.08111191e+00
      6.03369284e+00 9.99974608e-01 4.71478607e+02 1.83368778e+01
      2.45586739e+01</_>
    <_>
      8.36060047e-01 3.25256228e-01 9.98789847e-01 9.98899639e-01
      1.98771153e-02 7.69310832e-01 4.90991640e+00 2.83752620e-01
      5.91839194e-01 9.99744177e-01 1.76401440e+03 4.10228806e+01
      7.65038729e-02</_>
    <_>
      9.29748774e-01 2.25428745e-01 9.98299658e-01 9.98325884e-01
      2.22167969e-02 7.64158607e-01 5.17196608e+00 3.38200957e-01
      5.83938360e-01 9.99771118e-01 1.56943738e+03 3.80761452e+01
      2.43676275e-01</_>
    <_>
      0. 1. 1. 1. 0. 0. 0. 0. 0. 0. -3. 0. 0.</_>
    <_>
      0. 1. 1. 1. 0. 0. 0. 0. 0. 0. -3. 0. 0.</_>
    <_>
      1.05744481e+00 3.48925740e-01 9.97564435e-01 9.97646153e-01
      3.11075840e-02 8.83197725e-01 5.56613541e+00 4.18971479e-01
      7.80038178e-01 9.99836504e-01 1.27075818e+03 3.28718452e+01
      3.96624298e+01</_>
    <_>
      1.24761033e+00 2.59470910e-01 9.96875167e-01 9.96984005e-01
      3.61531563e-02 9.06645656e-01 5.79884338e+00 4.52574641e-01
      8.22006345e-01 9.99859333e-01 8.00427246e+02 2.73920746e+01
      4.79085863e-01</_>
    <_>
      2.11531854e+00 5.08761883e-01 9.95220959e-01 9.96269763e-01
      7.90659562e-02 1.43917954e+00 6.41555023e+00 6.15036964e-01
      2.07123780e+00 9.99935687e-01 3.90775330e+02 1.92907429e+01
      4.36079311e+00</_>
    <_>
      0. 1. 1. 1. 0. 0. 0. 0. 0. 0. -3. 0. 0.</_>
    <_>
      0. 1. 1. 1. 0. 0. 0. 0. 0. 0. -3. 0. 0.</_>
    <_>
      1.61185658e+00 7.49458134e-01 9.93474543e-01 9.95893896e-01
      1.23524986e-01 1.76698136e+00 6.90434408e+00 7.81113267e-01
      3.12222338e+00 9.99958813e-01 2.48124207e+02 1.53348856e+01
      1.74526611e+02</_>
    <_>
      1.07052696e+00 2.28417471e-01 9.98498857e-01 9.98547912e-01
      2.00500488e-02 8.10032845e-01 4.95024729e+00 3.21200490e-01
      6.56153142e-01 9.99746382e-01 3.29663501e+03 5.27087555e+01
      2.30588928e+02</_>
    <_>
      3.37040454e-01 6.75756276e-01 9.99862134e-01 9.99885261e-01
      6.16455078e-03 6.99369788e-01 2.79756260e+00 1.06261492e-01
      4.89118099e-01 9.99175608e-01 1.70236367e+04 1.26202400e+02
      9.12486267e+00</_>
    <_>
      7.41115212e-02 -1.22367681e-04 9.99754906e-01 9.99755740e-01
      2.02433276e-03 1.87868491e-01 3.15187573e+00 1.25568375e-01
      3.52945663e-02 9.97493744e-01 9.71715918e+03 9.68690109e+01
      5.00573069e-02</_>
    <_>
      1.08992040e+00 1.75403595e-01 9.97472584e-01 9.97569203e-01
      2.73132324e-02 8.02482724e-01 5.51398516e+00 4.16377664e-01
      6.43978536e-01 9.99813795e-01 1.44648389e+03 3.50213013e+01
      2.76276660e+00</_>
    <_>
      9.24065590e+00 5.69748640e-01 9.95511711e-01 9.95665610e-01
      1.72459915e-01 3.23152542e+00 6.38406849e+00 6.32124901e-01
      1.04427557e+01 9.99970496e-01 4.50585114e+02 2.05409470e+01
      5.29802475e+01</_>
    <_>
      4.38373148e-01 4.37665462e-01 9.99494493e-01 9.99506950e-01
      9.63338185e-03 6.50910497e-01 3.91147637e+00 1.78466186e-01
      4.23684448e-01 9.99472320e-01 8.86374512e+03 8.64838333e+01
      6.37852326e-02</_>
    <_>
      1.41678917e+00 7.38229096e-01 9.95818198e-01 9.96845365e-01
      8.88468400e-02 1.59858716e+00 6.44501162e+00 6.06681406e-01
      2.55548096e+00 9.99942780e-01 3.85116547e+02 1.91706619e+01
      1.45860138e+02</_>
    <_>
      1.80235910e+00 3.70054692e-01 9.95190263e-01 9.95739579e-01
      5.93770333e-02 1.17892587e+00 6.30170155e+00 6.11441493e-01
      1.38986635e+00 9.99914348e-01 6.50038025e+02 2.35577831e+01
      7.37761319e-01</_>
    <_>
      6.69148266e-01 6.36522353e-01 9.98973668e-01 9.99111712e-01
      2.29085293e-02 9.32459354e-01 4.88219213e+00 2.84504473e-01
      8.69480491e-01 9.99778032e-01 2.96907349e+03 4.99294167e+01
      1.21394849e+00</_>
    <_>
      1.44212627e+00 3.26369137e-01 9.95910108e-01 9.96133208e-01
      4.61883545e-02 1.02434552e+00 6.08529806e+00 5.37025332e-01
      1.04928362e+00 9.99889910e-01 8.45833557e+02 2.66371403e+01
      3.28188095e+01</_>
    <_>
      1.41145837e+00 5.33181012e-01 9.95006442e-01 9.95794117e-01
      6.29425049e-02 1.20848644e+00 6.36924791e+00 6.20462835e-01
      1.46043944e+00 9.99919176e-01 5.68936279e+02 2.24348583e+01
      8.15358124e+01</_>
    <_>
      0. 1. 1. 1. 0. 0. 0. 0. 0. 0. -3. 0. 0.</_>
    <_>
      1.95251226e-01 1.17375627e-01 9.99341309e-01 9.99363303e-01
      5.85428858e-03 3.27428758e-01 4.18216467e+00 2.02083170e-01
      1.07209586e-01 9.99131918e-01 3.85344775e+03 6.01441727e+01
      2.94451024e-02</_>
    <_>
      6.84558809e-01 2.14358643e-01 9.98070002e-01 9.98173237e-01
      1.98262539e-02 6.49349570e-01 5.29456186e+00 3.66452605e-01
      4.21654850e-01 9.99743521e-01 1.94186243e+03 3.95123291e+01
      5.91444206e+01</_>
    <_>
      7.58884773e-02 -4.26057813e-05 9.99908090e-01 9.99908268e-01
      1.20035803e-03 1.89975470e-01 2.12468767e+00 7.83849806e-02
      3.60906832e-02 9.95780587e-01 3.36007188e+04 1.76286575e+02
      1.30172992e+00</_>
    <_>
      2.03128076e+00 3.45517814e-01 9.94409025e-01 9.94757473e-01
      6.57501221e-02 1.23071682e+00 6.40750408e+00 6.22476161e-01
      1.51466393e+00 9.99922633e-01 5.09064209e+02 2.13976078e+01
      5.49208870e+01</_>
    <_>
      2.21200988e-01 2.78702617e-01 9.99571085e-01 9.99574423e-01
      5.52368164e-03 3.85566205e-01 3.77120471e+00 1.77494541e-01
      1.48661301e-01 9.99080062e-01 6.62465576e+03 7.82129593e+01
      7.61507809e-01</_>
    <_>
      0. 1. 1. 1. 0. 0. 0. 0. 0. 0. -3. 0. 0.</_>
    <_>
      1.22549022e-02 -1.53188630e-05 9.99969363e-01 9.99969423e-01
      2.95003265e-04 7.88373426e-02 1.05425978e+00 4.80537564e-02
      6.21532649e-03 9.83050823e-01 8.75471406e+04 2.87643005e+02
      1.95121951e-02</_>
    <_>
      1.58661151e+00 6.85875654e-01 9.90412354e-01 9.93920207e-01
      1.27029419e-01 1.55334961e+00 7.22230625e+00 9.23856318e-01
      2.41289496e+00 9.99959946e-01 1.86430878e+02 1.32309847e+01
      8.75569153e+00</_>
    <_>
      1.10165441e+00 1.89048722e-01 9.96890485e-01 9.96999383e-01
      3.07108555e-02 8.15089285e-01 5.72150373e+00 4.41884190e-01
      6.64370537e-01 9.99834418e-01 1.13461780e+03 3.12021427e+01
      4.37478900e-01</_>
    <_>
      1.92187503e-01 2.51804322e-01 9.99203503e-01 9.99313056e-01
      7.36490870e-03 3.54668975e-01 4.46861267e+00 2.59327143e-01
      1.25790074e-01 9.99309897e-01 2.69369409e+03 5.07571869e+01
      1.01329498e-01</_>
    <_>
      5.57169139e-01 5.12554526e-01 9.97028649e-01 9.97879207e-01
      3.21095772e-02 7.42606401e-01 5.93360806e+00 4.97803003e-01
      5.51464319e-01 9.99841630e-01 6.11645447e+02 2.42718506e+01
      4.74933803e-01</_>
    <_>
      0. 1. 1. 1. 0. 0. 0. 0. 0. 0. -3. 0. 0.</_>
    <_>
      9.34497535e-01 5.26233196e-01 9.95986879e-01 9.97164607e-01
      4.75260429e-02 9.85381842e-01 6.22039080e+00 5.60697734e-01
      9.70977366e-01 9.99893010e-01 6.92362854e+02 2.44939823e+01
      6.75917745e-01</_>
    <_>
      5.87316193e-02 4.63879853e-01 9.99862134e-01 9.99877691e-01
      2.06502271e-03 2.29186952e-01 2.82922959e+00 1.10301137e-01
      5.25266603e-02 9.97542977e-01 1.68875879e+04 1.23924171e+02
      9.68731008e-03</_>
    <_>
      2.67493874e-01 4.10160094e-01 9.99142170e-01 9.99261916e-01
      1.03759766e-02 4.68917251e-01 4.60961008e+00 2.47258738e-01
      2.19883382e-01 9.99510050e-01 2.58247852e+03 4.90155678e+01
      2.14964747e+00</_>
    <_>
      0. 1. 1. 1. 0. 0. 0. 0. 0. 0. -3. 0. 0.</_>
    <_>
      1.88265935e-01 9.61998478e-02 9.99448538e-01 9.99452055e-01
      5.20324707e-03 3.17871124e-01 4.00326014e+00 1.93046749e-01
      1.01042062e-01 9.99023438e-01 4.67587305e+03 6.59485321e+01
      4.52330589e+00</_>
    <_>
      7.91850507e-01 4.87048596e-01 9.99387264e-01 9.99392569e-01
      1.28021240e-02 8.45143676e-01 4.02261877e+00 1.96597338e-01
      7.14267850e-01 9.99602854e-01 9.92193652e+03 9.16649933e+01
      2.60316610e-01</_>
    <_>
      1.56875002e+00 6.65263593e-01 9.96400237e-01 9.97118533e-01
      7.39695206e-02 1.48544240e+00 6.23003674e+00 5.51777661e-01
      2.20653915e+00 9.99931216e-01 4.92805359e+02 2.15853786e+01
      2.60297760e+02</_>
    <_>
      2.02083334e-01 5.67813814e-01 9.99080896e-01 9.99355435e-01
      1.10626221e-02 4.71805036e-01 4.77744722e+00 2.81945407e-01
      2.22599983e-01 9.99540448e-01 3.85894019e+03 5.39325027e+01
      3.06036294e-01</_>
    <_>
      0. 1. 1. 1. 0. 0. 0. 0. 0. 0. -3. 0. 0.</_>
    <_>
      5.38082123e-01 1.34741277e-01 9.98789847e-01 9.98849571e-01
      1.28072100e-02 5.48322797e-01 4.77573776e+00 2.93220371e-01
      3.00657928e-01 9.99603033e-01 3.23610107e+03 5.20183792e+01
      4.13542926e-01</_>
    <_>
      0. 1. 1. 1. 0. 0. 0. 0. 0. 0. -3. 0. 0.</_>
    <_>
      2.41513491e+00 4.15106297e-01 9.95710909e-01 9.95831192e-01
      6.80440292e-02 1.41477036e+00 6.19858217e+00 5.54063618e-01
      2.00157523e+00 9.99925256e-01 6.07098022e+02 2.35553436e+01
      7.86782503e+00</_>
    <_>
      4.11856622e-01 4.70066220e-01 9.98958349e-01 9.98986900e-01
      1.35091143e-02 6.06111526e-01 4.69655466e+00 2.87049592e-01
      3.67371202e-01 9.99623656e-01 3.46266479e+03 5.46437492e+01
      4.25940901e-02</_>
    <_>
      2.40091920e+00 8.40845346e-01 9.83228922e-01 9.91202891e-01
      3.15109253e-01 2.68930221e+00 7.92562819e+00 1.29637873e+00
      7.23234558e+00 9.99983847e-01 8.54029770e+01 9.05411148e+00
      1.18994011e+02</_>
    <_>
      2.91789204e-01 3.91179949e-01 9.99662995e-01 9.99664545e-01
      6.00687647e-03 4.80515897e-01 3.53412676e+00 1.58752739e-01
      2.30895519e-01 9.99153972e-01 1.00773623e+04 9.49364014e+01
      3.29661965e+00</_>
    <_>
      7.98192382e-01 3.14168543e-01 9.98192430e-01 9.98273551e-01
      2.28830967e-02 7.48887122e-01 5.27817535e+00 3.55611801e-01
      5.60831964e-01 9.99777794e-01 1.46246533e+03 3.65999527e+01
      1.87436962e+00</_>
    <_>
      4.02861500e+00 6.69262886e-01 9.91177142e-01 9.94543910e-01
      1.89407349e-01 2.42385435e+00 7.17403316e+00 8.93848658e-01
      5.87506962e+00 9.99973118e-01 3.87785675e+02 1.64890366e+01
      3.36739120e+01</_>
    <_>
      1.99322915e+00 6.38862193e-01 9.91453052e-01 9.93477941e-01
      1.22843422e-01 1.63485324e+00 7.05145597e+00 8.50289345e-01
      2.67274523e+00 9.99958575e-01 2.17630188e+02 1.43391609e+01
      1.26112533e+00</_>
    <_>
      1.66973043e-02 -3.06100847e-05 9.99938726e-01 9.99938965e-01
      4.32332366e-04 9.06318277e-02 1.58611810e+00 4.12782989e-02
      8.21412820e-03 9.88372087e-01 5.49033438e+04 2.29511368e+02
      2.58340267e-03</_>
    <_>
      1.52696073e-01 3.85480791e-01 9.99831498e-01 9.99832213e-01
      2.78727221e-03 3.35910797e-01 2.74322343e+00 9.98961851e-02
      1.12836063e-01 9.98178482e-01 2.56619629e+04 1.50111374e+02
      1.50441211e-02</_>
    <_>
      0. 1. 1. 1. 0. 0. 0. 0. 0. 0. -3. 0. 0.</_>
    <_>
      0. 1. 1. 1. 0. 0. 0. 0. 0. 0. -3. 0. 0.</_>
    <_>
      3.32536757e-01 7.63366297e-02 9.99494493e-01 9.99510646e-01
      6.46464014e-03 4.17845726e-01 3.88920331e+00 1.73509628e-01
      1.74595043e-01 9.99213815e-01 5.03747803e+03 6.90949249e+01
      4.89300489e-01</_>
    <_>
      0. 1. 1. 1. 0. 0. 0. 0. 0. 0. -3. 0. 0.</_>
    <_>
      7.24632382e-01 5.37788868e-01 9.98023927e-01 9.98324454e-01
      3.14585380e-02 8.87359321e-01 5.55251932e+00 3.82712841e-01
      7.87406564e-01 9.99838352e-01 9.62882141e+02 3.02568798e+01
      7.21085817e-02</_>
    <_>
      1.25091910e-01 2.87714243e-01 9.99479175e-01 9.99564886e-01
      4.98962402e-03 2.92300493e-01 4.07043791e+00 2.02962175e-01
      8.54395777e-02 9.98981655e-01 3.86148975e+03 6.10577927e+01
      1.65187046e-01</_>
    <_>
      3.22766542e+00 7.72132397e-01 9.91299510e-01 9.94206190e-01
      2.10474655e-01 2.57699180e+00 7.20456028e+00 9.23663616e-01
      6.64088631e+00 9.99975860e-01 1.71876526e+02 1.28830605e+01
      2.36769089e+02</_>
    <_>
      9.83241439e-01 8.44807178e-02 9.98820484e-01 9.98845100e-01
      1.66219082e-02 7.09253073e-01 4.72815752e+00 2.68936157e-01
      5.03039956e-01 9.99694109e-01 2.24412012e+03 4.60399513e+01
      1.37271479e-01</_>
    <_>
      5.11243880e-01 2.41906613e-01 9.99142170e-01 9.99166369e-01
      1.18560791e-02 5.69542170e-01 4.50152063e+00 2.39982828e-01
      3.24378282e-01 9.99571204e-01 3.07692676e+03 5.31782951e+01
      2.56472260e-01</_>
    <_>
      1.31556377e-01 1.66848451e-01 9.99601722e-01 9.99619067e-01
      3.89607740e-03 2.77893513e-01 3.69595361e+00 1.58608496e-01
      7.72248134e-02 9.98696208e-01 6.45825488e+03 7.73710098e+01
      5.71554995e+00</_>
    <_>
      2.12745100e-01 1.71619505e-01 9.99693632e-01 9.99695778e-01
      4.35384130e-03 3.48819405e-01 3.45665550e+00 1.41885266e-01
      1.21674970e-01 9.98833120e-01 7.58291504e+03 8.50647736e+01
      2.35761907e-02</_>
    <_>
      6.89031854e-02 6.66295886e-01 9.99892771e-01 9.99902427e-01
      2.58382154e-03 3.09052318e-01 2.66110516e+00 1.04329303e-01
      9.55133438e-02 9.98035371e-01 1.72822422e+04 1.28115097e+02
      4.61028099e+00</_>
    <_>
      3.01194847e-01 4.54718530e-01 9.99142170e-01 9.99230504e-01
      1.16221113e-02 5.12113392e-01 4.66285753e+00 2.61504889e-01
      2.62260139e-01 9.99562562e-01 2.51081836e+03 4.81051140e+01
      7.32959211e-01</_>
    <_>
      1.08762253e-02 7.05381155e-01 9.99938726e-01 9.99939322e-01
      8.59578431e-04 1.34427503e-01 2.13653326e+00 7.10679889e-02
      1.80707537e-02 9.94117618e-01 3.12591504e+04 1.70874374e+02
      5.06179035e-03</_>
    <_>
      0. 1. 1. 1. 0. 0. 0. 0. 0. 0. -3. 0. 0.</_>
    <_>
      1.02169120e+00 4.79564309e-01 9.97304022e-01 9.97790933e-01
      3.97949219e-02 9.80006039e-01 5.83066416e+00 4.70223367e-01
      9.60411787e-01 9.99872208e-01 7.89631775e+02 2.70010052e+01
      7.76236496e+01</_>
    <_>
      3.52910548e-01 3.46029371e-01 9.99111533e-01 9.99187350e-01
      1.11897783e-02 5.08770049e-01 4.60185623e+00 2.52308667e-01
      2.58846968e-01 9.99545634e-01 2.63282471e+03 4.95036621e+01
      3.69278453e-02</_>
    <_>
      3.12496924e+00 6.66513681e-01 9.90441442e-01 9.91269529e-01
      1.62373856e-01 2.12321663e+00 7.13809681e+00 8.96629751e-01
      4.50804853e+00 9.99968648e-01 2.56410797e+02 1.51518116e+01
      7.34268129e-01</_>
    <_>
      1.37107837e+00 5.93978584e-01 9.94179308e-01 9.95228469e-01
      7.76824951e-02 1.27153599e+00 6.64503336e+00 7.07419634e-01
      1.61680377e+00 9.99934554e-01 3.44937378e+02 1.78892002e+01
      5.94808912e+00</_>
    <_>
      8.46170366e-01 3.72704536e-01 9.96553659e-01 9.97223794e-01
      3.59598808e-02 8.07973206e-01 6.00268793e+00 5.30771077e-01
      6.52820647e-01 9.99858558e-01 6.23510376e+02 2.41604633e+01
      2.48870392e+01</_>
    <_>
      1.76783085e+00 4.52863991e-01 9.97533739e-01 9.97591734e-01
      4.47082520e-02 1.25503349e+00 5.62007236e+00 4.24231470e-01
      1.57510889e+00 9.99886274e-01 1.23002942e+03 3.29935799e+01
      3.82235626e+02</_>
    <_>
      1.47742033e+00 2.31251851e-01 9.98897076e-01 9.98921514e-01
      2.06298828e-02 9.49977517e-01 4.65054846e+00 2.68614471e-01
      9.02457297e-01 9.99753535e-01 3.38098242e+03 5.50068245e+01
      5.35307527e-01</_>
    <_>
      7.33455867e-02 9.51294675e-02 9.99770224e-01 9.99771774e-01
      2.07010913e-03 1.97077408e-01 3.12049007e+00 1.18761137e-01
      3.88395041e-02 9.97548997e-01 1.09336904e+04 1.01993576e+02
      2.17108410e-02</_>
    <_>
      0. 1. 1. 1. 0. 0. 0. 0. 0. 0. -3. 0. 0.</_>
    <_>
      2.60980392e+00 4.65504408e-01 9.98406887e-01 9.98446047e-01
      4.46523018e-02 1.52154493e+00 5.21435642e+00 3.48970473e-01
      2.31509900e+00 9.99886096e-01 1.65020764e+03 3.87565842e+01
      6.08230877e+00</_>
    <_>
      1.80238974e+00 6.03097379e-01 9.93138850e-01 9.94969606e-01
      9.06778947e-02 1.47496223e+00 6.74815607e+00 8.06959748e-01
      2.17551374e+00 9.99943912e-01 7.43430725e+02 2.29243145e+01
      6.18552744e-01</_>
    <_>
      1.10876225e-01 1.08285904e-01 9.99739587e-01 9.99743342e-01
      2.63977051e-03 2.44711623e-01 3.19077206e+00 1.34996593e-01
      5.98837771e-02 9.98076916e-01 1.16493652e+04 1.03246399e+02
      1.53042805e+00</_>
    <_>
      1.22365199e-01 -9.09688606e-05 9.99816179e-01 9.99816477e-01
      2.25830078e-03 2.43538290e-01 2.85794830e+00 9.91808102e-02
      5.93108982e-02 9.97752786e-01 1.36001299e+04 1.13965660e+02
      2.40593014e+01</_>
    <_>
      2.32738972e+00 5.14593720e-01 9.98039246e-01 9.98108983e-01
      4.14530449e-02 1.50954902e+00 5.21149063e+00 3.72195452e-01
      2.27873826e+00 9.99877334e-01 2.76328711e+03 4.88343010e+01
      1.49827414e+01</_>
    <_>
      8.59283090e-01 2.40706667e-01 9.98621345e-01 9.98662174e-01
      1.77154541e-02 7.28182316e-01 4.92646074e+00 3.23700637e-01
      5.30249536e-01 9.99712944e-01 4.10899414e+03 5.69326859e+01
      5.71461581e-02</_>
    <_>
      1.08768380e+00 2.27062896e-01 9.98805165e-01 9.98809040e-01
      1.82189941e-02 8.13372016e-01 4.69825935e+00 2.84915358e-01
      6.61574006e-01 9.99720931e-01 3.68791553e+03 5.51321526e+01
      1.75485063e+00</_>
    <_>
      2.31470585e+00 2.53979892e-01 9.95649695e-01 9.95766580e-01
      5.42602539e-02 1.22604227e+00 6.05630589e+00 5.25028706e-01
      1.50317967e+00 9.99906242e-01 7.95458496e+02 2.65667686e+01
      8.27429581e+01</_>
    <_>
      1.16605389e+00 7.64195800e-01 9.97595012e-01 9.98197794e-01
      6.55263290e-02 1.52599752e+00 5.91945601e+00 4.79684740e-01
      2.32866836e+00 9.99922395e-01 6.21338501e+02 2.44502792e+01
      2.76466125e+02</_>
    <_>
      3.81905627e+00 3.45705777e-01 9.93704438e-01 9.94088531e-01
      9.61405411e-02 1.67545307e+00 6.53353119e+00 6.68277085e-01
      2.80714297e+00 9.99947071e-01 4.16371521e+02 1.94167042e+01
      3.98001933e+00</_>
    <_>
      1.05015314e+00 4.43913311e-01 9.98069882e-01 9.98243630e-01
      3.01310215e-02 9.49182570e-01 5.37434483e+00 3.77810657e-01
      9.00947571e-01 9.99831200e-01 1.47793970e+03 3.64373207e+01
      1.22671247e-01</_>
    <_>
      7.65931383e-02 -3.00254105e-05 9.99938726e-01 9.99938786e-01
      1.02233887e-03 1.90924600e-01 1.75956988e+00 5.09811752e-02
      3.64522003e-02 9.95049477e-01 4.08823320e+04 1.97422775e+02
      8.69477093e-02</_>
    <_>
      6.18137240e-01 2.71706700e-01 9.99739587e-01 9.99742985e-01
      7.19706202e-03 6.28209591e-01 3.32133842e+00 1.40353471e-01
      3.94647300e-01 9.99293804e-01 1.06022188e+04 9.84798355e+01
      2.13298111e+01</_>
    <_>
      1.16988361e+00 4.97092783e-01 9.98590708e-01 9.98833477e-01
      3.11533604e-02 1.05284417e+00 5.17743683e+00 3.34746867e-01
      1.10848081e+00 9.99836743e-01 1.33230017e+03 3.56782112e+01
      2.42424056e-01</_>
    <_>
      3.93995084e-02 -7.62415948e-05 9.99846816e-01 9.99847412e-01
      1.15966797e-03 1.38616577e-01 2.65860009e+00 1.00505315e-01
      1.92145575e-02 9.95633185e-01 1.67013926e+04 1.26618919e+02
      8.22059717e-03</_>
    <_>
      1.97778797e+00 4.89530981e-01 9.94853139e-01 9.95612442e-01
      7.48647079e-02 1.36501515e+00 6.44855595e+00 6.49812639e-01
      1.86326635e+00 9.99932051e-01 4.82666565e+02 2.07444382e+01
      3.37586899e+01</_>
    <_>
      5.40594339e-01 2.18110412e-01 9.98146534e-01 9.98297751e-01
      1.76951084e-02 5.75892389e-01 5.26776361e+00 3.67900193e-01
      3.31652015e-01 9.99712646e-01 1.34491150e+03 3.53285751e+01
      2.46611423e+01</_>
    <_>
      6.46783113e-01 4.45774257e-01 9.99019623e-01 9.99070585e-01
      1.71864834e-02 7.45643437e-01 4.74564171e+00 2.84638524e-01
      5.55984139e-01 9.99704123e-01 3.12326733e+03 5.17861443e+01
      9.13445771e-01</_>
    <_>
      2.19859076e+00 3.26525450e-01 9.93276179e-01 9.94107544e-01
      7.36185685e-02 1.27101564e+00 6.58143568e+00 7.24255681e-01
      1.61548078e+00 9.99930918e-01 5.03814270e+02 2.06660633e+01
      3.57436523e+01</_>
    <_>
      3.20196080e+00 7.20904946e-01 9.86766815e-01 9.91785586e-01
      2.31313065e-01 2.35406828e+00 7.58203840e+00 1.11574340e+00
      5.54163790e+00 9.99978006e-01 1.23328415e+02 1.08652763e+01
      3.58922195e+00</_>
    <_>
      3.41237754e-01 2.53531158e-01 9.99341309e-01 9.99344707e-01
      8.27026367e-03 4.65923280e-01 4.19351339e+00 2.06576243e-01
      2.17084512e-01 9.99385357e-01 4.34060742e+03 6.30708809e+01
      1.38740212e-01</_>
    <_>
      1.10912991e+00 4.41236317e-01 9.99586403e-01 9.99588907e-01
      1.41601563e-02 9.68872249e-01 3.84757686e+00 1.91233441e-01
      9.38713491e-01 9.99640942e-01 7.28334277e+03 8.07066803e+01
      2.80336328e-02</_>
    <_>
      4.23100479e-02 -7.64215001e-05 9.99846816e-01 9.99847353e-01
      1.22578943e-03 1.44596413e-01 2.67753196e+00 1.02435157e-01
      2.09081247e-02 9.95867789e-01 1.62664902e+04 1.24580643e+02
      2.09850863e-01</_>
    <_>
      3.11341906e+00 7.04207182e-01 9.97932017e-01 9.98104334e-01
      7.57649764e-02 2.20369911e+00 5.56056738e+00 4.22417194e-01
      4.85628986e+00 9.99932885e-01 1.29628418e+03 3.42674675e+01
      1.86445427e+00</_>
    <_>
      2.67503071e+00 7.91213453e-01 9.93566453e-01 9.95431125e-01
      1.72419235e-01 2.44437242e+00 6.91508627e+00 8.00063193e-01
      5.97495604e+00 9.99970496e-01 2.31601868e+02 1.49491329e+01
      2.94055084e+02</_>
    <_>
      1.68710172e+00 3.90085340e-01 9.97518539e-01 9.97897148e-01
      3.62803154e-02 1.14455175e+00 5.49946833e+00 4.47926134e-01
      1.30999863e+00 9.99859810e-01 2.42539746e+03 4.45282860e+01
      7.70340300e+00</_>
    <_>
      0. 1. 1. 1. 0. 0. 0. 0. 0. 0. -3. 0. 0.</_>
    <_>
      2.98419118e+00 6.99735463e-01 9.87700343e-01 9.91199017e-01
      2.04360962e-01 2.19182515e+00 7.49550676e+00 1.05673754e+00
      4.80409718e+00 9.99975085e-01 1.57264923e+02 1.19135723e+01
      6.54424250e-01</_>
    <_>
      1.49568009e+00 4.70280975e-01 9.95037079e-01 9.96335030e-01
      6.25915527e-02 1.17193091e+00 6.42034054e+00 6.23745501e-01
      1.37342203e+00 9.99918759e-01 5.93998108e+02 2.23475056e+01
      6.53248672e+01</_>
    <_>
      6.57475516e-02 -2.92390177e-05 9.99938726e-01 9.99938786e-01
      9.25699889e-04 1.75677508e-01 1.74106920e+00 6.94390163e-02
      3.08625866e-02 9.94535506e-01 4.41342266e+04 2.04338577e+02
      4.73883539e-01</_>
    <_>
      6.81127429e-01 7.90920675e-01 9.99754906e-01 9.99758005e-01
      1.61895752e-02 1.24118280e+00 3.57379532e+00 1.36607096e-01
      1.54053485e+00 9.99685943e-01 7.50117627e+03 8.41287003e+01
      4.30673027e+00</_>
    <_>
      3.24356616e-01 3.22354198e-01 9.99325991e-01 9.99369264e-01
      8.83992482e-03 4.79969025e-01 4.28708220e+00 2.13430479e-01
      2.30370253e-01 9.99424934e-01 4.53666602e+03 6.31673393e+01
      1.09154463e-01</_>
    <_>
      3.92598033e+00 5.21505773e-01 9.93934095e-01 9.95073199e-01
      1.02371216e-01 2.00706577e+00 6.52870989e+00 6.89195812e-01
      4.02831316e+00 9.99950290e-01 2.07624658e+03 3.68379173e+01
      1.42992233e+02</_>
    <_>
      1.01228857e+01 3.25193882e-01 9.94148433e-01 9.94343162e-01
      1.46982834e-01 2.68529844e+00 6.47880936e+00 6.45000637e-01
      7.21082830e+00 9.99965370e-01 5.38639648e+02 2.16644917e+01
      1.85956752e+00</_>
    <_>
      1.74776351e+00 9.07779455e-01 9.76479828e-01 9.90734279e-01
      4.29448456e-01 3.02351427e+00 8.30813694e+00 1.61027706e+00
      9.14163876e+00 9.99988139e-01 5.77591209e+01 7.47184038e+00
      1.51464874e+02</_>
    <_>
      5.63691807e+00 4.02796745e-01 9.90702152e-01 9.91379976e-01
      1.43193558e-01 2.13123989e+00 6.90657234e+00 8.12615812e-01
      4.54218388e+00 9.99964476e-01 4.01105835e+02 1.83642426e+01
      4.05389938e+01</_>
    <_>
      0. 1. 1. 1. 0. 0. 0. 0. 0. 0. -3. 0. 0.</_>
    <_>
      3.27895212e+00 7.19066679e-01 9.94577408e-01 9.95805800e-01
      1.48086548e-01 2.34708476e+00 6.69017363e+00 7.21331835e-01
      5.50880671e+00 9.99965668e-01 2.89452759e+02 1.66884460e+01
      6.13410854e+00</_>
    <_>
      1.29859066e+00 5.26204109e-01 9.93275821e-01 9.94694412e-01
      7.29522705e-02 1.16196907e+00 6.71618462e+00 7.31561124e-01
      1.35017216e+00 9.99930263e-01 3.52353607e+02 1.78533268e+01
      2.95972228e-01</_>
    <_>
      1.84908092e+00 6.96928620e-01 9.87901509e-01 9.92245793e-01
      1.60344437e-01 1.71735287e+00 7.47368813e+00 1.08541977e+00
      2.94930077e+00 9.99968290e-01 1.36252075e+02 1.13792810e+01
      3.28313732e+00</_>
    <_>
      1.59638476e+00 2.91084886e-01 9.96767879e-01 9.96864498e-01
      4.03086357e-02 1.03730261e+00 5.78611135e+00 4.58730817e-01
      1.07599664e+00 9.99873817e-01 1.11477380e+03 3.07640381e+01
      6.66908205e-01</_>
    <_>
      3.59375000e-01 1.38200492e-01 9.99142170e-01 9.99155641e-01
      8.98742676e-03 4.49128836e-01 4.42499208e+00 2.42008924e-01
      2.01716706e-01 9.99434412e-01 3.35588525e+03 5.54301910e+01
      3.77124672e+01</_>
    <_>
      6.64613962e-01 6.19155288e-01 9.96997654e-01 9.97759879e-01
      4.12343331e-02 9.21645224e-01 6.03230667e+00 5.09886563e-01
      8.49429905e-01 9.99876678e-01 6.88741699e+02 2.49454308e+01
      6.78825226e+01</_>
    <_>
      0. 1. 1. 1. 0. 0. 0. 0. 0. 0. -3. 0. 0.</_>
    <_>
      2.46629901e-02 -4.56915586e-05 9.99908090e-01 9.99908447e-01
      7.22249330e-04 1.10758945e-01 2.15735173e+00 8.40222165e-02
      1.22675449e-02 9.93007004e-01 2.75272500e+04 1.62360184e+02
      1.57684309e-03</_>
    <_>
      3.32049632e+00 3.45433205e-01 9.96323586e-01 9.96419311e-01
      6.76218644e-02 1.55790329e+00 5.98525286e+00 5.09667099e-01
      2.42706275e+00 9.99924779e-01 7.26709595e+02 2.58498192e+01
      4.55854535e-01</_>
    <_>
      0. 1. 1. 1. 0. 0. 0. 0. 0. 0. -3. 0. 0.</_>
    <_>
      0. 1. 1. 1. 0. 0. 0. 0. 0. 0. -3. 0. 0.</_>
    <_>
      0. 1. 1. 1. 0. 0. 0. 0. 0. 0. -3. 0. 0.</_>
    <_>
      1.65370715e+00 3.61272395e-01 9.95710969e-01 9.96278644e-01
      5.34057617e-02 1.12084472e+00 6.18749666e+00 5.70571065e-01
      1.25629294e+00 9.99904752e-01 6.71714539e+02 2.43886185e+01
      3.44980354e+01</_>
    <_>
      2.91544110e-01 8.15446436e-01 9.99586403e-01 9.99660611e-01
      1.51214600e-02 8.81111383e-01 4.11711073e+00 2.05452904e-01
      7.76357234e-01 9.99663770e-01 4.38536084e+03 6.40286179e+01
      6.67100474e-02</_>
    <_>
      0. 1. 1. 1. 0. 0. 0. 0. 0. 0. -3. 0. 0.</_>
    <_>
      1.49776351e+00 3.59049827e-01 9.96139884e-01 9.96291280e-01
      4.64731865e-02 1.05971599e+00 6.01310253e+00 5.11738658e-01
      1.12299788e+00 9.99890566e-01 7.30600342e+02 2.58306770e+01
      7.83909082e+00</_>
    <_>
      0. 1. 1. 1. 0. 0. 0. 0. 0. 0. -3. 0. 0.</_>
    <_>
      8.09742659e-02 2.96836793e-01 9.99862134e-01 9.99862969e-01
      1.92769372e-03 2.33181313e-01 2.65064502e+00 1.00530617e-01
      5.43735214e-02 9.97368395e-01 1.89735664e+04 1.32772400e+02
      1.81868240e-01</_>
    <_>
      1.86305150e-01 5.42662382e-01 9.99371946e-01 9.99406815e-01
      8.67207814e-03 4.43837881e-01 4.37004375e+00 2.32030377e-01
      1.96992055e-01 9.99413848e-01 3.36805542e+03 5.59835281e+01
      2.55257549e+01</_>
    <_>
      3.38397670e+00 7.63880789e-01 9.89185810e-01 9.91981447e-01
      2.33459473e-01 2.61050153e+00 7.39531708e+00 1.01329863e+00
      6.81471872e+00 9.99978185e-01 1.47969757e+02 1.19167528e+01
      1.08547230e+01</_>
    <_>
      4.75857854e-01 6.72626674e-01 9.99050260e-01 9.99203384e-01
      2.10876465e-02 8.31895411e-01 4.88556719e+00 2.74421602e-01
      6.92050040e-01 9.99758840e-01 1.91969800e+03 4.25749931e+01
      6.73165172e-02</_>
    <_>
      1.95209861e+00 3.63117903e-01 9.93521810e-01 9.94586468e-01
      7.20163956e-02 1.24147749e+00 6.58210087e+00 7.13226795e-01
      1.54126644e+00 9.99929368e-01 4.94135345e+02 2.05013103e+01
      4.83848858e+00</_>
    <_>
      9.89123762e-01 4.60283130e-01 9.97641027e-01 9.97867107e-01
      3.32285576e-02 9.39975917e-01 5.59682846e+00 4.42557037e-01
      8.83554697e-01 9.99846935e-01 1.26439502e+03 3.33329697e+01
      1.91066322e+01</_>
    <_>
      1.69623160e+00 3.19564342e-01 9.96767879e-01 9.96927261e-01
      4.33502197e-02 1.09349310e+00 5.83240223e+00 4.72914457e-01
      1.19572711e+00 9.99882698e-01 1.20572961e+03 3.08983669e+01
      5.01157761e+01</_>
    <_>
      0. 1. 1. 1. 0. 0. 0. 0. 0. 0. -3. 0. 0.</_>
    <_>
      8.85416660e-03 -1.53188630e-05 9.99969363e-01 9.99969482e-01
      2.49226898e-04 6.54024854e-02 1.07314134e+00 4.09069732e-02
      4.27748496e-03 9.80000019e-01 7.80380234e+04 2.74247864e+02
      4.04511491e-04</_>
    <_>
      1.62484682e+00 2.29081854e-01 9.97610390e-01 9.97757912e-01
      3.44034843e-02 1.00156355e+00 5.54630709e+00 4.08746332e-01
      1.00312960e+00 9.99852180e-01 1.58243372e+03 3.59235611e+01
      4.06262732e+00</_>
    <_>
      2.48284310e-01 2.88338095e-01 9.99111533e-01 9.99148726e-01
      8.80940724e-03 4.15085346e-01 4.53532982e+00 2.53575504e-01
      1.72295853e-01 9.99422967e-01 2.88465576e+03 5.16762199e+01
      1.01610094e-01</_>
    <_>
      2.69797802e+00 7.23758280e-01 9.83873725e-01 9.90688980e-01
      2.25814819e-01 2.15881658e+00 7.74304104e+00 1.20730090e+00
      4.66048956e+00 9.99977469e-01 1.53385193e+02 1.12815695e+01
      2.45787704e+02</_>
    <_>
      1.60814953e+00 2.91134000e-01 9.97487783e-01 9.97570038e-01
      3.76485176e-02 1.04390061e+00 5.59933043e+00 4.11425382e-01
      1.08972847e+00 9.99864936e-01 1.00639581e+03 3.05199852e+01
      4.78794556e+01</_>
    <_>
      9.95465696e-01 6.31629765e-01 9.97518420e-01 9.97934639e-01
      4.63358574e-02 1.13208914e+00 5.83449936e+00 4.64827329e-01
      1.28162575e+00 9.99890268e-01 7.21620361e+02 2.61452026e+01
      1.22927567e+02</_>
    <_>
      1.55235910e+00 2.82021105e-01 9.97089565e-01 9.97158349e-01
      3.81317139e-02 1.02140069e+00 5.69706297e+00 4.35022503e-01
      1.04325926e+00 9.99866605e-01 1.05131909e+03 3.07451820e+01
      5.16995430e+00</_>
    <_>
      1.29932597e-01 3.05371463e-01 9.99555767e-01 9.99579787e-01
      4.69970703e-03 3.00058812e-01 3.90342307e+00 1.77379876e-01
      9.00352895e-02 9.98918891e-01 4.74880420e+03 6.72905655e+01
      2.14795172e-02</_>
    <_>
      2.40502451e-02 -2.96819417e-05 9.99938726e-01 9.99938905e-01
      5.69661439e-04 1.06689885e-01 1.75683618e+00 6.98042959e-02
      1.13827325e-02 9.91150439e-01 4.17059141e+04 1.99049881e+02
      1.94130838e-02</_>
    <_>
      2.87408090e+00 4.21754181e-01 9.92463708e-01 9.93320704e-01
      9.66084823e-02 1.56234217e+00 6.74469709e+00 7.67834008e-01
      2.44091296e+00 9.99947369e-01 5.14026978e+02 2.04021893e+01
      2.17190228e+01</_>
    <_>
      4.93658096e-01 3.38742733e-01 9.98774529e-01 9.98962283e-01
      1.45619707e-02 5.97206354e-01 4.88046741e+00 3.08461875e-01
      3.56655419e-01 9.99650836e-01 3.45010229e+03 5.25092735e+01
      1.43284869e+00</_>
    <_>
      0. 1. 1. 1. 0. 0. 0. 0. 0. 0. -3. 0. 0.</_>
    <_>
      6.66697323e-01 6.20551586e-01 9.97181475e-01 9.97928441e-01
      4.00543213e-02 9.27369237e-01 5.95942163e+00 4.83749807e-01
      8.60013664e-01 9.99873042e-01 6.94718140e+02 2.54350224e+01
      5.79200478e+01</_>
    <_>
      3.35171580e-01 2.58772343e-01 9.99402583e-01 9.99424517e-01
      8.01595021e-03 4.62487280e-01 4.13026857e+00 1.85124934e-01
      2.13894486e-01 9.99365866e-01 4.33409863e+03 6.32937050e+01
      4.31036294e-01</_>
    <_>
      1.72181368e+00 2.85060644e-01 9.96308506e-01 9.96850729e-01
      4.57967110e-02 1.07213497e+00 5.98774147e+00 5.33275843e-01
      1.14947331e+00 9.99888957e-01 9.92968506e+02 2.88347187e+01
      4.37623930e+00</_>
    <_>
      3.11488956e-01 7.41949677e-02 9.99234080e-01 9.99239683e-01
      7.58361816e-03 4.01196122e-01 4.30275965e+00 2.09352165e-01
      1.60958320e-01 9.99329746e-01 3.68729614e+03 5.82009659e+01
      6.43946081e-02</_>
    <_>
      6.21905625e-01 2.31016874e-01 9.97916877e-01 9.98221815e-01
      2.09197998e-02 6.29738510e-01 5.42422962e+00 4.15992707e-01
      3.96570623e-01 9.99756932e-01 1.19619006e+03 3.30200806e+01
      2.42011280e+01</_>
    <_>
      9.42432582e-01 2.93580115e-01 9.95957136e-01 9.96575058e-01
      3.81418876e-02 8.08631420e-01 6.11179352e+00 5.98719120e-01
      6.53884768e-01 9.99866664e-01 5.33825745e+02 2.25035305e+01
      1.45900738e+00</_>
    <_>
      0. 1. 1. 1. 0. 0. 0. 0. 0. 0. -3. 0. 0.</_>
    <_>
      5.10916042e+00 5.75412095e-01 9.87087190e-01 9.88463163e-01
      2.08282471e-01 2.39259100e+00 7.39998913e+00 1.02997184e+00
      5.72449160e+00 9.99975562e-01 2.95448120e+02 1.44834852e+01
      1.06405434e+02</_>
    <_>
      0. 1. 1. 1. 0. 0. 0. 0. 0. 0. -3. 0. 0.</_>
    <_>
      0. 1. 1. 1. 0. 0. 0. 0. 0. 0. -3. 0. 0.</_>
    <_>
      6.77175224e-01 1.20519586e-02 9.99739587e-01 9.99747515e-01
      5.59488917e-03 5.61440349e-01 3.11242867e+00 1.25568375e-01
      3.15215290e-01 9.99091744e-01 1.65611250e+04 1.22100769e+02
      1.76795553e-02</_>
    <_>
      3.81740183e-01 3.51088881e-01 9.99586403e-01 9.99587655e-01
      7.01904297e-03 5.27186096e-01 3.66737223e+00 1.59280509e-01
      2.77925193e-01 9.99275863e-01 8.90325879e+03 8.95174484e+01
      9.81096625e-02</_>
    <_>
      1.48753059e+00 6.23181045e-01 9.98468161e-01 9.98798490e-01
      4.40266915e-02 1.35696495e+00 5.35905743e+00 3.58397096e-01
      1.84135389e+00 9.99884486e-01 1.09043665e+03 3.23647270e+01
      4.05883169e+00</_>
    <_>
      6.09375015e-02 -3.05688736e-05 9.99938726e-01 9.99938786e-01
      9.05354798e-04 1.69128135e-01 1.75866222e+00 6.21736273e-02
      2.86043230e-02 9.94413435e-01 4.04037578e+04 1.96865753e+02
      1.70052715e-03</_>
    <_>
      7.93504938e-02 3.13247800e-01 9.99708951e-01 9.99740958e-01
      2.92968750e-03 2.34595299e-01 3.45765924e+00 1.54251546e-01
      5.50349541e-02 9.98266876e-01 7.63312256e+03 8.51667862e+01
      2.40794942e-02</_>
    <_>
      1.30637258e-01 -3.04082569e-05 9.99938726e-01 9.99938726e-01
      1.36820471e-03 2.54302889e-01 1.76511860e+00 6.91086203e-02
      6.46699592e-02 9.96296287e-01 3.99611016e+04 1.95437347e+02
      3.96733135e-02</_>
    <_>
      6.78002462e-02 3.23003471e-01 9.99923408e-01 9.99931097e-01
      1.43941247e-03 2.17778176e-01 2.17314482e+00 5.62011525e-02
      4.74273302e-02 9.96478856e-01 2.57439316e+04 1.57697281e+02
      2.60604043e-02</_>
    <_>
      1.76372552e+00 4.31108624e-01 9.94592905e-01 9.94944811e-01
      6.65283203e-02 1.22118020e+00 6.43230200e+00 6.46206021e-01
      1.49128115e+00 9.99923527e-01 4.64416199e+02 2.05704632e+01
      2.19328480e+01</_>
    <_>
      1.52236521e-01 3.14378142e-01 9.99831498e-01 9.99831975e-01
      2.74149585e-03 3.22933912e-01 2.75313067e+00 1.02683119e-01
      1.04286306e-01 9.98148143e-01 2.06634688e+04 1.37041473e+02
      2.01606169e-01</_>
    <_>
      1.88388482e-01 -3.32005467e-04 9.99326050e-01 9.99328494e-01
      5.29988622e-03 3.03403378e-01 4.13444996e+00 2.24532932e-01
      9.20536146e-02 9.99041200e-01 4.00933105e+03 6.14350128e+01
      2.87461357e+01</_>
    <_>
      3.01776975e-01 4.37496483e-01 9.98912394e-01 9.99093771e-01
      1.27207441e-02 4.99710947e-01 4.87451982e+00 2.95148134e-01
      2.49711022e-01 9.99600291e-01 1.76669958e+03 4.12339478e+01
      2.83682555e-01</_>
    <_>
      2.23345589e-02 -1.53188630e-05 9.99969363e-01 9.99969423e-01
      3.86555999e-04 1.03496477e-01 1.05085838e+00 3.99635658e-02
      1.07115209e-02 9.87012982e-01 8.67367969e+04 2.87178406e+02
      1.67389959e-03</_>
    <_>
      3.92769612e-02 3.84466201e-01 9.99800861e-01 9.99847412e-01
      1.90226233e-03 1.77082688e-01 3.14831758e+00 1.35429189e-01
      3.13582793e-02 9.97333348e-01 9.87277539e+03 9.75344772e+01
      1.48552097e-02</_>
    <_>
      0. 1. 1. 1. 0. 0. 0. 0. 0. 0. -3. 0. 0.</_>
    <_>
      9.57107842e-02 -7.54023640e-05 9.99846816e-01 9.99847054e-01
      1.81070960e-03 2.14729562e-01 2.67056179e+00 8.39616582e-02
      4.61087823e-02 9.97198880e-01 1.64838320e+04 1.25548538e+02
      6.69511035e-03</_>
    <_>
      1.54537380e+00 3.69195759e-01 9.94639516e-01 9.95620549e-01
      5.94838448e-02 1.09268308e+00 6.43129730e+00 6.70893908e-01
      1.19395614e+00 9.99914527e-01 5.07572296e+02 2.10390434e+01
      6.18794680e+00</_>
    <_>
      4.36764717e-01 3.58278841e-01 9.99402583e-01 9.99429047e-01
      1.03708906e-02 5.69347858e-01 4.22636032e+00 2.04236239e-01
      3.24156970e-01 9.99509811e-01 3.94427588e+03 6.02221336e+01
      1.37141675e-01</_>
    <_>
      0. 1. 1. 1. 0. 0. 0. 0. 0. 0. -3. 0. 0.</_>
    <_>
      1.16911761e-01 7.01211452e-01 9.99540448e-01 9.99624372e-01
      6.76981593e-03 4.33658212e-01 3.99756694e+00 1.95871592e-01
      1.88059434e-01 9.99249220e-01 7.24769824e+03 7.92070694e+01
      5.29280044e-02</_>
    <_>
      7.94730410e-02 -3.06145703e-05 9.99938726e-01 9.99938786e-01
      1.04268396e-03 1.93149298e-01 1.76770055e+00 4.63841483e-02
      3.73066515e-02 9.95145619e-01 3.83353047e+04 1.92688889e+02
      2.03266181e-02</_>
    <_>
      3.75306383e-02 -3.00254105e-05 9.99938726e-01 9.99938846e-01
      7.17163086e-04 1.34617388e-01 1.75432014e+00 7.14249387e-02
      1.81218404e-02 9.92957771e-01 4.24471328e+04 2.00307968e+02
      3.23171751e-03</_>
    <_>
      5.56031876e+01 6.88767254e-01 9.85907078e-01 9.87014771e-01
      8.95909607e-01 9.16587830e+00 7.60146570e+00 1.11434066e+00
      8.40133209e+01 9.99994338e-01 1.39897644e+02 1.14056921e+01
      3.99460149e+00</_>
    <_>
      2.62591898e-01 2.82299459e-01 9.99019623e-01 9.99150097e-01
      9.61303711e-03 4.26466584e-01 4.66549444e+00 2.71833092e-01
      1.81873739e-01 9.99471188e-01 2.66430518e+03 4.94077606e+01
      7.84398988e-02</_>
    <_>
      0. 1. 1. 1. 0. 0. 0. 0. 0. 0. -3. 0. 0.</_>
    <_>
      2.60036755e+00 8.20690989e-01 9.77053404e-01 9.91866350e-01
      3.51181030e-01 2.70180345e+00 8.21228218e+00 1.46971071e+00
      7.29974222e+00 9.99985516e-01 1.66663437e+02 1.04271898e+01
      3.82196689e+00</_>
    <_>
      8.06678906e-02 9.87683162e-02 9.99708951e-01 9.99725223e-01
      2.49226880e-03 2.08643720e-01 3.36596704e+00 1.41777679e-01
      4.35322002e-02 9.97963369e-01 8.23915234e+03 8.86424713e+01
      4.48340848e-02</_>
    <_>
      2.27539825e+00 2.46430293e-01 9.97181475e-01 9.97274756e-01
      4.32942696e-02 1.19522631e+00 5.67985153e+00 4.27836925e-01
      1.42856586e+00 9.99882519e-01 1.71851941e+03 3.62328110e+01
      7.54928350e+00</_>
    <_>
      2.15952826e+00 6.79131091e-01 9.84465003e-01 9.91515636e-01
      1.91513062e-01 1.80847418e+00 7.71838474e+00 1.28085494e+00
      3.27057886e+00 9.99973416e-01 1.02187141e+02 9.91905689e+00
      3.76236153e+01</_>
    <_>
      2.21299028e+00 3.50217998e-01 9.93429005e-01 9.94366229e-01
      7.12076798e-02 1.30321515e+00 6.54146099e+00 6.89620018e-01
      1.69836986e+00 9.99928594e-01 1.20121912e+03 2.78807812e+01
      7.17052078e+01</_>
    <_>
      8.60906839e-02 -2.98531340e-05 9.99938726e-01 9.99938786e-01
      1.06811523e-03 2.00805262e-01 1.75173771e+00 6.21736273e-02
      4.03227508e-02 9.95260656e-01 4.21202813e+04 2.00132401e+02
      2.12935638e-03</_>
    <_>
      4.09208012e+00 5.67784965e-01 9.84514534e-01 9.91344392e-01
      2.13867188e-01 2.15493011e+00 7.66298008e+00 1.31967676e+00
      4.64372396e+00 9.99976218e-01 2.05712082e+02 1.27067633e+01
      2.74126797e+01</_>
    <_>
      8.24754909e-02 2.59490997e-01 9.99678314e-01 9.99688447e-01
      3.03649902e-03 2.34257638e-01 3.53670216e+00 1.45023093e-01
      5.48766442e-02 9.98327732e-01 7.18063330e+03 8.25134964e+01
      2.38711879e-01</_>
    <_>
      0. 1. 1. 1. 0. 0. 0. 0. 0. 0. -3. 0. 0.</_>
    <_>
      4.35876220e-01 4.27951485e-01 9.99172866e-01 9.99369562e-01
      1.22629805e-02 6.05462193e-01 4.52106714e+00 2.85619617e-01
      3.66584450e-01 9.99585390e-01 4.38502441e+03 6.16190758e+01
      3.29088271e-02</_>
    <_>
      4.31678928e-02 5.91930568e-01 9.99938726e-01 9.99939203e-01
      1.44958496e-03 2.22125500e-01 2.15780950e+00 7.12109804e-02
      4.93397377e-02 9.96503472e-01 2.72678535e+04 1.61794724e+02
      1.79735050e-02</_>
    <_>
      2.53768384e-01 5.10037243e-01 9.99142170e-01 9.99259531e-01
      1.15305586e-02 4.99322355e-01 4.69197321e+00 2.61660427e-01
      2.49322817e-01 9.99559104e-01 2.30185059e+03 4.65339584e+01
      3.45626259e+01</_>
    <_>
      2.03155637e-01 4.09989685e-01 9.99540448e-01 9.99560595e-01
      6.69352198e-03 4.06595349e-01 4.00818729e+00 1.83995023e-01
      1.65319785e-01 9.99240696e-01 4.38418359e+03 6.45214920e+01
      3.09231937e-01</_>
    <_>
      9.30484056e-01 3.61083955e-01 9.98406887e-01 9.98560488e-01
      2.40478516e-02 8.36674333e-01 5.19044971e+00 3.36693674e-01
      7.00023890e-01 9.99788523e-01 1.97775610e+03 4.14792862e+01
      3.13189578e+00</_>
    <_>
      4.55667883e-01 8.11243117e-01 9.97610390e-01 9.98739541e-01
      4.71343994e-02 1.08752930e+00 5.94721842e+00 4.85512972e-01
      1.18271995e+00 9.99892116e-01 6.36315735e+02 2.46044140e+01
      4.11380081e+01</_>
    <_>
      3.69393378e-01 6.60733163e-01 9.99356627e-01 9.99424875e-01
      1.51774092e-02 7.20512390e-01 4.49941587e+00 2.39016533e-01
      5.19138157e-01 9.99664962e-01 2.64619556e+03 5.02394257e+01
      5.06764390e-02</_>
    <_>
      2.55441165e+00 7.32936203e-01 9.86276865e-01 9.91929054e-01
      2.14838669e-01 2.17959690e+00 7.59848118e+00 1.12148833e+00
      4.75064325e+00 9.99976337e-01 1.31108032e+02 1.10691862e+01
      3.62786484e+00</_>
    <_>
      2.93391538e+00 8.98467124e-01 9.76451278e-01 9.90002394e-01
      5.41732788e-01 3.77795529e+00 8.31450844e+00 1.51210904e+00
      1.42729473e+01 9.99990582e-01 5.33345375e+01 7.24719048e+00
      2.01391373e+02</_>
    <_>
      0. 1. 1. 1. 0. 0. 0. 0. 0. 0. -3. 0. 0.</_>
    <_>
      2.17640924e+00 5.54681182e-01 9.92371976e-01 9.93638098e-01
      1.06140137e-01 1.53504705e+00 6.89086819e+00 7.75893092e-01
      2.35636926e+00 9.99952078e-01 2.68427307e+02 1.57887096e+01
      2.65577972e+02</_>
    <_>
      6.07536770e-02 -9.17888610e-05 9.99816179e-01 9.99816716e-01
      1.59200036e-03 1.70515776e-01 2.86485100e+00 1.04158528e-01
      2.90756319e-02 9.96815264e-01 1.29421143e+04 1.11773560e+02
      6.29722420e-03</_>
    <_>
      4.98161763e-02 3.44031006e-01 9.99846816e-01 9.99877751e-01
      1.75476074e-03 1.88749015e-01 2.86061907e+00 1.16163060e-01
      3.56261916e-02 9.97109830e-01 1.33693164e+04 1.13178444e+02
      3.12599242e-02</_>
    <_>
      6.47365227e-02 2.49322414e-01 9.99862134e-01 9.99870062e-01
      1.72932947e-03 2.05334187e-01 2.66993856e+00 9.80460942e-02
      4.21621315e-02 9.97067451e-01 1.68149512e+04 1.26382133e+02
      5.41757382e-02</_>
    <_>
      0. 1. 1. 1. 0. 0. 0. 0. 0. 0. -3. 0. 0.</_>
    <_>
      8.60784292e-01 2.31238320e-01 9.97579753e-01 9.97694731e-01
      2.54160557e-02 7.38119304e-01 5.51847696e+00 4.09709573e-01
      5.44820130e-01 9.99799907e-01 1.22885974e+03 3.30177536e+01
      4.00856209e+00</_>
    <_>
      1.39175856e+00 8.16926181e-01 9.91958439e-01 9.95204568e-01
      1.52104691e-01 1.92272735e+00 7.15007973e+00 8.97023916e-01
      3.69688058e+00 9.99966562e-01 1.91470718e+02 1.35112572e+01
      1.77241348e+02</_>
    <_>
      5.37990183e-02 3.68949115e-01 9.99800861e-01 9.99839604e-01
      2.18200684e-03 2.04324186e-01 3.14280963e+00 1.25345394e-01
      4.17483710e-02 9.97674406e-01 1.03633936e+04 9.93552399e+01
      2.90683974e-02</_>
    <_>
      2.23345589e-02 -1.53188630e-05 9.99969363e-01 9.99969423e-01
      3.91642243e-04 1.03077881e-01 1.06949437e+00 3.88666950e-02
      1.06250504e-02 9.87179458e-01 7.87421172e+04 2.75593201e+02
      6.18103542e-04</_>
    <_>
      4.59558815e-01 4.17021632e-01 9.97962892e-01 9.98489320e-01
      2.14589443e-02 6.17568374e-01 5.51023674e+00 4.36399996e-01
      3.81390721e-01 9.99763012e-01 1.07853259e+03 3.13349457e+01
      3.19501419e+01</_>
    <_>
      2.28860289e-01 3.23225468e-01 9.99142170e-01 9.99190986e-01
      8.52457713e-03 4.08931166e-01 4.51239872e+00 2.37950161e-01
      1.67224690e-01 9.99403715e-01 3.10531592e+03 5.34241714e+01
      2.40062237e-01</_>
    <_>
      4.19087023e-01 2.43343711e-01 9.99080896e-01 9.99121189e-01
      1.09507246e-02 5.15336037e-01 4.55250692e+00 2.31195882e-01
      2.65571207e-01 9.99535739e-01 3.18402441e+03 5.33178368e+01
      5.89306653e-01</_>
    <_>
      0. 1. 1. 1. 0. 0. 0. 0. 0. 0. -3. 0. 0.</_>
    <_>
      1.72273278e-01 5.02656363e-02 9.99525130e-01 9.99526680e-01
      4.36401367e-03 2.95434564e-01 3.81058383e+00 1.73230916e-01
      8.72815773e-02 9.98835862e-01 5.94647607e+03 7.42022018e+01
      5.83619177e-02</_>
    <_>
      3.46608448e+00 7.43686736e-01 9.72370803e-01 9.86510396e-01
      3.61495972e-01 2.54574084e+00 8.32493305e+00 1.64277673e+00
      6.48079634e+00 9.99985933e-01 6.94983978e+01 7.82485867e+00
      9.24331360e+02</_>
    <_>
      1.73314944e-01 2.07524061e-01 9.99341309e-01 9.99419868e-01
      6.10860204e-03 3.27175468e-01 4.25153589e+00 2.31723279e-01
      1.07043780e-01 9.99168038e-01 3.27982910e+03 5.60985107e+01
      3.70370112e-02</_>
    <_>
      2.65625007e-02 -4.59579933e-05 9.99908090e-01 9.99908388e-01
      7.47680664e-04 1.12738691e-01 2.17618465e+00 6.99862242e-02
      1.27100125e-02 9.93243217e-01 2.49534414e+04 1.55889343e+02
      6.43104538e-02</_>
    <_>
      0. 1. 1. 1. 0. 0. 0. 0. 0. 0. -3. 0. 0.</_>
    <_>
      6.48284331e-02 -1.53188630e-05 9.99969363e-01 9.99969363e-01
      6.61214173e-04 1.74283460e-01 1.06784248e+00 4.15852070e-02
      3.03747263e-02 9.92366433e-01 7.93366250e+04 2.76505127e+02
      1.36701334e-02</_>
    <_>
      4.93259802e-02 -9.13872937e-05 9.99816179e-01 9.99816895e-01
      1.42415368e-03 1.54244974e-01 2.85170865e+00 1.09885342e-01
      2.37915106e-02 9.96441305e-01 1.36414414e+04 1.14414993e+02
      8.50619841e-03</_>
    <_>
      9.55422819e-01 2.78989643e-01 9.98376250e-01 9.98510659e-01
      2.05586758e-02 7.89941549e-01 5.07556725e+00 3.47165793e-01
      6.24007702e-01 9.99752641e-01 4.39294141e+03 5.68283310e+01
      1.35648804e+01</_>
    <_>
      5.26593149e-01 2.42293641e-01 9.98697937e-01 9.98728037e-01
      1.45670576e-02 5.74835241e-01 4.90903330e+00 3.03918630e-01
      3.30435574e-01 9.99650955e-01 2.25213672e+03 4.49140816e+01
      1.07495604e+01</_>
    <_>
      1.91482846e-02 3.13155562e-01 9.99923408e-01 9.99924541e-01
      7.52766908e-04 1.18394151e-01 2.12948084e+00 7.00225532e-02
      1.40171740e-02 9.93288577e-01 3.15766543e+04 1.72225052e+02
      2.00161021e-02</_>
    <_>
      2.08210781e-01 3.97253901e-01 9.99387264e-01 9.99468327e-01
      7.31913233e-03 4.05237556e-01 4.23811674e+00 2.16987416e-01
      1.64217472e-01 9.99305546e-01 4.71330518e+03 6.42225571e+01
      4.11359215e+01</_>
    <_>
      5.77052712e-01 5.08300245e-01 9.98406887e-01 9.98538315e-01
      2.36562099e-02 7.58285463e-01 5.30334854e+00 3.51757765e-01
      5.74996829e-01 9.99785066e-01 1.31203516e+03 3.49618874e+01
      1.10318589e+00</_>
    <_>
      1.99669123e+00 7.18057990e-01 9.91085112e-01 9.93941486e-01
      1.46652222e-01 1.84348595e+00 7.17195082e+00 9.13241386e-01
      3.39844036e+00 9.99965310e-01 1.97999817e+02 1.36488724e+01
      7.64370728e+01</_>
    <_>
      8.50122571e-01 2.78423160e-01 9.98759210e-01 9.98822093e-01
      1.87225342e-02 7.43796527e-01 4.87238789e+00 2.84477651e-01
      5.53233266e-01 9.99728382e-01 1.93211670e+03 4.28078156e+01
      1.73545554e-01</_>
    <_>
      2.72518396e-01 7.18246624e-02 9.98851240e-01 9.98893976e-01
      8.80940724e-03 3.82059366e-01 4.69541454e+00 2.93515116e-01
      1.45969346e-01 9.99422967e-01 2.26399512e+03 4.64843521e+01
      1.49854675e-01</_>
    <_>
      6.93167865e-01 4.42495435e-01 9.98529434e-01 9.98587370e-01
      2.09604893e-02 7.70375550e-01 5.09700155e+00 3.36822063e-01
      5.93478501e-01 9.99757409e-01 2.60040039e+03 4.61451988e+01
      7.98581317e-02</_>
    <_>
      1.09197307e+00 4.07732517e-01 9.98468161e-01 9.98649180e-01
      2.51007080e-02 9.36944067e-01 5.11947680e+00 3.39813828e-01
      8.77864242e-01 9.99797404e-01 3.83345825e+03 5.36110115e+01
      8.61666799e-01</_>
    <_>
      0. 1. 1. 1. 0. 0. 0. 0. 0. 0. -3. 0. 0.</_>
    <_>
      9.44852978e-02 5.09866893e-01 9.99785542e-01 9.99810696e-01
      3.37219238e-03 3.02566439e-01 3.24169064e+00 1.26637220e-01
      9.15464461e-02 9.98493969e-01 9.92409570e+03 9.68814087e+01
      9.27457027e-03</_>
    <_>
      9.99050260e-01 3.04083169e-01 9.98223066e-01 9.98292685e-01
      2.42563877e-02 8.26019704e-01 5.22126198e+00 3.41307312e-01
      6.82308555e-01 9.99790370e-01 1.79472717e+03 3.98480186e+01
      1.59746453e-01</_>
    <_>
      7.23039210e-02 -8.73497702e-05 9.99816179e-01 9.99816716e-01
      1.69881189e-03 1.86130971e-01 2.84418321e+00 1.05877869e-01
      3.46447378e-02 9.97014940e-01 1.60898281e+04 1.20901596e+02
      2.00363044e-02</_>
    <_>
      1.00572920e+00 7.70794988e-01 9.95343328e-01 9.97233391e-01
      8.81195068e-02 1.47527421e+00 6.58718443e+00 6.67770743e-01
      2.17643404e+00 9.99942303e-01 3.36368164e+02 1.78677826e+01
      1.83817720e+00</_>
    <_>
      2.88988972e+00 7.92171001e-01 9.96721864e-01 9.97451961e-01
      1.14440918e-01 2.62595797e+00 6.09784460e+00 5.69312751e-01
      6.89565563e+00 9.99955535e-01 1.02953687e+03 2.98212166e+01
      1.13680992e+02</_>
    <_>
      1.68887866e+00 5.52457213e-01 9.91638422e-01 9.93809104e-01
      9.97161865e-02 1.37220073e+00 6.98972034e+00 8.95395100e-01
      1.88293493e+00 9.99948978e-01 2.41709991e+02 1.50066557e+01
      4.64223137e+01</_>
    <_>
      1.26406252e+00 2.90359020e-01 9.97380733e-01 9.97691870e-01
      3.16925049e-02 9.28958297e-01 5.57870817e+00 4.54330057e-01
      8.62963498e-01 9.99839544e-01 2.05236816e+03 3.98369141e+01
      4.58895475e-01</_>
    <_>
      2.29782486e+00 5.50190687e-01 9.96829152e-01 9.97226954e-01
      7.05261230e-02 1.55242538e+00 6.03419352e+00 5.09951413e-01
      2.41002440e+00 9.99927878e-01 5.59304504e+02 2.31817989e+01
      8.13139038e+01</_>
    <_>
      5.40441163e-02 -1.53188630e-05 9.99969363e-01 9.99969363e-01
      6.20524108e-04 1.62409902e-01 1.07617533e+00 5.42204753e-02
      2.63769757e-02 9.91869926e-01 7.71085234e+04 2.72733276e+02
      1.15125265e-03</_>
    <_>
      5.90533078e-01 8.24018061e-01 9.95925367e-01 9.97483552e-01
      7.15433732e-02 1.28393006e+00 6.46338892e+00 6.39377296e-01
      1.64847648e+00 9.99928892e-01 4.09717896e+02 1.95831032e+01
      6.27034416e+01</_>
    <_>
      2.04175854e+00 2.16738686e-01 9.98054564e-01 9.98189270e-01
      3.16518135e-02 1.11729228e+00 5.28027058e+00 3.70627463e-01
      1.24834204e+00 9.99839306e-01 4.70208789e+03 5.69839211e+01
      9.71705988e-02</_>
    <_>
      0. 1. 1. 1. 0. 0. 0. 0. 0. 0. -3. 0. 0.</_>
    <_>
      9.23131108e-01 1.67176440e-01 9.98514116e-01 9.98576880e-01
      1.79697666e-02 7.37214386e-01 4.97802591e+00 3.05429459e-01
      5.43485045e-01 9.99717057e-01 6.96607764e+03 6.81484604e+01
      1.54679668e+00</_>
    <_>
      7.83915460e-01 2.26614848e-01 9.97978032e-01 9.98058438e-01
      2.20998134e-02 6.99865758e-01 5.33621311e+00 3.68963182e-01
      4.89812106e-01 9.99769926e-01 1.36958301e+03 3.52511444e+01
      2.05450134e+01</_>
    <_>
      2.68336391e+00 8.09385657e-01 9.80655551e-01 9.89435971e-01
      3.11258942e-01 2.62981653e+00 7.98039436e+00 1.32771134e+00
      6.91593504e+00 9.99983668e-01 9.33935852e+01 9.36790371e+00
      1.52577019e+00</_>
    <_>
      2.22089458e+00 6.86977625e-01 9.95925367e-01 9.96925175e-01
      9.85768661e-02 1.81992471e+00 6.38379812e+00 6.17850542e-01
      3.31212616e+00 9.99948382e-01 3.89324707e+02 1.93782158e+01
      1.80646317e+02</_>
    <_>
      0. 1. 1. 1. 0. 0. 0. 0. 0. 0. -3. 0. 0.</_>
    <_>
      8.90900731e-01 3.19171280e-01 9.96982396e-01 9.97463226e-01
      3.20180245e-02 8.06731105e-01 5.81423569e+00 4.75456595e-01
      6.50815070e-01 9.99841154e-01 9.71494507e+02 2.91518650e+01
      2.96733069e+00</_>
    <_>
      2.76041664e-02 -2.85808528e-05 9.99938726e-01 9.99938905e-01
      6.05265319e-04 1.17424414e-01 1.71326554e+00 5.80705814e-02
      1.37884924e-02 9.91666675e-01 4.83215000e+04 2.12874268e+02
      1.51759456e-03</_>
    <_>
      1.16139710e+00 2.76832491e-01 9.99126852e-01 9.99167144e-01
      1.86665859e-02 8.71241152e-01 4.54311609e+00 2.31690347e-01
      7.59061158e-01 9.99727607e-01 2.64041455e+03 5.00055008e+01
      1.22144222e-01</_>
    <_>
      2.81617641e-01 3.22781563e-01 9.99264717e-01 9.99361038e-01
      8.99251271e-03 4.48953182e-01 4.41411829e+00 2.33461767e-01
      2.01558948e-01 9.99434710e-01 3.13461523e+03 5.41814423e+01
      2.03434691e-01</_>
    <_>
      5.50704658e-01 2.10541338e-01 9.98360991e-01 9.98454213e-01
      1.53910322e-02 5.80782115e-01 5.03796196e+00 3.23221028e-01
      3.37307870e-01 9.99669611e-01 2.62576294e+03 4.64616852e+01
      6.21781275e-02</_>
    <_>
      3.77144590e-02 4.97299820e-01 9.99862134e-01 9.99882281e-01
      1.76493323e-03 1.92087799e-01 2.84752655e+00 1.10278077e-01
      3.68977226e-02 9.97126460e-01 1.41952969e+04 1.16227478e+02
      3.31141651e-02</_>
    <_>
      1.48284316e-01 -4.25901308e-05 9.99908090e-01 9.99908149e-01
      1.66320801e-03 2.61246622e-01 2.13425684e+00 6.67119175e-02
      6.82497993e-02 9.96951222e-01 3.31265117e+04 1.74515320e+02
      5.00484481e-02</_>
    <_>
      4.26439941e-01 4.11009014e-01 9.98973668e-01 9.99009311e-01
      1.35650635e-02 5.88185012e-01 4.73890018e+00 2.76793033e-01
      3.45961630e-01 9.99625206e-01 2.76869849e+03 4.99935493e+01
      5.05604923e-01</_>
    <_>
      4.14813089e+00 9.34898496e-01 9.19679523e-01 9.73067105e-01
      1.52277625e+00 5.51658010e+00 9.57670212e+00 3.01820779e+00
      3.04326572e+01 9.99996662e-01 1.22133141e+01 3.62713265e+00
      2.27367153e+01</_>
    <_>
      2.17892146e+00 3.01514953e-01 9.95113909e-01 9.95514631e-01
      5.94635010e-02 1.22691035e+00 6.24283028e+00 5.98166645e-01
      1.50530910e+00 9.99914467e-01 8.13201782e+02 2.57516994e+01
      1.06175797e+02</_>
    <_>
      7.00919092e-01 5.07192791e-01 9.99034941e-01 9.99044001e-01
      1.92921963e-02 8.25553179e-01 4.74422836e+00 2.64444768e-01
      6.81537986e-01 9.99736428e-01 2.46079321e+03 4.76491776e+01
      1.43639117e-01</_>
    <_>
      6.09375000e-01 5.62806129e-01 9.98161793e-01 9.98418152e-01
      2.85898838e-02 8.26465905e-01 5.49685860e+00 3.93976510e-01
      6.83045924e-01 9.99822140e-01 9.93091064e+02 3.07688026e+01
      5.83433025e-02</_>
    <_>
      2.59987736e+00 3.20783734e-01 9.92632687e-01 9.93434727e-01
      8.36181641e-02 1.37294793e+00 6.68155527e+00 7.72272646e-01
      1.88498592e+00 9.99939203e-01 4.46699036e+02 1.95283871e+01
      3.55818291e+01</_>
    <_>
      1.77604163e+00 6.85819447e-01 9.91192579e-01 9.93965924e-01
      1.28962204e-01 1.65702856e+00 7.13210106e+00 8.58098626e-01
      2.74574351e+00 9.99960542e-01 2.07256210e+02 1.39866371e+01
      4.68321266e+01</_>
    <_>
      1.14001222e-01 3.11245978e-01 9.99846816e-01 9.99853075e-01
      2.60925293e-03 2.80504495e-01 2.86115146e+00 9.83827114e-02
      7.86827654e-02 9.98054504e-01 1.33073535e+04 1.12977402e+02
      7.94665143e-03</_>
    <_>
      7.95343146e-02 3.66271794e-01 9.99739587e-01 9.99743283e-01
      2.90425611e-03 2.46035263e-01 3.35395527e+00 1.32563338e-01
      6.05333522e-02 9.98251736e-01 9.01223535e+03 9.17491684e+01
      3.77867930e-02</_>
    <_>
      1.41014087e+00 3.14247131e-01 9.97824788e-01 9.97901917e-01
      3.11330166e-02 9.84288275e-01 5.41633081e+00 3.81541520e-01
      9.68823433e-01 9.99836683e-01 2.13800439e+03 4.12828636e+01
      2.41752052e+01</_>
    <_>
      6.65747523e-02 7.73118436e-01 9.99831498e-01 9.99869823e-01
      4.20125341e-03 3.69194210e-01 3.26476002e+00 1.28570423e-01
      1.36304364e-01 9.98790801e-01 8.83847266e+03 9.22368011e+01
      7.02312170e-03</_>
    <_>
      0. 1. 1. 1. 0. 0. 0. 0. 0. 0. -3. 0. 0.</_>
    <_>
      4.74142164e-01 2.83105642e-01 9.98544812e-01 9.98728037e-01
      1.53808594e-02 5.62524796e-01 5.05036449e+00 3.19103420e-01
      3.16434175e-01 9.99669433e-01 1.93943640e+03 4.13790283e+01
      1.12045920e+00</_>
    <_>
      3.54139090e+00 5.14417768e-01 9.97962654e-01 9.98124540e-01
      6.62587509e-02 1.85294628e+00 5.57796860e+00 4.03807521e-01
      3.43340993e+00 9.99923229e-01 1.00542194e+03 3.05566978e+01
      3.15174103e-01</_>
    <_>
      6.12009823e-01 3.70062888e-01 9.98039305e-01 9.98140633e-01
      2.25524902e-02 6.92556560e-01 5.39249706e+00 3.56761336e-01
      4.79634613e-01 9.99774516e-01 1.20560498e+03 3.35810738e+01
      2.27091384e+00</_>
    <_>
      2.91666668e-02 3.69510233e-01 9.99923408e-01 9.99923706e-01
      9.35872376e-04 1.49527043e-01 2.11345744e+00 8.20622444e-02
      2.23583356e-02 9.94594574e-01 3.56215742e+04 1.80381165e+02
      1.38176978e-01</_>
    <_>
      4.89185035e-01 3.03655207e-01 9.98544753e-01 9.98713672e-01
      1.55537920e-02 5.83434045e-01 5.03143406e+00 3.17889720e-01
      3.40395272e-01 9.99673069e-01 2.37622021e+03 4.47470856e+01
      4.02477056e-01</_>
    <_>
      0. 1. 1. 1. 0. 0. 0. 0. 0. 0. -3. 0. 0.</_>
    <_>
      3.47539830e+00 6.67094052e-01 9.96124506e-01 9.96582806e-01
      1.11083984e-01 2.22916746e+00 6.26417351e+00 5.87203503e-01
      4.96918726e+00 9.99954224e-01 6.35674744e+02 2.34242802e+01
      1.67570648e+01</_>
    <_>
      1.68823528e+00 3.43604296e-01 9.97656286e-01 9.97685134e-01
      3.51765938e-02 1.11825395e+00 5.39932966e+00 3.82440299e-01
      1.25049198e+00 9.99855399e-01 1.79826343e+03 3.93581581e+01
      1.84267902e+00</_>
    <_>
      8.80484045e-01 6.31154239e-01 9.97334599e-01 9.97690439e-01
      4.40317802e-02 1.07393658e+00 5.86087465e+00 4.65270281e-01
      1.15333974e+00 9.99884486e-01 7.95171143e+02 2.70643730e+01
      8.09005141e-01</_>
    <_>
      0. 1. 1. 1. 0. 0. 0. 0. 0. 0. -3. 0. 0.</_>
    <_>
      5.00919111e-02 -5.84765403e-05 9.99877453e-01 9.99877810e-01
      1.16475427e-03 1.58074200e-01 2.42306590e+00 8.22170526e-02
      2.49874536e-02 9.95652199e-01 2.40499824e+04 1.49365646e+02
      1.48468809e-02</_>
    <_>
      0. 1. 1. 1. 0. 0. 0. 0. 0. 0. -3. 0. 0.</_>
    <_>
      4.23100479e-02 -7.64215001e-05 9.99846816e-01 9.99847353e-01
      1.22578943e-03 1.43678948e-01 2.68383908e+00 1.07380435e-01
      2.06436384e-02 9.95867789e-01 1.54915537e+04 1.22260185e+02
      1.36358328e-02</_>
    <_>
      0. 1. 1. 1. 0. 0. 0. 0. 0. 0. -3. 0. 0.</_>
    <_>
      9.59712029e-01 5.17296970e-01 9.98069942e-01 9.98198152e-01
      2.88035069e-02 9.71627831e-01 5.28861618e+00 3.86416137e-01
      9.44060683e-01 9.99823451e-01 2.16638281e+03 4.28185310e+01
      6.84819445e-02</_>
    <_>
      7.84313772e-03 4.99984682e-01 9.99954045e-01 9.99969482e-01
      4.73022461e-04 8.77807736e-02 1.76629281e+00 7.14249387e-02
      7.70546496e-03 9.89361703e-01 3.91095625e+04 1.94059784e+02
      1.96844339e-03</_>
    <_>
      6.02420330e-01 7.46041477e-01 9.98912394e-01 9.99094248e-01
      3.05226650e-02 1.06745696e+00 5.10917330e+00 3.30372691e-01
      1.13946450e+00 9.99833405e-01 1.42569995e+03 3.69175568e+01
      1.17216907e-01</_>
    <_>
      2.65410542e-01 8.59889835e-02 9.99708951e-01 9.99735653e-01
      3.68754077e-03 3.66191059e-01 3.27924395e+00 1.48762658e-01
      1.34095892e-01 9.98622596e-01 3.38845781e+04 1.63252243e+02
      1.15779638e-01</_>
    <_>
      4.75726080e+00 5.14404595e-01 9.87562418e-01 9.89481032e-01
      1.75699875e-01 2.20362425e+00 7.24244976e+00 9.18619573e-01
      4.85596037e+00 9.99971032e-01 2.58600342e+02 1.50389357e+01
      5.06074615e+02</_>
    <_>
      2.60631114e-01 4.86072093e-01 9.99601722e-01 9.99621570e-01
      7.37508154e-03 4.85179245e-01 3.90031624e+00 1.86902255e-01
      2.35398889e-01 9.99310791e-01 6.62087744e+03 7.65890274e+01
      8.17272514e-02</_>
    <_>
      1.20566483e+01 1.55591622e-01 9.95144129e-01 9.95169401e-01
      1.21180214e-01 2.61652660e+00 6.13274670e+00 5.60375571e-01
      6.84621096e+00 9.99958038e-01 7.16754822e+02 2.51631451e+01
      3.78672676e+01</_>
    <_>
      0. 1. 1. 1. 0. 0. 0. 0. 0. 0. -3. 0. 0.</_>
    <_>
      8.77052724e-01 4.50112224e-01 9.96737301e-01 9.97100413e-01
      3.87980156e-02 8.89590859e-01 5.97917700e+00 4.93353873e-01
      7.91371882e-01 9.99868929e-01 6.87761230e+02 2.52315102e+01
      6.42526507e-01</_>
    <_>
      0. 1. 1. 1. 0. 0. 0. 0. 0. 0. -3. 0. 0.</_>
    <_>
      2.07107849e-02 -1.53188630e-05 9.99969363e-01 9.99969423e-01
      3.86555999e-04 1.01110034e-01 1.07652569e+00 3.32987271e-02
      1.02232397e-02 9.87012982e-01 7.63745156e+04 2.71860260e+02
      8.48951866e-04</_>
    <_>
      1.36632967e+00 2.93496639e-01 9.96752620e-01 9.96883750e-01
      3.85894775e-02 9.67205763e-01 5.82962704e+00 4.76802588e-01
      9.35486972e-01 9.99868214e-01 9.50817261e+02 2.90610409e+01
      2.49510403e+01</_>
    <_>
      2.45863974e-01 1.42859817e-01 9.99280035e-01 9.99286950e-01
      6.87662745e-03 3.70982051e-01 4.26255608e+00 2.12666526e-01
      1.37627676e-01 9.99260902e-01 3.77423657e+03 5.90725670e+01
      6.94840014e-01</_>
    <_>
      0. 1. 1. 1. 0. 0. 0. 0. 0. 0. -3. 0. 0.</_>
    <_>
      1.35295653e+00 2.29640931e-01 9.98177111e-01 9.98214602e-01
      2.68046055e-02 9.59869683e-01 5.17769957e+00 3.46388429e-01
      9.21349764e-01 9.99810278e-01 2.89873901e+03 4.77658386e+01
      1.07031956e-01</_>
    <_>
      0. 1. 1. 1. 0. 0. 0. 0. 0. 0. -3. 0. 0.</_>
    <_>
      1.76470596e-02 -1.53188630e-05 9.99969363e-01 9.99969423e-01
      3.45865876e-04 9.17200074e-02 1.06108057e+00 4.36149314e-02
      8.41255952e-03 9.85507250e-01 8.19570938e+04 2.80418701e+02
      7.57456233e-04</_>
    <_>
      5.70986509e-01 3.51997316e-01 9.98590708e-01 9.98641312e-01
      1.74306240e-02 6.50337875e-01 5.01405096e+00 3.18792433e-01
      4.22939390e-01 9.99708295e-01 1.93584387e+03 4.18868561e+01
      1.16616321e+00</_>
    <_>
      0. 1. 1. 1. 0. 0. 0. 0. 0. 0. -3. 0. 0.</_>
    <_>
      2.26032472e+00 3.23395461e-01 9.98468161e-01 9.98481989e-01
      3.39813232e-02 1.26008296e+00 5.06520462e+00 3.37199360e-01
      1.58780909e+00 9.99850333e-01 2.30613770e+03 4.44637375e+01
      2.23163590e-01</_>
    <_>
      3.10508579e-01 2.86626905e-01 9.98927712e-01 9.99024332e-01
      1.10270185e-02 4.58869904e-01 4.78016424e+00 2.85966665e-01
      2.10561588e-01 9.99538958e-01 2.20159912e+03 4.52935829e+01
      1.89100623e-01</_>
    <_>
      4.45291042e+00 6.60252035e-01 9.91620898e-01 9.92556810e-01
      1.84036255e-01 2.50846148e+00 7.04653311e+00 8.64188135e-01
      6.29237890e+00 9.99972343e-01 3.01872864e+02 1.60013905e+01
      1.07683916e+01</_>
    <_>
      8.28431398e-02 4.46700126e-01 9.99678314e-01 9.99712169e-01
      3.65193677e-03 2.70043850e-01 3.62107110e+00 1.69310898e-01
      7.29236752e-02 9.98609185e-01 6.66157568e+03 7.92926331e+01
      3.41233052e-02</_>
    <_>
      8.55024517e-01 3.02425832e-01 9.97334659e-01 9.97668862e-01
      2.82491054e-02 7.72408009e-01 5.63866997e+00 4.11128551e-01
      5.96614122e-01 9.99819994e-01 1.01623297e+03 3.05560303e+01
      6.89465094e+00</_>
    <_>
      1.32536769e+00 6.36660933e-01 9.95588362e-01 9.96558785e-01
      6.80948868e-02 1.32490480e+00 6.38228607e+00 6.31927729e-01
      1.75537288e+00 9.99925315e-01 9.27685913e+02 2.61666851e+01
      4.22500277e+00</_>
    <_>
      0. 1. 1. 1. 0. 0. 0. 0. 0. 0. -3. 0. 0.</_>
    <_>
      1.18903190e-01 -7.93393338e-05 9.99831498e-01 9.99831796e-01
      2.29390454e-03 2.53695488e-01 2.83028579e+00 1.04791418e-01
      6.43613935e-02 9.97787595e-01 1.56424932e+04 1.20991653e+02
      7.20933974e-01</_>
    <_>
      8.24050248e-01 4.45743918e-01 9.98085201e-01 9.98251736e-01
      2.81219482e-02 8.49168539e-01 5.42451334e+00 3.61569107e-01
      7.21087217e-01 9.99819160e-01 1.17927893e+03 3.30379181e+01
      1.18369608e+01</_>
    <_>
      7.46017173e-02 1.84726849e-01 9.99831498e-01 9.99839485e-01
      1.92769372e-03 2.07880408e-01 2.85754895e+00 8.97871181e-02
      4.32142615e-02 9.97368395e-01 1.35090918e+04 1.13738518e+02
      5.81340611e-01</_>
    <_>
      0. 1. 1. 1. 0. 0. 0. 0. 0. 0. -3. 0. 0.</_>
    <_>
      3.72003675e+00 6.14353359e-01 9.81476605e-01 9.89968717e-01
      2.35687256e-01 2.18148899e+00 7.84211111e+00 1.40149295e+00
      4.75889444e+00 9.99978423e-01 1.96388260e+02 1.20406771e+01
      2.14246552e+02</_>
    <_>
      1.46127450e+00 5.35396039e-01 9.97809470e-01 9.98085797e-01
      4.53643799e-02 1.21714723e+00 5.64256954e+00 4.15099174e-01
      1.48144734e+00 9.99887884e-01 8.40472778e+02 2.83842278e+01
      1.76133331e+02</_>
    <_>
      6.24080896e-01 5.25804222e-01 9.98008668e-01 9.98343408e-01
      2.80303955e-02 7.98336983e-01 5.52532101e+00 3.87099981e-01
      6.37341917e-01 9.99818563e-01 9.71964172e+02 3.03661900e+01
      1.20362787e+01</_>
    <_>
      3.28272057e+00 9.31514442e-01 9.65907633e-01 9.83429074e-01
      8.07759583e-01 4.78304863e+00 8.66337109e+00 1.91215360e+00
      2.28775539e+01 9.99993682e-01 4.29426422e+01 6.41970253e+00
      6.59436768e+02</_>
    <_>
      5.67279398e-01 5.38632333e-01 9.99371946e-01 9.99403238e-01
      1.37990313e-02 7.64120698e-01 4.27949238e+00 2.21166432e-01
      5.83880424e-01 9.99631524e-01 4.83104395e+03 6.59409485e+01
      1.96297586e-01</_>
    <_>
      0. 1. 1. 1. 0. 0. 0. 0. 0. 0. -3. 0. 0.</_>
    <_>
      0. 1. 1. 1. 0. 0. 0. 0. 0. 0. -3. 0. 0.</_>
    <_>
      7.84313772e-03 -1.53188630e-05 9.99969363e-01 9.99969482e-01
      2.33968094e-04 6.15978688e-02 1.06967950e+00 4.99226302e-02
      3.79429758e-03 9.78723407e-01 7.95778906e+04 2.76498444e+02
      1.00774702e-03</_>
    <_>
      1.47009802e+00 4.93528187e-01 9.96522844e-01 9.96925950e-01
      5.45399971e-02 1.18262899e+00 6.07200336e+00 5.00543952e-01
      1.39861131e+00 9.99906778e-01 5.64648743e+02 2.31527348e+01
      4.04247284e-01</_>
    <_>
      1.47518381e-01 2.01701045e-01 9.99571085e-01 9.99592066e-01
      4.45556641e-03 3.01651686e-01 3.81044579e+00 1.68859676e-01
      9.09937397e-02 9.98859763e-01 5.86616113e+03 7.39648056e+01
      2.17061490e-02</_>
    <_>
      1.40453434e+00 4.97689635e-01 9.95297372e-01 9.95834589e-01
      5.93414307e-02 1.16588020e+00 6.32215023e+00 6.16218388e-01
      1.35927665e+00 9.99914289e-01 6.22065063e+02 2.31225605e+01
      8.30754852e+00</_>
    <_>
      1.09314642e+01 8.77131641e-01 9.56400156e-01 9.74276662e-01
      1.26537073e+00 6.51135159e+00 8.90868092e+00 2.17859054e+00
      4.23976974e+01 9.99996006e-01 2.75637398e+01 5.28533602e+00
      4.78261932e+02</_>
    <_>
      8.17708299e-02 3.20049435e-01 9.99693632e-01 9.99741852e-01
      3.14839673e-03 2.39452928e-01 3.55359697e+00 1.57465965e-01
      5.73377013e-02 9.98387098e-01 6.66821631e+03 7.99664078e+01
      1.20455667e-01</_>
    <_>
      4.15379912e-01 4.57923830e-01 9.99463856e-01 9.99518275e-01
      1.09405518e-02 6.02818727e-01 4.20057106e+00 2.04684019e-01
      3.63390446e-01 9.99535322e-01 3.51960376e+03 5.80912743e+01
      1.55035511e-01</_>
    <_>
      4.48835790e-02 -2.93728936e-05 9.99938726e-01 9.99938846e-01
      7.68025697e-04 1.46556124e-01 1.73341763e+00 5.70098422e-02
      2.14786995e-02 9.93421078e-01 4.46908008e+04 2.05786758e+02
      2.64982805e-02</_>
    <_>
      5.09374976e-01 4.87381369e-01 9.98146474e-01 9.98425722e-01
      2.31323242e-02 6.93498909e-01 5.43169260e+00 3.83197606e-01
      4.80940729e-01 9.99780178e-01 1.13510461e+03 3.25256042e+01
      2.34395191e-01</_>
    <_>
      2.11029410e-01 6.23848677e-01 9.98973668e-01 9.99186397e-01
      1.36566162e-02 5.23681998e-01 4.93158054e+00 2.94837803e-01
      2.74242818e-01 9.99627709e-01 1.78620007e+03 4.10382156e+01
      2.15818107e-01</_>
    <_>
      1.44224882e+00 7.60690629e-01 9.93474841e-01 9.96344090e-01
      1.18184410e-01 1.71917593e+00 6.89681292e+00 8.09772313e-01
      2.95556569e+00 9.99956965e-01 3.92706421e+02 1.73257427e+01
      1.97519638e+02</_>
    <_>
      0. 1. 1. 1. 0. 0. 0. 0. 0. 0. -3. 0. 0.</_>
    <_>
      4.41176474e-01 4.00724173e-01 9.99188125e-01 9.99244928e-01
      1.28835039e-02 5.93168795e-01 4.56098652e+00 2.29207352e-01
      3.51849198e-01 9.99605358e-01 2.48932642e+03 4.87289810e+01
      2.47518361e-01</_>
    <_>
      6.70465708e-01 5.83614886e-01 9.99494493e-01 9.99576092e-01
      1.50400801e-02 8.64257336e-01 4.16320181e+00 2.06736222e-01
      7.46940732e-01 9.99661922e-01 4.31415137e+03 6.37688293e+01
      3.81181526e+00</_>
    <_>
      8.00674021e-01 3.15526009e-01 9.98054564e-01 9.98192191e-01
      2.33612061e-02 7.53422737e-01 5.32024908e+00 3.73906553e-01
      5.67645788e-01 9.99782324e-01 1.54298987e+03 3.70553551e+01
      4.23321247e+00</_>
    <_>
      3.66942406e-01 1.71533048e-01 9.98805165e-01 9.98886824e-01
      1.12406416e-02 4.66199428e-01 4.79424238e+00 2.86446482e-01
      2.17341915e-01 9.99547720e-01 2.25869238e+03 4.56797218e+01
      2.32353187e+00</_>
    <_>
      0. 1. 1. 1. 0. 0. 0. 0. 0. 0. -3. 0. 0.</_>
    <_>
      2.04411760e-01 8.79450887e-02 9.99295354e-01 9.99305904e-01
      5.96110011e-03 3.26298654e-01 4.22636509e+00 2.09776893e-01
      1.06470816e-01 9.99147475e-01 3.67878418e+03 5.89000320e+01
      4.26241681e-02</_>
    <_>
      8.52512240e-01 4.89462435e-01 9.97212112e-01 9.97618079e-01
      3.63260917e-02 8.96841168e-01 5.81989956e+00 4.63139176e-01
      8.04324150e-01 9.99859989e-01 7.71575378e+02 2.68041782e+01
      2.05260918e-01</_>
    <_>
      4.51776952e-01 1.81481943e-01 9.98743892e-01 9.98779655e-01
      1.26190186e-02 5.19280016e-01 4.82765293e+00 2.93627739e-01
      2.69651741e-01 9.99597073e-01 2.55005469e+03 4.73507462e+01
      2.97540426e+00</_>
    <_>
      0. 1. 1. 1. 0. 0. 0. 0. 0. 0. -3. 0. 0.</_>
    <_>
      1.41412377e+00 4.44986045e-01 9.96323824e-01 9.96862888e-01
      4.64731865e-02 1.10098600e+00 6.00991964e+00 5.37167370e-01
      1.21217024e+00 9.99890566e-01 1.55575415e+03 3.36039085e+01
      1.19785042e+01</_>
    <_>
      3.33455890e-01 3.55688095e-01 9.99019623e-01 9.99064445e-01
      1.14491777e-02 5.02998173e-01 4.67549896e+00 2.53645688e-01
      2.53007144e-01 9.99555945e-01 2.46390259e+03 4.79991226e+01
      1.40985712e-01</_>
    <_>
      0. 1. 1. 1. 0. 0. 0. 0. 0. 0. -3. 0. 0.</_>
    <_>
      1.47662377e+00 8.22205424e-01 9.88130391e-01 9.94530559e-01
      1.93405151e-01 2.02564168e+00 7.53212166e+00 1.05820453e+00
      4.10322475e+00 9.99973714e-01 1.34551636e+02 1.13089943e+01
      1.18009140e+02</_>
    <_>
      5.11957741e+00 5.20009398e-01 9.94914353e-01 9.95245516e-01
      1.22802734e-01 2.25496888e+00 6.43464518e+00 6.41220212e-01
      5.08488512e+00 9.99958575e-01 4.60708710e+02 2.05696373e+01
      7.59522705e+01</_>
    <_>
      0. 1. 1. 1. 0. 0. 0. 0. 0. 0. -3. 0. 0.</_>
    <_>
      3.56924012e-02 -4.57738897e-05 9.99908090e-01 9.99908328e-01
      8.69750977e-04 1.34351745e-01 2.15091610e+00 7.95763656e-02
      1.80503912e-02 9.94186044e-01 2.91168145e+04 1.66071045e+02
      6.97921403e-03</_>
    <_>
      0. 1. 1. 1. 0. 0. 0. 0. 0. 0. -3. 0. 0.</_>
    <_>
      0. 1. 1. 1. 0. 0. 0. 0. 0. 0. -3. 0. 0.</_>
    <_>
      1.37938118e+00 3.25872153e-01 9.94868934e-01 9.95743871e-01
      5.26072197e-02 1.00393641e+00 6.36823416e+00 6.48700237e-01
      1.00788820e+00 9.99903321e-01 7.45349854e+02 2.33274364e+01
      8.72109528e+01</_>
    <_>
      6.89338241e-03 -1.53188630e-05 9.99969363e-01 9.99969482e-01
      2.18709305e-04 5.97111583e-02 1.02823949e+00 4.75750677e-02
      3.56542249e-03 9.77272749e-01 9.48153203e+04 2.99031281e+02
      1.73410401e-03</_>
    <_>
      0. 1. 1. 1. 0. 0. 0. 0. 0. 0. -3. 0. 0.</_>
    <_>
      3.13109684e+00 7.46702611e-01 9.93076265e-01 9.95659947e-01
      1.73517868e-01 2.43676281e+00 6.96988726e+00 8.07970762e-01
      5.93781233e+00 9.99970675e-01 2.92700653e+02 1.60813961e+01
      3.43737183e+02</_>
    <_>
      1.38939947e-01 2.93784887e-01 9.99601722e-01 9.99627411e-01
      4.39453125e-03 3.07216108e-01 3.74695516e+00 1.59344360e-01
      9.43817273e-02 9.98843908e-01 6.27002637e+03 7.64910355e+01
      1.02217346e-01</_>
    <_>
      2.12316170e-01 -6.09157032e-05 9.99877453e-01 9.99877512e-01
      2.39054370e-03 3.13254923e-01 2.46018982e+00 7.54085034e-02
      9.81286466e-02 9.97876883e-01 1.91737207e+04 1.36289169e+02
      1.72885098e-02</_>
    <_>
      0. 1. 1. 1. 0. 0. 0. 0. 0. 0. -3. 0. 0.</_>
    <_>
      0. 1. 1. 1. 0. 0. 0. 0. 0. 0. -3. 0. 0.</_>
    <_>
      3.76868874e-01 3.14370155e-01 9.98575389e-01 9.98708487e-01
      1.41398115e-02 5.25777459e-01 5.03378916e+00 3.23677063e-01
      2.76441902e-01 9.99640405e-01 1.96789331e+03 4.22069016e+01
      1.09481558e-01</_>
    <_>
      0. 1. 1. 1. 0. 0. 0. 0. 0. 0. -3. 0. 0.</_>
    <_>
      4.52634811e-01 1.67210251e-01 9.99831498e-01 9.99833107e-01
      4.70987940e-03 5.03242850e-01 2.86726332e+00 1.05299823e-01
      2.53253371e-01 9.98921275e-01 1.27071367e+04 1.10980911e+02
      1.12576103e-02</_>
    <_>
      0. 1. 1. 1. 0. 0. 0. 0. 0. 0. -3. 0. 0.</_>
    <_>
      2.38878682e-01 2.53262937e-01 9.99387264e-01 9.99408007e-01
      6.80541992e-03 3.91904771e-01 4.15363312e+00 2.00884074e-01
      1.53589353e-01 9.99253154e-01 4.64062354e+03 6.49073410e+01
      6.03554249e-02</_>
    <_>
      1.28174019e+00 6.30871892e-01 9.95710909e-01 9.96442437e-01
      6.98547363e-02 1.30203891e+00 6.38851690e+00 6.06756866e-01
      1.69530547e+00 9.99927223e-01 4.45877258e+02 2.03828506e+01
      6.68356085e+00</_>
    <_>
      1.46862745e+00 2.97772557e-01 9.99448538e-01 9.99450147e-01
      1.59962978e-02 9.85342562e-01 4.01691437e+00 1.90420508e-01
      9.70899940e-01 9.99682128e-01 5.29326563e+03 6.94648895e+01
      3.55605274e-01</_>
    <_>
      0. 1. 1. 1. 0. 0. 0. 0. 0. 0. -3. 0. 0.</_>
    <_>
      0. 1. 1. 1. 0. 0. 0. 0. 0. 0. -3. 0. 0.</_>
    <_>
      5.92708349e-01 2.57922769e-01 9.98805165e-01 9.98822570e-01
      1.46840410e-02 6.16959214e-01 4.80200958e+00 2.92029738e-01
      3.80638659e-01 9.99653757e-01 2.70785229e+03 4.90214882e+01
      9.89734173e-01</_>
    <_>
      1.77696086e-02 -3.05325411e-05 9.99938726e-01 9.99938965e-01
      4.98453795e-04 9.26572382e-02 1.76431286e+00 6.84058592e-02
      8.58536363e-03 9.89898980e-01 3.94364219e+04 1.94765366e+02
      3.69455758e-03</_>
    <_>
      2.74754912e-01 3.90719734e-02 9.99280035e-01 9.99282300e-01
      6.84610987e-03 3.73224318e-01 4.23211384e+00 2.04173967e-01
      1.39296398e-01 9.99257624e-01 3.65512622e+03 5.86266670e+01
      1.01021519e+01</_>
    <_>
      4.92524505e-01 2.64196843e-01 9.99295354e-01 9.99309421e-01
      1.01928711e-02 5.60369134e-01 4.28141022e+00 2.08048314e-01
      3.14013541e-01 9.99501228e-01 5.11998291e+03 6.65055847e+01
      1.28859909e+02</_>
    <_>
      3.74126840e+00 5.27408838e-01 9.85481799e-01 9.89487648e-01
      1.84366867e-01 1.97751832e+00 7.51742363e+00 1.08579230e+00
      3.91057873e+00 9.99972403e-01 1.65520233e+02 1.22394152e+01
      6.10396194e+01</_>
    <_>
      0. 1. 1. 1. 0. 0. 0. 0. 0. 0. -3. 0. 0.</_>
    <_>
      1.26838237e-01 2.72065431e-01 9.99785542e-01 9.99801338e-01
      3.04158521e-03 2.87299156e-01 3.13301826e+00 1.10623457e-01
      8.25407952e-02 9.98330534e-01 1.09989697e+04 1.01632156e+02
      1.16271712e-02</_>
    <_>
      5.99509776e-01 1.90977037e-01 9.98207808e-01 9.98268783e-01
      1.76544189e-02 5.97999632e-01 5.20508718e+00 3.60625386e-01
      3.57603550e-01 9.99711990e-01 1.63416895e+03 3.81597023e+01
      5.17816086e+01</_>
    <_>
      4.52941179e-01 1.98708609e-01 9.98851180e-01 9.98934746e-01
      1.22019453e-02 5.20190358e-01 4.75897694e+00 2.97414184e-01
      2.70597965e-01 9.99583304e-01 2.77560742e+03 4.93261757e+01
      4.03633451e+00</_>
    <_>
      0. 1. 1. 1. 0. 0. 0. 0. 0. 0. -3. 0. 0.</_>
    <_>
      1.32162988e+00 6.83407128e-01 9.96338964e-01 9.97228503e-01
      7.17976913e-02 1.40957808e+00 6.27492142e+00 5.77244520e-01
      1.98691046e+00 9.99929190e-01 4.70757996e+02 2.11002789e+01
      1.17403545e+01</_>
    <_>
      1.16737127e+00 6.19805992e-01 9.95481133e-01 9.96450067e-01
      6.70267716e-02 1.22458434e+00 6.43423128e+00 6.32402480e-01
      1.49960697e+00 9.99924123e-01 4.43063690e+02 2.02057934e+01
      7.52504654e+01</_>
    <_>
      1.95741427e+00 8.25732827e-01 9.92172897e-01 9.96286988e-01
      1.73248291e-01 2.30945253e+00 7.13176203e+00 9.21554923e-01
      5.33357143e+00 9.99970615e-01 4.61085846e+02 1.81781349e+01
      7.83201294e+02</_>
    <_>
      1.41292894e+00 5.60363948e-01 9.95695651e-01 9.96731341e-01
      6.40716553e-02 1.24633229e+00 6.30941153e+00 5.90860367e-01
      1.55334413e+00 9.99920607e-01 5.27289490e+02 2.17560120e+01
      2.32088017e+00</_>
    <_>
      4.15563732e-01 4.11474407e-01 9.99096215e-01 9.99217689e-01
      1.30920410e-02 5.77774286e-01 4.66120768e+00 2.73642033e-01
      3.33823144e-01 9.99611676e-01 2.53439600e+03 4.82984200e+01
      1.21584488e+02</_>
    <_>
      6.35661781e-01 2.28202552e-01 9.97671843e-01 9.97843444e-01
      2.20489502e-02 6.39040768e-01 5.50541019e+00 3.98571521e-01
      4.08373088e-01 9.99769390e-01 1.06157190e+03 3.15585747e+01
      4.31356888e+01</_>
    <_>
      6.16145849e-01 3.05654079e-01 9.99172807e-01 9.99176085e-01
      1.33209229e-02 6.44409359e-01 4.47906399e+00 2.28384823e-01
      4.15263444e-01 9.99618292e-01 2.99591309e+03 5.27741127e+01
      4.56577873e+00</_>
    <_>
      2.96415448e-01 1.92713231e-01 9.98728752e-01 9.98841703e-01
      1.09151201e-02 4.26220477e-01 4.89135599e+00 3.27969968e-01
      1.81663901e-01 9.99534249e-01 1.79819446e+03 4.13901711e+01
      3.54390259e+01</_>
    <_>
      5.37837029e-01 2.72842109e-01 9.99448538e-01 9.99475718e-01
      9.85209178e-03 5.89571714e-01 4.04650640e+00 1.94411993e-01
      3.47594798e-01 9.99484003e-01 4.35537744e+03 6.42085571e+01
      1.72417116e+00</_>
    <_>
      2.10049009e+00 4.97965157e-01 9.97089565e-01 9.97391403e-01
      5.96822090e-02 1.40811086e+00 5.90147924e+00 4.87483710e-01
      1.98277628e+00 9.99914765e-01 6.64515869e+02 2.51230526e+01
      1.38301743e+02</_>
    <_>
      0. 1. 1. 1. 0. 0. 0. 0. 0. 0. -3. 0. 0.</_>
    <_>
      1.61685050e+00 4.46900755e-01 9.98897076e-01 9.98955071e-01
      2.96427403e-02 1.17915106e+00 4.86054802e+00 2.96463519e-01
      1.39039731e+00 9.99828458e-01 1.91286084e+03 4.25573578e+01
      7.72545636e-02</_>
    <_>
      1.87806375e-02 -3.06132024e-05 9.99938726e-01 9.99938905e-01
      5.03540039e-04 9.37215164e-02 1.76236665e+00 5.97966798e-02
      8.78372230e-03 9.90000010e-01 3.93278359e+04 1.94809555e+02
      5.22717414e-03</_>
    <_>
      8.30698550e-01 2.23504096e-01 9.99126852e-01 9.99149561e-01
      1.35701494e-02 7.07674086e-01 4.45887184e+00 2.44091138e-01
      5.00802577e-01 9.99625325e-01 9.53586328e+03 8.03932648e+01
      1.24508009e+01</_>
    <_>
      5.65257370e-02 -4.18560630e-05 9.99908090e-01 9.99908268e-01
      1.02233887e-03 1.61953121e-01 2.12660623e+00 6.39878213e-02
      2.62288135e-02 9.95049477e-01 3.53377148e+04 1.79138565e+02
      2.19041314e-02</_>
    <_>
      3.75903797e+00 6.47980034e-01 9.97212052e-01 9.97430563e-01
      9.43908691e-02 2.23577261e+00 5.91454411e+00 4.77117151e-01
      4.99867916e+00 9.99946117e-01 7.18368286e+02 2.59340286e+01
      8.80474976e+02</_>
    <_>
      6.48284331e-02 -1.53188630e-05 9.99969363e-01 9.99969363e-01
      6.61214173e-04 1.72611967e-01 1.07808185e+00 4.95134220e-02
      2.97948923e-02 9.92366433e-01 7.47034609e+04 2.69751709e+02
      1.02449888e-02</_>
    <_>
      1.65428925e+00 5.18810511e-01 9.91458952e-01 9.94023204e-01
      9.50673446e-02 1.28261507e+00 7.00387096e+00 7.99070835e-01
      1.64510143e+00 9.99946475e-01 2.02377502e+02 1.40298433e+01
      3.61461906e+01</_>
    <_>
      6.26838207e-02 1.79570138e-01 9.99862134e-01 9.99862492e-01
      1.59708655e-03 1.91040501e-01 2.66095471e+00 1.08440951e-01
      3.64964716e-02 9.96825397e-01 1.74418027e+04 1.28352951e+02
      6.18464351e-01</_>
    <_>
      4.38265920e-01 5.36853969e-01 9.98529434e-01 9.98636544e-01
      2.01975498e-02 6.74333870e-01 5.22394896e+00 3.43357682e-01
      4.54726130e-01 9.99748230e-01 1.40378479e+03 3.63313866e+01
      7.23227113e-02</_>
    <_>
      4.46691178e-02 -3.06381953e-05 9.99938726e-01 9.99938786e-01
      7.93457031e-04 1.47092938e-01 1.76695955e+00 5.83763309e-02
      2.16363333e-02 9.93630588e-01 3.85721055e+04 1.93135605e+02
      9.23628733e-03</_>
    <_>
      1.47288609e+00 1.69840932e-01 9.97916758e-01 9.97994125e-01
      2.76896153e-02 9.21867430e-01 5.32244968e+00 3.78912956e-01
      8.49839568e-01 9.99816358e-01 2.52005566e+03 4.45401535e+01
      1.24274536e+02</_>
    <_>
      1.35147059e+00 2.34757483e-01 9.97104883e-01 9.97234106e-01
      3.46069336e-02 9.18072701e-01 5.70781469e+00 4.43756431e-01
      8.42857540e-01 9.99853075e-01 1.00514374e+03 3.01350937e+01
      5.55876398e+00</_>
    <_>
      1.10677087e+00 7.66943932e-01 9.97242689e-01 9.97852743e-01
      6.81355819e-02 1.50409603e+00 6.03424644e+00 5.05201638e-01
      2.26230502e+00 9.99925375e-01 5.81583435e+02 2.35086517e+01
      3.57197499e+00</_>
    <_>
      0. 1. 1. 1. 0. 0. 0. 0. 0. 0. -3. 0. 0.</_>
    <_>
      7.17800236e+00 3.25625628e-01 9.96201038e-01 9.96313155e-01
      8.33333358e-02 2.24042726e+00 5.80033255e+00 5.01716197e-01
      5.01951408e+00 9.99938965e-01 1.59356519e+03 3.62155037e+01
      3.87656555e+02</_>
    <_>
      1.02376528e+01 7.74555683e-01 9.77913797e-01 9.85174596e-01
      6.07803345e-01 4.60632467e+00 8.14835453e+00 1.46944416e+00
      2.12182274e+01 9.99991655e-01 6.21191406e+01 7.83674049e+00
      2.53887558e+00</_>
    <_>
      4.21507359e-01 2.60040969e-01 9.98698056e-01 9.98865664e-01
      1.33666992e-02 5.26271462e-01 4.93479252e+00 3.28434885e-01
      2.76961625e-01 9.99619603e-01 2.68774438e+03 4.74221420e+01
      8.58494854e+00</_>
    <_>
      2.10701585e+00 2.06298009e-01 9.96293008e-01 9.96381998e-01
      4.72412109e-02 1.13585091e+00 5.91313744e+00 4.94177938e-01
      1.29015720e+00 9.99892354e-01 8.53416565e+02 2.76859303e+01
      7.80076141e+01</_>
    <_>
      4.18066788e+00 4.36917365e-01 9.94071901e-01 9.94556069e-01
      1.01867676e-01 1.88387358e+00 6.48427391e+00 6.56087220e-01
      3.54897976e+00 9.99950051e-01 6.82993835e+02 2.35765095e+01
      1.06482840e+00</_>
    <_>
      3.20189953e-01 3.94901156e-01 9.99280035e-01 9.99329627e-01
      1.01572676e-02 5.06301403e-01 4.41428089e+00 2.19342113e-01
      2.56341130e-01 9.99499500e-01 3.05732690e+03 5.36939392e+01
      5.14998399e-02</_>
    <_>
      2.01976109e+00 2.89238214e-01 9.95175004e-01 9.95401800e-01
      5.68491630e-02 1.16940188e+00 6.22518063e+00 5.80412328e-01
      1.36750078e+00 9.99910533e-01 6.64130798e+02 2.40846252e+01
      1.33020627e+00</_>
    <_>
      4.42003667e-01 5.17739832e-01 9.98728573e-01 9.98983860e-01
      1.87479649e-02 6.60178959e-01 5.11223793e+00 3.12483728e-01
      4.35836256e-01 9.99728799e-01 1.67266125e+03 3.87823410e+01
      9.25413668e-01</_>
    <_>
      6.54197276e-01 1.87390238e-01 9.98039484e-01 9.98230934e-01
      1.94854736e-02 6.26009703e-01 5.31297922e+00 4.07069236e-01
      3.91888171e-01 9.99739051e-01 1.53364124e+03 3.66777725e+01
      2.56523018e+01</_>
    <_>
      4.92708349e+00 5.19108295e-01 9.94500756e-01 9.94720340e-01
      1.19979858e-01 2.26446486e+00 6.43732643e+00 6.43686295e-01
      5.12780142e+00 9.99957621e-01 7.50465637e+02 2.43790550e+01
      4.22721863e+02</_>
    <_>
      2.86488980e-01 5.88765740e-01 9.99172807e-01 9.99413192e-01
      1.36769610e-02 5.84225893e-01 4.70656300e+00 2.31832996e-01
      3.41319889e-01 9.99628246e-01 2.09309619e+03 4.48476067e+01
      9.56197307e-02</_>
    <_>
      6.38939977e-01 4.14094388e-01 9.97886121e-01 9.98112440e-01
      2.50498448e-02 7.33153701e-01 5.49348783e+00 3.97408545e-01
      5.37514389e-01 9.99796987e-01 1.12572217e+03 3.22964516e+01
      1.60574168e-01</_>
    <_>
      3.32475483e-01 2.11753786e-01 9.99525130e-01 9.99527156e-01
      6.15946436e-03 4.56644595e-01 3.75047493e+00 1.77422896e-01
      2.08524272e-01 9.99174893e-01 1.16972676e+04 9.88006668e+01
      2.07238421e-01</_>
    <_>
      8.50735307e-01 2.88123786e-01 9.96814191e-01 9.97069418e-01
      3.08024082e-02 7.58991063e-01 5.83804274e+00 4.76188809e-01
      5.76067388e-01 9.99834895e-01 8.97240784e+02 2.78675785e+01
      4.43897635e-01</_>
    <_>
      2.70373774e+00 8.20360899e-01 9.93290722e-01 9.95601535e-01
      1.94844559e-01 2.67470980e+00 6.97576666e+00 8.19270194e-01
      7.15407276e+00 9.99973893e-01 2.17210770e+02 1.44521494e+01
      4.56148481e+00</_>
    <_>
