<?xml version="1.0"?>
<opencv_storage>
<opencv_ml_svm>
  <format>3</format>
  <svmType>C_SVC</svmType>
  <kernel>
    <type>RBF</type>
    <gamma>1.0000000000000001e-05</gamma></kernel>
  <C>3.1250000000000000e+02</C>
  <term_criteria><iterations>10000</iterations></term_criteria>
  <var_count>13</var_count>
  <class_count>2</class_count>
  <class_labels type_id="opencv-matrix">
    <rows>2</rows>
    <cols>1</cols>
    <dt>i</dt>
    <data>
      -1 1</data></class_labels>
  <sv_total>274</sv_total>
  <support_vectors>
    <_>
      0. 1. 1. 1. 0. 0. 0. 0. 0. 0. -3. 0. 0.</_>
    <_>
      6.20404407e-02 -1.53188630e-05 9.99969363e-01 9.99969363e-01
      6.71386719e-04 1.76631495e-01 1.07108295e+00 3.53726000e-02
      3.11986860e-02 9.92481232e-01 8.00898750e+04 2.76856232e+02
      1.35849055e-03</_>
    <_>
      8.04013491e-01 2.75075257e-01 9.98192430e-01 9.98243690e-01
      2.18353271e-02 7.28901327e-01 5.24506760e+00 3.43090922e-01
      5.31297088e-01 9.99767125e-01 1.52044238e+03 3.74028168e+01
      1.38483691e+00</_>
    <_>
      2.77910531e-01 2.49986619e-01 9.98897135e-01 9.98993456e-01
      1.02132158e-02 4.26738769e-01 4.76450205e+00 2.86268890e-01
      1.82105973e-01 9.99502242e-01 2.13276611e+03 4.48767929e+01
      4.98004332e-02</_>
    <_>
      2.97181364e-02 -3.05750218e-05 9.99938726e-01 9.99938846e-01
      6.30696595e-04 1.16968587e-01 1.76636791e+00 6.75830171e-02
      1.36816502e-02 9.91999984e-01 3.85845430e+04 1.93210068e+02
      3.00792768e-03</_>
    <_>
      3.16853547e+00 5.08149803e-01 9.95067596e-01 9.95630801e-01
      9.11305770e-02 1.75990939e+00 6.39613152e+00 6.31311715e-01
      3.09728098e+00 9.99944210e-01 9.74884216e+02 2.64678879e+01
      3.74840057e+02</_>
    <_>
      4.72518384e-01 9.04323533e-02 9.99004304e-01 9.99022961e-01
      1.03861494e-02 5.04832983e-01 4.53240824e+00 2.74365991e-01
      2.54856318e-01 9.99510527e-01 5.24977490e+03 6.30497437e+01
      4.94806886e-01</_>
    <_>
      3.89099264e+00 7.79643357e-01 9.91590500e-01 9.94187593e-01
      2.33337402e-01 2.89785075e+00 7.17642164e+00 8.78063858e-01
      8.39753914e+00 9.99978185e-01 1.78170441e+02 1.30904856e+01
      1.28916733e+02</_>
    <_>
      1.28339455e-01 5.96264452e-02 9.99800861e-01 9.99801934e-01
      2.33968091e-03 2.61718005e-01 2.90118647e+00 1.17534213e-01
      6.84963167e-02 9.97830808e-01 2.58612441e+04 1.46005432e+02
      8.24242756e-02</_>
    <_>
      8.55698511e-02 4.80469137e-01 9.99693632e-01 9.99701440e-01
      3.67736816e-03 2.83612221e-01 3.56892180e+00 1.47836640e-01
      8.04359019e-02 9.98618782e-01 8.11711719e+03 8.63925018e+01
      2.20902264e-02</_>
    <_>
      2.58609056e-01 4.15816568e-02 9.99525130e-01 9.99526739e-01
      4.95402003e-03 3.56627107e-01 3.76571441e+00 1.82913750e-01
      1.27182901e-01 9.98974383e-01 1.19455879e+04 9.59926147e+01
      2.42774472e-01</_>
    <_>
      1.11636031e+00 3.34377944e-01 9.97197032e-01 9.97550368e-01
      3.37219238e-02 9.09612417e-01 5.71709108e+00 4.92538720e-01
      8.27394724e-01 9.99849200e-01 1.47234680e+03 3.44072227e+01
      2.15974832e+00</_>
    <_>
      1.41482845e-01 -1.12318252e-04 9.99754906e-01 9.99755502e-01
      2.62959790e-03 2.59362847e-01 3.08166099e+00 1.23258539e-01
      6.72690868e-02 9.98069525e-01 13479. 1.11219238e+02 3.31738625e+01</_>
    <_>
      3.36384797e+00 7.52698600e-01 9.90870535e-01 9.92960870e-01
      2.09040329e-01 2.54232526e+00 7.23044348e+00 9.28052962e-01
      6.46341801e+00 9.99975681e-01 1.79654205e+02 1.30600119e+01
      1.02662337e+00</_>
    <_>
      4.45839453e+00 4.29525137e-01 9.91897047e-01 9.92956460e-01
      1.21358238e-01 1.93833256e+00 6.78798008e+00 7.58449852e-01
      3.75713301e+00 9.99958098e-01 6.38184570e+02 2.17331944e+01
      9.39866662e-01</_>
    <_>
      5.94368887e+00 5.14014900e-01 9.86797750e-01 9.91013169e-01
      2.00144455e-01 2.45635772e+00 7.36922789e+00 1.08111191e+00
      6.03369284e+00 9.99974608e-01 4.71478607e+02 1.83368778e+01
      2.45586739e+01</_>
    <_>
      8.36060047e-01 3.25256228e-01 9.98789847e-01 9.98899639e-01
      1.98771153e-02 7.69310832e-01 4.90991640e+00 2.83752620e-01
      5.91839194e-01 9.99744177e-01 1.76401440e+03 4.10228806e+01
      7.65038729e-02</_>
    <_>
      9.29748774e-01 2.25428745e-01 9.98299658e-01 9.98325884e-01
      2.22167969e-02 7.64158607e-01 5.17196608e+00 3.38200957e-01
      5.83938360e-01 9.99771118e-01 1.56943738e+03 3.80761452e+01
      2.43676275e-01</_>
    <_>
      1.05744481e+00 3.48925740e-01 9.97564435e-01 9.97646153e-01
      3.11075840e-02 8.83197725e-01 5.56613541e+00 4.18971479e-01
      7.80038178e-01 9.99836504e-01 1.27075818e+03 3.28718452e+01
      3.96624298e+01</_>
    <_>
      1.24761033e+00 2.59470910e-01 9.96875167e-01 9.96984005e-01
      3.61531563e-02 9.06645656e-01 5.79884338e+00 4.52574641e-01
      8.22006345e-01 9.99859333e-01 8.00427246e+02 2.73920746e+01
      4.79085863e-01</_>
    <_>
      1.07052696e+00 2.28417471e-01 9.98498857e-01 9.98547912e-01
      2.00500488e-02 8.10032845e-01 4.95024729e+00 3.21200490e-01
      6.56153142e-01 9.99746382e-01 3.29663501e+03 5.27087555e+01
      2.30588928e+02</_>
    <_>
      1.08992040e+00 1.75403595e-01 9.97472584e-01 9.97569203e-01
      2.73132324e-02 8.02482724e-01 5.51398516e+00 4.16377664e-01
      6.43978536e-01 9.99813795e-01 1.44648389e+03 3.50213013e+01
      2.76276660e+00</_>
    <_>
      9.24065590e+00 5.69748640e-01 9.95511711e-01 9.95665610e-01
      1.72459915e-01 3.23152542e+00 6.38406849e+00 6.32124901e-01
      1.04427557e+01 9.99970496e-01 4.50585114e+02 2.05409470e+01
      5.29802475e+01</_>
    <_>
      6.69148266e-01 6.36522353e-01 9.98973668e-01 9.99111712e-01
      2.29085293e-02 9.32459354e-01 4.88219213e+00 2.84504473e-01
      8.69480491e-01 9.99778032e-01 2.96907349e+03 4.99294167e+01
      1.21394849e+00</_>
    <_>
      1.44212627e+00 3.26369137e-01 9.95910108e-01 9.96133208e-01
      4.61883545e-02 1.02434552e+00 6.08529806e+00 5.37025332e-01
      1.04928362e+00 9.99889910e-01 8.45833557e+02 2.66371403e+01
      3.28188095e+01</_>
    <_>
      6.84558809e-01 2.14358643e-01 9.98070002e-01 9.98173237e-01
      1.98262539e-02 6.49349570e-01 5.29456186e+00 3.66452605e-01
      4.21654850e-01 9.99743521e-01 1.94186243e+03 3.95123291e+01
      5.91444206e+01</_>
    <_>
      7.58884773e-02 -4.26057813e-05 9.99908090e-01 9.99908268e-01
      1.20035803e-03 1.89975470e-01 2.12468767e+00 7.83849806e-02
      3.60906832e-02 9.95780587e-01 3.36007188e+04 1.76286575e+02
      1.30172992e+00</_>
    <_>
      1.22549022e-02 -1.53188630e-05 9.99969363e-01 9.99969423e-01
      2.95003265e-04 7.88373426e-02 1.05425978e+00 4.80537564e-02
      6.21532649e-03 9.83050823e-01 8.75471406e+04 2.87643005e+02
      1.95121951e-02</_>
    <_>
      1.10165441e+00 1.89048722e-01 9.96890485e-01 9.96999383e-01
      3.07108555e-02 8.15089285e-01 5.72150373e+00 4.41884190e-01
      6.64370537e-01 9.99834418e-01 1.13461780e+03 3.12021427e+01
      4.37478900e-01</_>
    <_>
      1.92187503e-01 2.51804322e-01 9.99203503e-01 9.99313056e-01
      7.36490870e-03 3.54668975e-01 4.46861267e+00 2.59327143e-01
      1.25790074e-01 9.99309897e-01 2.69369409e+03 5.07571869e+01
      1.01329498e-01</_>
    <_>
      1.88265935e-01 9.61998478e-02 9.99448538e-01 9.99452055e-01
      5.20324707e-03 3.17871124e-01 4.00326014e+00 1.93046749e-01
      1.01042062e-01 9.99023438e-01 4.67587305e+03 6.59485321e+01
      4.52330589e+00</_>
    <_>
      5.38082123e-01 1.34741277e-01 9.98789847e-01 9.98849571e-01
      1.28072100e-02 5.48322797e-01 4.77573776e+00 2.93220371e-01
      3.00657928e-01 9.99603033e-01 3.23610107e+03 5.20183792e+01
      4.13542926e-01</_>
    <_>
      2.40091920e+00 8.40845346e-01 9.83228922e-01 9.91202891e-01
      3.15109253e-01 2.68930221e+00 7.92562819e+00 1.29637873e+00
      7.23234558e+00 9.99983847e-01 8.54029770e+01 9.05411148e+00
      1.18994011e+02</_>
    <_>
      1.66973043e-02 -3.06100847e-05 9.99938726e-01 9.99938965e-01
      4.32332366e-04 9.06318277e-02 1.58611810e+00 4.12782989e-02
      8.21412820e-03 9.88372087e-01 5.49033438e+04 2.29511368e+02
      2.58340267e-03</_>
    <_>
      5.11243880e-01 2.41906613e-01 9.99142170e-01 9.99166369e-01
      1.18560791e-02 5.69542170e-01 4.50152063e+00 2.39982828e-01
      3.24378282e-01 9.99571204e-01 3.07692676e+03 5.31782951e+01
      2.56472260e-01</_>
    <_>
      6.89031854e-02 6.66295886e-01 9.99892771e-01 9.99902427e-01
      2.58382154e-03 3.09052318e-01 2.66110516e+00 1.04329303e-01
      9.55133438e-02 9.98035371e-01 1.72822422e+04 1.28115097e+02
      4.61028099e+00</_>
    <_>
      3.01194847e-01 4.54718530e-01 9.99142170e-01 9.99230504e-01
      1.16221113e-02 5.12113392e-01 4.66285753e+00 2.61504889e-01
      2.62260139e-01 9.99562562e-01 2.51081836e+03 4.81051140e+01
      7.32959211e-01</_>
    <_>
      1.08762253e-02 7.05381155e-01 9.99938726e-01 9.99939322e-01
      8.59578431e-04 1.34427503e-01 2.13653326e+00 7.10679889e-02
      1.80707537e-02 9.94117618e-01 3.12591504e+04 1.70874374e+02
      5.06179035e-03</_>
    <_>
      1.76783085e+00 4.52863991e-01 9.97533739e-01 9.97591734e-01
      4.47082520e-02 1.25503349e+00 5.62007236e+00 4.24231470e-01
      1.57510889e+00 9.99886274e-01 1.23002942e+03 3.29935799e+01
      3.82235626e+02</_>
    <_>
      7.33455867e-02 9.51294675e-02 9.99770224e-01 9.99771774e-01
      2.07010913e-03 1.97077408e-01 3.12049007e+00 1.18761137e-01
      3.88395041e-02 9.97548997e-01 1.09336904e+04 1.01993576e+02
      2.17108410e-02</_>
    <_>
      2.60980392e+00 4.65504408e-01 9.98406887e-01 9.98446047e-01
      4.46523018e-02 1.52154493e+00 5.21435642e+00 3.48970473e-01
      2.31509900e+00 9.99886096e-01 1.65020764e+03 3.87565842e+01
      6.08230877e+00</_>
    <_>
      1.80238974e+00 6.03097379e-01 9.93138850e-01 9.94969606e-01
      9.06778947e-02 1.47496223e+00 6.74815607e+00 8.06959748e-01
      2.17551374e+00 9.99943912e-01 7.43430725e+02 2.29243145e+01
      6.18552744e-01</_>
    <_>
      2.32738972e+00 5.14593720e-01 9.98039246e-01 9.98108983e-01
      4.14530449e-02 1.50954902e+00 5.21149063e+00 3.72195452e-01
      2.27873826e+00 9.99877334e-01 2.76328711e+03 4.88343010e+01
      1.49827414e+01</_>
    <_>
      1.08768380e+00 2.27062896e-01 9.98805165e-01 9.98809040e-01
      1.82189941e-02 8.13372016e-01 4.69825935e+00 2.84915358e-01
      6.61574006e-01 9.99720931e-01 3.68791553e+03 5.51321526e+01
      1.75485063e+00</_>
    <_>
      1.16605389e+00 7.64195800e-01 9.97595012e-01 9.98197794e-01
      6.55263290e-02 1.52599752e+00 5.91945601e+00 4.79684740e-01
      2.32866836e+00 9.99922395e-01 6.21338501e+02 2.44502792e+01
      2.76466125e+02</_>
    <_>
      3.81905627e+00 3.45705777e-01 9.93704438e-01 9.94088531e-01
      9.61405411e-02 1.67545307e+00 6.53353119e+00 6.68277085e-01
      2.80714297e+00 9.99947071e-01 4.16371521e+02 1.94167042e+01
      3.98001933e+00</_>
    <_>
      1.05015314e+00 4.43913311e-01 9.98069882e-01 9.98243630e-01
      3.01310215e-02 9.49182570e-01 5.37434483e+00 3.77810657e-01
      9.00947571e-01 9.99831200e-01 1.47793970e+03 3.64373207e+01
      1.22671247e-01</_>
    <_>
      6.18137240e-01 2.71706700e-01 9.99739587e-01 9.99742985e-01
      7.19706202e-03 6.28209591e-01 3.32133842e+00 1.40353471e-01
      3.94647300e-01 9.99293804e-01 1.06022188e+04 9.84798355e+01
      2.13298111e+01</_>
    <_>
      1.16988361e+00 4.97092783e-01 9.98590708e-01 9.98833477e-01
      3.11533604e-02 1.05284417e+00 5.17743683e+00 3.34746867e-01
      1.10848081e+00 9.99836743e-01 1.33230017e+03 3.56782112e+01
      2.42424056e-01</_>
    <_>
      5.40594339e-01 2.18110412e-01 9.98146534e-01 9.98297751e-01
      1.76951084e-02 5.75892389e-01 5.26776361e+00 3.67900193e-01
      3.31652015e-01 9.99712646e-01 1.34491150e+03 3.53285751e+01
      2.46611423e+01</_>
    <_>
      6.46783113e-01 4.45774257e-01 9.99019623e-01 9.99070585e-01
      1.71864834e-02 7.45643437e-01 4.74564171e+00 2.84638524e-01
      5.55984139e-01 9.99704123e-01 3.12326733e+03 5.17861443e+01
      9.13445771e-01</_>
    <_>
      3.11341906e+00 7.04207182e-01 9.97932017e-01 9.98104334e-01
      7.57649764e-02 2.20369911e+00 5.56056738e+00 4.22417194e-01
      4.85628986e+00 9.99932885e-01 1.29628418e+03 3.42674675e+01
      1.86445427e+00</_>
    <_>
      2.67503071e+00 7.91213453e-01 9.93566453e-01 9.95431125e-01
      1.72419235e-01 2.44437242e+00 6.91508627e+00 8.00063193e-01
      5.97495604e+00 9.99970496e-01 2.31601868e+02 1.49491329e+01
      2.94055084e+02</_>
    <_>
      1.68710172e+00 3.90085340e-01 9.97518539e-01 9.97897148e-01
      3.62803154e-02 1.14455175e+00 5.49946833e+00 4.47926134e-01
      1.30999863e+00 9.99859810e-01 2.42539746e+03 4.45282860e+01
      7.70340300e+00</_>
    <_>
      3.24356616e-01 3.22354198e-01 9.99325991e-01 9.99369264e-01
      8.83992482e-03 4.79969025e-01 4.28708220e+00 2.13430479e-01
      2.30370253e-01 9.99424934e-01 4.53666602e+03 6.31673393e+01
      1.09154463e-01</_>
    <_>
      3.92598033e+00 5.21505773e-01 9.93934095e-01 9.95073199e-01
      1.02371216e-01 2.00706577e+00 6.52870989e+00 6.89195812e-01
      4.02831316e+00 9.99950290e-01 2.07624658e+03 3.68379173e+01
      1.42992233e+02</_>
    <_>
      1.01228857e+01 3.25193882e-01 9.94148433e-01 9.94343162e-01
      1.46982834e-01 2.68529844e+00 6.47880936e+00 6.45000637e-01
      7.21082830e+00 9.99965370e-01 5.38639648e+02 2.16644917e+01
      1.85956752e+00</_>
    <_>
      1.59638476e+00 2.91084886e-01 9.96767879e-01 9.96864498e-01
      4.03086357e-02 1.03730261e+00 5.78611135e+00 4.58730817e-01
      1.07599664e+00 9.99873817e-01 1.11477380e+03 3.07640381e+01
      6.66908205e-01</_>
    <_>
      3.59375000e-01 1.38200492e-01 9.99142170e-01 9.99155641e-01
      8.98742676e-03 4.49128836e-01 4.42499208e+00 2.42008924e-01
      2.01716706e-01 9.99434412e-01 3.35588525e+03 5.54301910e+01
      3.77124672e+01</_>
    <_>
      2.46629901e-02 -4.56915586e-05 9.99908090e-01 9.99908447e-01
      7.22249330e-04 1.10758945e-01 2.15735173e+00 8.40222165e-02
      1.22675449e-02 9.93007004e-01 2.75272500e+04 1.62360184e+02
      1.57684309e-03</_>
    <_>
      3.32049632e+00 3.45433205e-01 9.96323586e-01 9.96419311e-01
      6.76218644e-02 1.55790329e+00 5.98525286e+00 5.09667099e-01
      2.42706275e+00 9.99924779e-01 7.26709595e+02 2.58498192e+01
      4.55854535e-01</_>
    <_>
      2.91544110e-01 8.15446436e-01 9.99586403e-01 9.99660611e-01
      1.51214600e-02 8.81111383e-01 4.11711073e+00 2.05452904e-01
      7.76357234e-01 9.99663770e-01 4.38536084e+03 6.40286179e+01
      6.67100474e-02</_>
    <_>
      8.09742659e-02 2.96836793e-01 9.99862134e-01 9.99862969e-01
      1.92769372e-03 2.33181313e-01 2.65064502e+00 1.00530617e-01
      5.43735214e-02 9.97368395e-01 1.89735664e+04 1.32772400e+02
      1.81868240e-01</_>
    <_>
      3.38397670e+00 7.63880789e-01 9.89185810e-01 9.91981447e-01
      2.33459473e-01 2.61050153e+00 7.39531708e+00 1.01329863e+00
      6.81471872e+00 9.99978185e-01 1.47969757e+02 1.19167528e+01
      1.08547230e+01</_>
    <_>
      4.75857854e-01 6.72626674e-01 9.99050260e-01 9.99203384e-01
      2.10876465e-02 8.31895411e-01 4.88556719e+00 2.74421602e-01
      6.92050040e-01 9.99758840e-01 1.91969800e+03 4.25749931e+01
      6.73165172e-02</_>
    <_>
      1.69623160e+00 3.19564342e-01 9.96767879e-01 9.96927261e-01
      4.33502197e-02 1.09349310e+00 5.83240223e+00 4.72914457e-01
      1.19572711e+00 9.99882698e-01 1.20572961e+03 3.08983669e+01
      5.01157761e+01</_>
    <_>
      8.85416660e-03 -1.53188630e-05 9.99969363e-01 9.99969482e-01
      2.49226898e-04 6.54024854e-02 1.07314134e+00 4.09069732e-02
      4.27748496e-03 9.80000019e-01 7.80380234e+04 2.74247864e+02
      4.04511491e-04</_>
    <_>
      1.62484682e+00 2.29081854e-01 9.97610390e-01 9.97757912e-01
      3.44034843e-02 1.00156355e+00 5.54630709e+00 4.08746332e-01
      1.00312960e+00 9.99852180e-01 1.58243372e+03 3.59235611e+01
      4.06262732e+00</_>
    <_>
      2.48284310e-01 2.88338095e-01 9.99111533e-01 9.99148726e-01
      8.80940724e-03 4.15085346e-01 4.53532982e+00 2.53575504e-01
      1.72295853e-01 9.99422967e-01 2.88465576e+03 5.16762199e+01
      1.01610094e-01</_>
    <_>
      1.60814953e+00 2.91134000e-01 9.97487783e-01 9.97570038e-01
      3.76485176e-02 1.04390061e+00 5.59933043e+00 4.11425382e-01
      1.08972847e+00 9.99864936e-01 1.00639581e+03 3.05199852e+01
      4.78794556e+01</_>
    <_>
      1.29932597e-01 3.05371463e-01 9.99555767e-01 9.99579787e-01
      4.69970703e-03 3.00058812e-01 3.90342307e+00 1.77379876e-01
      9.00352895e-02 9.98918891e-01 4.74880420e+03 6.72905655e+01
      2.14795172e-02</_>
    <_>
      2.40502451e-02 -2.96819417e-05 9.99938726e-01 9.99938905e-01
      5.69661439e-04 1.06689885e-01 1.75683618e+00 6.98042959e-02
      1.13827325e-02 9.91150439e-01 4.17059141e+04 1.99049881e+02
      1.94130838e-02</_>
    <_>
      1.72181368e+00 2.85060644e-01 9.96308506e-01 9.96850729e-01
      4.57967110e-02 1.07213497e+00 5.98774147e+00 5.33275843e-01
      1.14947331e+00 9.99888957e-01 9.92968506e+02 2.88347187e+01
      4.37623930e+00</_>
    <_>
      5.10916042e+00 5.75412095e-01 9.87087190e-01 9.88463163e-01
      2.08282471e-01 2.39259100e+00 7.39998913e+00 1.02997184e+00
      5.72449160e+00 9.99975562e-01 2.95448120e+02 1.44834852e+01
      1.06405434e+02</_>
    <_>
      1.48753059e+00 6.23181045e-01 9.98468161e-01 9.98798490e-01
      4.40266915e-02 1.35696495e+00 5.35905743e+00 3.58397096e-01
      1.84135389e+00 9.99884486e-01 1.09043665e+03 3.23647270e+01
      4.05883169e+00</_>
    <_>
      6.09375015e-02 -3.05688736e-05 9.99938726e-01 9.99938786e-01
      9.05354798e-04 1.69128135e-01 1.75866222e+00 6.21736273e-02
      2.86043230e-02 9.94413435e-01 4.04037578e+04 1.96865753e+02
      1.70052715e-03</_>
    <_>
      7.93504938e-02 3.13247800e-01 9.99708951e-01 9.99740958e-01
      2.92968750e-03 2.34595299e-01 3.45765924e+00 1.54251546e-01
      5.50349541e-02 9.98266876e-01 7.63312256e+03 8.51667862e+01
      2.40794942e-02</_>
    <_>
      1.52236521e-01 3.14378142e-01 9.99831498e-01 9.99831975e-01
      2.74149585e-03 3.22933912e-01 2.75313067e+00 1.02683119e-01
      1.04286306e-01 9.98148143e-01 2.06634688e+04 1.37041473e+02
      2.01606169e-01</_>
    <_>
      2.23345589e-02 -1.53188630e-05 9.99969363e-01 9.99969423e-01
      3.86555999e-04 1.03496477e-01 1.05085838e+00 3.99635658e-02
      1.07115209e-02 9.87012982e-01 8.67367969e+04 2.87178406e+02
      1.67389959e-03</_>
    <_>
      3.75306383e-02 -3.00254105e-05 9.99938726e-01 9.99938846e-01
      7.17163086e-04 1.34617388e-01 1.75432014e+00 7.14249387e-02
      1.81218404e-02 9.92957771e-01 4.24471328e+04 2.00307968e+02
      3.23171751e-03</_>
    <_>
      5.56031876e+01 6.88767254e-01 9.85907078e-01 9.87014771e-01
      8.95909607e-01 9.16587830e+00 7.60146570e+00 1.11434066e+00
      8.40133209e+01 9.99994338e-01 1.39897644e+02 1.14056921e+01
      3.99460149e+00</_>
    <_>
      2.62591898e-01 2.82299459e-01 9.99019623e-01 9.99150097e-01
      9.61303711e-03 4.26466584e-01 4.66549444e+00 2.71833092e-01
      1.81873739e-01 9.99471188e-01 2.66430518e+03 4.94077606e+01
      7.84398988e-02</_>
    <_>
      2.27539825e+00 2.46430293e-01 9.97181475e-01 9.97274756e-01
      4.32942696e-02 1.19522631e+00 5.67985153e+00 4.27836925e-01
      1.42856586e+00 9.99882519e-01 1.71851941e+03 3.62328110e+01
      7.54928350e+00</_>
    <_>
      2.21299028e+00 3.50217998e-01 9.93429005e-01 9.94366229e-01
      7.12076798e-02 1.30321515e+00 6.54146099e+00 6.89620018e-01
      1.69836986e+00 9.99928594e-01 1.20121912e+03 2.78807812e+01
      7.17052078e+01</_>
    <_>
      4.09208012e+00 5.67784965e-01 9.84514534e-01 9.91344392e-01
      2.13867188e-01 2.15493011e+00 7.66298008e+00 1.31967676e+00
      4.64372396e+00 9.99976218e-01 2.05712082e+02 1.27067633e+01
      2.74126797e+01</_>
    <_>
      4.35876220e-01 4.27951485e-01 9.99172866e-01 9.99369562e-01
      1.22629805e-02 6.05462193e-01 4.52106714e+00 2.85619617e-01
      3.66584450e-01 9.99585390e-01 4.38502441e+03 6.16190758e+01
      3.29088271e-02</_>
    <_>
      2.53768384e-01 5.10037243e-01 9.99142170e-01 9.99259531e-01
      1.15305586e-02 4.99322355e-01 4.69197321e+00 2.61660427e-01
      2.49322817e-01 9.99559104e-01 2.30185059e+03 4.65339584e+01
      3.45626259e+01</_>
    <_>
      2.03155637e-01 4.09989685e-01 9.99540448e-01 9.99560595e-01
      6.69352198e-03 4.06595349e-01 4.00818729e+00 1.83995023e-01
      1.65319785e-01 9.99240696e-01 4.38418359e+03 6.45214920e+01
      3.09231937e-01</_>
    <_>
      9.30484056e-01 3.61083955e-01 9.98406887e-01 9.98560488e-01
      2.40478516e-02 8.36674333e-01 5.19044971e+00 3.36693674e-01
      7.00023890e-01 9.99788523e-01 1.97775610e+03 4.14792862e+01
      3.13189578e+00</_>
    <_>
      3.69393378e-01 6.60733163e-01 9.99356627e-01 9.99424875e-01
      1.51774092e-02 7.20512390e-01 4.49941587e+00 2.39016533e-01
      5.19138157e-01 9.99664962e-01 2.64619556e+03 5.02394257e+01
      5.06764390e-02</_>
    <_>
      2.93391538e+00 8.98467124e-01 9.76451278e-01 9.90002394e-01
      5.41732788e-01 3.77795529e+00 8.31450844e+00 1.51210904e+00
      1.42729473e+01 9.99990582e-01 5.33345375e+01 7.24719048e+00
      2.01391373e+02</_>
    <_>
      2.17640924e+00 5.54681182e-01 9.92371976e-01 9.93638098e-01
      1.06140137e-01 1.53504705e+00 6.89086819e+00 7.75893092e-01
      2.35636926e+00 9.99952078e-01 2.68427307e+02 1.57887096e+01
      2.65577972e+02</_>
    <_>
      4.59558815e-01 4.17021632e-01 9.97962892e-01 9.98489320e-01
      2.14589443e-02 6.17568374e-01 5.51023674e+00 4.36399996e-01
      3.81390721e-01 9.99763012e-01 1.07853259e+03 3.13349457e+01
      3.19501419e+01</_>
    <_>
      4.19087023e-01 2.43343711e-01 9.99080896e-01 9.99121189e-01
      1.09507246e-02 5.15336037e-01 4.55250692e+00 2.31195882e-01
      2.65571207e-01 9.99535739e-01 3.18402441e+03 5.33178368e+01
      5.89306653e-01</_>
    <_>
      3.46608448e+00 7.43686736e-01 9.72370803e-01 9.86510396e-01
      3.61495972e-01 2.54574084e+00 8.32493305e+00 1.64277673e+00
      6.48079634e+00 9.99985933e-01 6.94983978e+01 7.82485867e+00
      9.24331360e+02</_>
    <_>
      1.73314944e-01 2.07524061e-01 9.99341309e-01 9.99419868e-01
      6.10860204e-03 3.27175468e-01 4.25153589e+00 2.31723279e-01
      1.07043780e-01 9.99168038e-01 3.27982910e+03 5.60985107e+01
      3.70370112e-02</_>
    <_>
      2.65625007e-02 -4.59579933e-05 9.99908090e-01 9.99908388e-01
      7.47680664e-04 1.12738691e-01 2.17618465e+00 6.99862242e-02
      1.27100125e-02 9.93243217e-01 2.49534414e+04 1.55889343e+02
      6.43104538e-02</_>
    <_>
      9.55422819e-01 2.78989643e-01 9.98376250e-01 9.98510659e-01
      2.05586758e-02 7.89941549e-01 5.07556725e+00 3.47165793e-01
      6.24007702e-01 9.99752641e-01 4.39294141e+03 5.68283310e+01
      1.35648804e+01</_>
    <_>
      5.26593149e-01 2.42293641e-01 9.98697937e-01 9.98728037e-01
      1.45670576e-02 5.74835241e-01 4.90903330e+00 3.03918630e-01
      3.30435574e-01 9.99650955e-01 2.25213672e+03 4.49140816e+01
      1.07495604e+01</_>
    <_>
      2.08210781e-01 3.97253901e-01 9.99387264e-01 9.99468327e-01
      7.31913233e-03 4.05237556e-01 4.23811674e+00 2.16987416e-01
      1.64217472e-01 9.99305546e-01 4.71330518e+03 6.42225571e+01
      4.11359215e+01</_>
    <_>
      1.99669123e+00 7.18057990e-01 9.91085112e-01 9.93941486e-01
      1.46652222e-01 1.84348595e+00 7.17195082e+00 9.13241386e-01
      3.39844036e+00 9.99965310e-01 1.97999817e+02 1.36488724e+01
      7.64370728e+01</_>
    <_>
      8.50122571e-01 2.78423160e-01 9.98759210e-01 9.98822093e-01
      1.87225342e-02 7.43796527e-01 4.87238789e+00 2.84477651e-01
      5.53233266e-01 9.99728382e-01 1.93211670e+03 4.28078156e+01
      1.73545554e-01</_>
    <_>
      9.99050260e-01 3.04083169e-01 9.98223066e-01 9.98292685e-01
      2.42563877e-02 8.26019704e-01 5.22126198e+00 3.41307312e-01
      6.82308555e-01 9.99790370e-01 1.79472717e+03 3.98480186e+01
      1.59746453e-01</_>
    <_>
      7.23039210e-02 -8.73497702e-05 9.99816179e-01 9.99816716e-01
      1.69881189e-03 1.86130971e-01 2.84418321e+00 1.05877869e-01
      3.46447378e-02 9.97014940e-01 1.60898281e+04 1.20901596e+02
      2.00363044e-02</_>
    <_>
      2.88988972e+00 7.92171001e-01 9.96721864e-01 9.97451961e-01
      1.14440918e-01 2.62595797e+00 6.09784460e+00 5.69312751e-01
      6.89565563e+00 9.99955535e-01 1.02953687e+03 2.98212166e+01
      1.13680992e+02</_>
    <_>
      1.26406252e+00 2.90359020e-01 9.97380733e-01 9.97691870e-01
      3.16925049e-02 9.28958297e-01 5.57870817e+00 4.54330057e-01
      8.62963498e-01 9.99839544e-01 2.05236816e+03 3.98369141e+01
      4.58895475e-01</_>
    <_>
      2.04175854e+00 2.16738686e-01 9.98054564e-01 9.98189270e-01
      3.16518135e-02 1.11729228e+00 5.28027058e+00 3.70627463e-01
      1.24834204e+00 9.99839306e-01 4.70208789e+03 5.69839211e+01
      9.71705988e-02</_>
    <_>
      7.83915460e-01 2.26614848e-01 9.97978032e-01 9.98058438e-01
      2.20998134e-02 6.99865758e-01 5.33621311e+00 3.68963182e-01
      4.89812106e-01 9.99769926e-01 1.36958301e+03 3.52511444e+01
      2.05450134e+01</_>
    <_>
      2.76041664e-02 -2.85808528e-05 9.99938726e-01 9.99938905e-01
      6.05265319e-04 1.17424414e-01 1.71326554e+00 5.80705814e-02
      1.37884924e-02 9.91666675e-01 4.83215000e+04 2.12874268e+02
      1.51759456e-03</_>
    <_>
      1.16139710e+00 2.76832491e-01 9.99126852e-01 9.99167144e-01
      1.86665859e-02 8.71241152e-01 4.54311609e+00 2.31690347e-01
      7.59061158e-01 9.99727607e-01 2.64041455e+03 5.00055008e+01
      1.22144222e-01</_>
    <_>
      2.81617641e-01 3.22781563e-01 9.99264717e-01 9.99361038e-01
      8.99251271e-03 4.48953182e-01 4.41411829e+00 2.33461767e-01
      2.01558948e-01 9.99434710e-01 3.13461523e+03 5.41814423e+01
      2.03434691e-01</_>
    <_>
      5.50704658e-01 2.10541338e-01 9.98360991e-01 9.98454213e-01
      1.53910322e-02 5.80782115e-01 5.03796196e+00 3.23221028e-01
      3.37307870e-01 9.99669611e-01 2.62576294e+03 4.64616852e+01
      6.21781275e-02</_>
    <_>
      4.26439941e-01 4.11009014e-01 9.98973668e-01 9.99009311e-01
      1.35650635e-02 5.88185012e-01 4.73890018e+00 2.76793033e-01
      3.45961630e-01 9.99625206e-01 2.76869849e+03 4.99935493e+01
      5.05604923e-01</_>
    <_>
      4.14813089e+00 9.34898496e-01 9.19679523e-01 9.73067105e-01
      1.52277625e+00 5.51658010e+00 9.57670212e+00 3.01820779e+00
      3.04326572e+01 9.99996662e-01 1.22133141e+01 3.62713265e+00
      2.27367153e+01</_>
    <_>
      2.17892146e+00 3.01514953e-01 9.95113909e-01 9.95514631e-01
      5.94635010e-02 1.22691035e+00 6.24283028e+00 5.98166645e-01
      1.50530910e+00 9.99914467e-01 8.13201782e+02 2.57516994e+01
      1.06175797e+02</_>
    <_>
      1.41014087e+00 3.14247131e-01 9.97824788e-01 9.97901917e-01
      3.11330166e-02 9.84288275e-01 5.41633081e+00 3.81541520e-01
      9.68823433e-01 9.99836683e-01 2.13800439e+03 4.12828636e+01
      2.41752052e+01</_>
    <_>
      6.65747523e-02 7.73118436e-01 9.99831498e-01 9.99869823e-01
      4.20125341e-03 3.69194210e-01 3.26476002e+00 1.28570423e-01
      1.36304364e-01 9.98790801e-01 8.83847266e+03 9.22368011e+01
      7.02312170e-03</_>
    <_>
      4.74142164e-01 2.83105642e-01 9.98544812e-01 9.98728037e-01
      1.53808594e-02 5.62524796e-01 5.05036449e+00 3.19103420e-01
      3.16434175e-01 9.99669433e-01 1.93943640e+03 4.13790283e+01
      1.12045920e+00</_>
    <_>
      3.54139090e+00 5.14417768e-01 9.97962654e-01 9.98124540e-01
      6.62587509e-02 1.85294628e+00 5.57796860e+00 4.03807521e-01
      3.43340993e+00 9.99923229e-01 1.00542194e+03 3.05566978e+01
      3.15174103e-01</_>
    <_>
      6.12009823e-01 3.70062888e-01 9.98039305e-01 9.98140633e-01
      2.25524902e-02 6.92556560e-01 5.39249706e+00 3.56761336e-01
      4.79634613e-01 9.99774516e-01 1.20560498e+03 3.35810738e+01
      2.27091384e+00</_>
    <_>
      2.91666668e-02 3.69510233e-01 9.99923408e-01 9.99923706e-01
      9.35872376e-04 1.49527043e-01 2.11345744e+00 8.20622444e-02
      2.23583356e-02 9.94594574e-01 3.56215742e+04 1.80381165e+02
      1.38176978e-01</_>
    <_>
      3.47539830e+00 6.67094052e-01 9.96124506e-01 9.96582806e-01
      1.11083984e-01 2.22916746e+00 6.26417351e+00 5.87203503e-01
      4.96918726e+00 9.99954224e-01 6.35674744e+02 2.34242802e+01
      1.67570648e+01</_>
    <_>
      1.68823528e+00 3.43604296e-01 9.97656286e-01 9.97685134e-01
      3.51765938e-02 1.11825395e+00 5.39932966e+00 3.82440299e-01
      1.25049198e+00 9.99855399e-01 1.79826343e+03 3.93581581e+01
      1.84267902e+00</_>
    <_>
      8.80484045e-01 6.31154239e-01 9.97334599e-01 9.97690439e-01
      4.40317802e-02 1.07393658e+00 5.86087465e+00 4.65270281e-01
      1.15333974e+00 9.99884486e-01 7.95171143e+02 2.70643730e+01
      8.09005141e-01</_>
    <_>
      5.00919111e-02 -5.84765403e-05 9.99877453e-01 9.99877810e-01
      1.16475427e-03 1.58074200e-01 2.42306590e+00 8.22170526e-02
      2.49874536e-02 9.95652199e-01 2.40499824e+04 1.49365646e+02
      1.48468809e-02</_>
    <_>
      9.59712029e-01 5.17296970e-01 9.98069942e-01 9.98198152e-01
      2.88035069e-02 9.71627831e-01 5.28861618e+00 3.86416137e-01
      9.44060683e-01 9.99823451e-01 2.16638281e+03 4.28185310e+01
      6.84819445e-02</_>
    <_>
      6.02420330e-01 7.46041477e-01 9.98912394e-01 9.99094248e-01
      3.05226650e-02 1.06745696e+00 5.10917330e+00 3.30372691e-01
      1.13946450e+00 9.99833405e-01 1.42569995e+03 3.69175568e+01
      1.17216907e-01</_>
    <_>
      4.75726080e+00 5.14404595e-01 9.87562418e-01 9.89481032e-01
      1.75699875e-01 2.20362425e+00 7.24244976e+00 9.18619573e-01
      4.85596037e+00 9.99971032e-01 2.58600342e+02 1.50389357e+01
      5.06074615e+02</_>
    <_>
      1.20566483e+01 1.55591622e-01 9.95144129e-01 9.95169401e-01
      1.21180214e-01 2.61652660e+00 6.13274670e+00 5.60375571e-01
      6.84621096e+00 9.99958038e-01 7.16754822e+02 2.51631451e+01
      3.78672676e+01</_>
    <_>
      2.07107849e-02 -1.53188630e-05 9.99969363e-01 9.99969423e-01
      3.86555999e-04 1.01110034e-01 1.07652569e+00 3.32987271e-02
      1.02232397e-02 9.87012982e-01 7.63745156e+04 2.71860260e+02
      8.48951866e-04</_>
    <_>
      1.36632967e+00 2.93496639e-01 9.96752620e-01 9.96883750e-01
      3.85894775e-02 9.67205763e-01 5.82962704e+00 4.76802588e-01
      9.35486972e-01 9.99868214e-01 9.50817261e+02 2.90610409e+01
      2.49510403e+01</_>
    <_>
      1.35295653e+00 2.29640931e-01 9.98177111e-01 9.98214602e-01
      2.68046055e-02 9.59869683e-01 5.17769957e+00 3.46388429e-01
      9.21349764e-01 9.99810278e-01 2.89873901e+03 4.77658386e+01
      1.07031956e-01</_>
    <_>
      1.76470596e-02 -1.53188630e-05 9.99969363e-01 9.99969423e-01
      3.45865876e-04 9.17200074e-02 1.06108057e+00 4.36149314e-02
      8.41255952e-03 9.85507250e-01 8.19570938e+04 2.80418701e+02
      7.57456233e-04</_>
    <_>
      5.70986509e-01 3.51997316e-01 9.98590708e-01 9.98641312e-01
      1.74306240e-02 6.50337875e-01 5.01405096e+00 3.18792433e-01
      4.22939390e-01 9.99708295e-01 1.93584387e+03 4.18868561e+01
      1.16616321e+00</_>
    <_>
      2.26032472e+00 3.23395461e-01 9.98468161e-01 9.98481989e-01
      3.39813232e-02 1.26008296e+00 5.06520462e+00 3.37199360e-01
      1.58780909e+00 9.99850333e-01 2.30613770e+03 4.44637375e+01
      2.23163590e-01</_>
    <_>
      3.10508579e-01 2.86626905e-01 9.98927712e-01 9.99024332e-01
      1.10270185e-02 4.58869904e-01 4.78016424e+00 2.85966665e-01
      2.10561588e-01 9.99538958e-01 2.20159912e+03 4.52935829e+01
      1.89100623e-01</_>
    <_>
      4.45291042e+00 6.60252035e-01 9.91620898e-01 9.92556810e-01
      1.84036255e-01 2.50846148e+00 7.04653311e+00 8.64188135e-01
      6.29237890e+00 9.99972343e-01 3.01872864e+02 1.60013905e+01
      1.07683916e+01</_>
    <_>
      1.32536769e+00 6.36660933e-01 9.95588362e-01 9.96558785e-01
      6.80948868e-02 1.32490480e+00 6.38228607e+00 6.31927729e-01
      1.75537288e+00 9.99925315e-01 9.27685913e+02 2.61666851e+01
      4.22500277e+00</_>
    <_>
      1.18903190e-01 -7.93393338e-05 9.99831498e-01 9.99831796e-01
      2.29390454e-03 2.53695488e-01 2.83028579e+00 1.04791418e-01
      6.43613935e-02 9.97787595e-01 1.56424932e+04 1.20991653e+02
      7.20933974e-01</_>
    <_>
      8.24050248e-01 4.45743918e-01 9.98085201e-01 9.98251736e-01
      2.81219482e-02 8.49168539e-01 5.42451334e+00 3.61569107e-01
      7.21087217e-01 9.99819160e-01 1.17927893e+03 3.30379181e+01
      1.18369608e+01</_>
    <_>
      3.28272057e+00 9.31514442e-01 9.65907633e-01 9.83429074e-01
      8.07759583e-01 4.78304863e+00 8.66337109e+00 1.91215360e+00
      2.28775539e+01 9.99993682e-01 4.29426422e+01 6.41970253e+00
      6.59436768e+02</_>
    <_>
      5.67279398e-01 5.38632333e-01 9.99371946e-01 9.99403238e-01
      1.37990313e-02 7.64120698e-01 4.27949238e+00 2.21166432e-01
      5.83880424e-01 9.99631524e-01 4.83104395e+03 6.59409485e+01
      1.96297586e-01</_>
    <_>
      1.47518381e-01 2.01701045e-01 9.99571085e-01 9.99592066e-01
      4.45556641e-03 3.01651686e-01 3.81044579e+00 1.68859676e-01
      9.09937397e-02 9.98859763e-01 5.86616113e+03 7.39648056e+01
      2.17061490e-02</_>
    <_>
      4.15379912e-01 4.57923830e-01 9.99463856e-01 9.99518275e-01
      1.09405518e-02 6.02818727e-01 4.20057106e+00 2.04684019e-01
      3.63390446e-01 9.99535322e-01 3.51960376e+03 5.80912743e+01
      1.55035511e-01</_>
    <_>
      4.48835790e-02 -2.93728936e-05 9.99938726e-01 9.99938846e-01
      7.68025697e-04 1.46556124e-01 1.73341763e+00 5.70098422e-02
      2.14786995e-02 9.93421078e-01 4.46908008e+04 2.05786758e+02
      2.64982805e-02</_>
    <_>
      2.04411760e-01 8.79450887e-02 9.99295354e-01 9.99305904e-01
      5.96110011e-03 3.26298654e-01 4.22636509e+00 2.09776893e-01
      1.06470816e-01 9.99147475e-01 3.67878418e+03 5.89000320e+01
      4.26241681e-02</_>
    <_>
      8.52512240e-01 4.89462435e-01 9.97212112e-01 9.97618079e-01
      3.63260917e-02 8.96841168e-01 5.81989956e+00 4.63139176e-01
      8.04324150e-01 9.99859989e-01 7.71575378e+02 2.68041782e+01
      2.05260918e-01</_>
    <_>
      1.41412377e+00 4.44986045e-01 9.96323824e-01 9.96862888e-01
      4.64731865e-02 1.10098600e+00 6.00991964e+00 5.37167370e-01
      1.21217024e+00 9.99890566e-01 1.55575415e+03 3.36039085e+01
      1.19785042e+01</_>
    <_>
      3.56924012e-02 -4.57738897e-05 9.99908090e-01 9.99908328e-01
      8.69750977e-04 1.34351745e-01 2.15091610e+00 7.95763656e-02
      1.80503912e-02 9.94186044e-01 2.91168145e+04 1.66071045e+02
      6.97921403e-03</_>
    <_>
      1.13092527e+01 5.28856397e-01 9.95986581e-01 9.96075988e-01
      1.59128830e-01 3.39298940e+00 6.14519167e+00 5.40005207e-01
      1.15123777e+01 9.99968052e-01 6.36206787e+02 2.40768585e+01
      2.34160781e+00</_>
    <_>
      1.06050861e+00 2.00472385e-01 9.97717619e-01 9.97765481e-01
      2.60467529e-02 7.95391560e-01 5.44094563e+00 3.82553339e-01
      6.32647753e-01 9.99804735e-01 1.65191650e+03 3.68014412e+01
      1.06377399e+00</_>
    <_>
      1.85621941e+00 5.97601712e-01 9.99325991e-01 9.99344051e-01
      2.57364903e-02 1.47696161e+00 4.19974136e+00 2.09898099e-01
      2.18141556e+00 9.99802411e-01 4.64843652e+03 6.57387314e+01
      1.21848211e-01</_>
    <_>
      1.38364029e+02 6.63568258e-01 9.80239272e-01 9.80873585e-01
      1.55733740e+00 1.40727091e+01 7.85504103e+00 1.25376022e+00
      1.98041153e+02 9.99996722e-01 1.06602524e+02 1.00362186e+01
      1.49821570e+03</_>
    <_>
      2.60977340e+00 5.48089564e-01 9.98008609e-01 9.98095214e-01
      4.89908867e-02 1.66379678e+00 5.28948212e+00 3.83303791e-01
      2.76821971e+00 9.99896169e-01 1.90454846e+03 4.14385757e+01
      5.09238839e-01</_>
    <_>
      1.09981613e+01 4.50256109e-01 9.93918657e-01 9.94176209e-01
      1.54510498e-01 3.10767198e+00 6.35928249e+00 6.63786709e-01
      9.65762424e+00 9.99967098e-01 7.99923828e+02 2.60687885e+01
      5.25339622e+01</_>
    <_>
      6.29595566e+00 6.44188643e-01 9.96813774e-01 9.96886075e-01
      1.13128662e-01 2.92634511e+00 5.81815767e+00 4.82228100e-01
      8.56349564e+00 9.99955058e-01 1.09317969e+03 3.12329559e+01
      2.42271495e+00</_>
    <_>
      1.38881130e+01 5.25145352e-01 9.94914293e-01 9.95081782e-01
      1.90149948e-01 3.74365926e+00 6.33209562e+00 6.15846872e-01
      1.40149851e+01 9.99973238e-01 5.82250549e+02 2.29501114e+01
      2.41730862e+01</_>
    <_>
      1.21045189e+01 7.62233317e-01 9.94745791e-01 9.94896412e-01
      2.72969574e-01 4.98693371e+00 6.48461056e+00 6.74119592e-01
      2.48695087e+01 9.99981344e-01 5.05397980e+02 2.13460236e+01
      5.56269348e+02</_>
    <_>
      6.39289236e+00 7.70626843e-01 9.95894670e-01 9.96023297e-01
      1.71788529e-01 3.69099689e+00 6.18409014e+00 5.68807781e-01
      1.36234579e+01 9.99970376e-01 7.56679443e+02 2.59068432e+01
      2.95314301e+02</_>
    <_>
      3.99482226e+00 1.92903712e-01 9.97304022e-01 9.97432590e-01
      4.39300537e-02 1.53548849e+00 5.38733482e+00 4.00544614e-01
      2.35772491e+00 9.99884248e-01 3.83924219e+03 5.54123230e+01
      3.05350159e+02</_>
    <_>
      4.52824736e+00 5.99052966e-01 9.97258008e-01 9.97305810e-01
      8.49863663e-02 2.32100606e+00 5.69073105e+00 4.51871693e-01
      5.38706970e+00 9.99940157e-01 1.20286328e+03 3.25953255e+01
      1.15588665e+01</_>
    <_>
      5.55953445e+01 8.76435459e-01 9.71768081e-01 9.73213017e-01
      2.12463880e+00 1.50689955e+01 8.35046768e+00 1.65010130e+00
      2.27074631e+02 9.99997616e-01 7.04685669e+01 8.09438896e+00
      2.64958594e+03</_>
    <_>
      5.96200973e-02 -3.64007756e-05 9.99908090e-01 9.99908388e-01
      9.81648802e-04 1.67419925e-01 2.03878355e+00 7.67787620e-02
      2.80294325e-02 9.94845390e-01 4.76438594e+04 2.06441299e+02
      7.67489374e-02</_>
    <_>
      3.75737762e+01 7.69540787e-01 9.83073235e-01 9.83821869e-01
      9.19987977e-01 8.97984123e+00 7.71298218e+00 1.19441640e+00
      8.06375427e+01 9.99994457e-01 1.29914291e+02 1.10079794e+01
      5.35522803e+03</_>
    <_>
      6.71629906e+00 3.19108665e-01 9.95634317e-01 9.95787501e-01
      8.93961564e-02 2.17594004e+00 5.97981501e+00 5.36916375e-01
      4.73471451e+00 9.99943137e-01 1.11905518e+03 3.11878166e+01
      2.24777775e+01</_>
    <_>
      2.15132046e+01 5.19884646e-01 9.86734450e-01 9.87629235e-01
      3.40586334e-01 4.60426426e+00 7.20714426e+00 1.01236451e+00
      2.11992474e+01 9.99985039e-01 4.26676147e+02 1.88546448e+01
      2.21613190e+02</_>
    <_>
      6.86681986e+00 6.00063562e-01 9.96461451e-01 9.96504962e-01
      1.20742798e-01 2.87896776e+00 5.97379971e+00 5.20079195e-01
      8.28845596e+00 9.99957860e-01 9.46375366e+02 2.88454800e+01
      5.87910156e+02</_>
    <_>
      5.46920967e+00 9.80770066e-02 9.97503102e-01 9.97646749e-01
      4.71242256e-02 1.70223236e+00 5.36032104e+00 4.08341706e-01
      2.89759517e+00 9.99892056e-01 5.31679492e+03 6.35907745e+01
      6.68347239e-01</_>
    <_>
      1.50894241e+02 8.73282433e-01 9.27529037e-01 9.32497084e-01
      5.88067102e+00 2.44166145e+01 9.35460758e+00 2.64072990e+00
      5.96171082e+02 9.99999106e-01 1.95941582e+01 4.43219042e+00
      4.23414917e+01</_>
    <_>
      2.54211864e+01 5.07096708e-01 9.88343060e-01 9.88715470e-01
      3.54894012e-01 4.92736483e+00 7.07102871e+00 9.15677547e-01
      2.42789211e+01 9.99985695e-01 3.31738312e+02 1.70543232e+01
      2.11387054e+02</_>
    <_>
      1.17242336e+01 6.78121090e-01 9.94025886e-01 9.94275749e-01
      2.13714600e-01 4.18658161e+00 6.40003586e+00 6.71375155e-01
      1.75274658e+01 9.99976218e-01 6.45222839e+02 2.40415897e+01
      1.96045654e+02</_>
    <_>
      7.17181349e+00 4.49455559e-01 9.99188125e-01 9.99220252e-01
      5.14221191e-02 2.50266600e+00 4.50024700e+00 2.28996441e-01
      6.26333666e+00 9.99901116e-01 3.19459985e+03 5.44551888e+01
      2.59956932e+00</_>
    <_>
      1.19773281e+00 2.78707862e-01 9.96767938e-01 9.97080564e-01
      3.61735038e-02 8.89404118e-01 5.85726500e+00 4.75333542e-01
      7.91039705e-01 9.99859393e-01 9.81161926e+02 2.87453461e+01
      5.78694916e+01</_>
    <_>
      2.50417271e+01 6.83575213e-01 9.91314471e-01 9.91606593e-01
      4.21503693e-01 6.32439566e+00 6.90053892e+00 8.21975648e-01
      3.99979782e+01 9.99987960e-01 3.59555054e+02 1.79645653e+01
      4.39618561e+02</_>
    <_>
      3.07748151e+00 6.24966145e-01 9.99264717e-01 9.99280035e-01
      4.05782051e-02 1.97253156e+00 4.49508619e+00 2.32348010e-01
      3.89088058e+00 9.99874651e-01 3.11688135e+03 5.39639511e+01
      9.47114766e-01</_>
    <_>
      5.11430740e+00 7.92523086e-01 9.97671604e-01 9.97873008e-01
      1.26663208e-01 3.43278766e+00 5.69187021e+00 4.36691254e-01
      1.17840309e+01 9.99959826e-01 1.07636450e+03 3.13018169e+01
      6.54856324e-01</_>
    <_>
      2.90606308e+01 5.15417457e-01 9.85493541e-01 9.86392558e-01
      4.50302124e-01 5.29632092e+00 7.40136337e+00 1.07825947e+00
      2.80510178e+01 9.99988675e-01 2.42191055e+02 1.45459480e+01
      4.65707092e+01</_>
    <_>
      5.07393379e+01 7.14548230e-01 9.89001334e-01 9.89362717e-01
      7.67100036e-01 9.23980808e+00 7.28494263e+00 9.67031598e-01
      8.53740540e+01 9.99993384e-01 1.94685181e+02 1.34666471e+01
      8.57937683e+02</_>
    <_>
      3.42254901e+00 3.22274834e-01 9.96813774e-01 9.96867537e-01
      5.59539795e-02 1.54340780e+00 5.70526838e+00 4.67516810e-01
      2.38210773e+00 9.99909103e-01 1.50134082e+03 3.54293251e+01
      8.40201263e+01</_>
    <_>
      1.09071696e+00 3.14460576e-01 9.99601722e-01 9.99625802e-01
      1.12711592e-02 8.75188947e-01 3.64239788e+00 1.74372241e-01
      7.65955746e-01 9.99548912e-01 1.08140840e+04 9.69035187e+01
      3.88503164e-01</_>
    <_>
      4.01237726e+00 4.48321760e-01 9.99126852e-01 9.99133945e-01
      4.08579521e-02 1.85898757e+00 4.62433672e+00 2.73297966e-01
      3.45583487e+00 9.99875546e-01 2.80684570e+03 5.08371735e+01
      2.97509342e-01</_>
    <_>
      3.97426462e+00 4.14569020e-01 9.95665014e-01 9.95736361e-01
      7.56479874e-02 1.79333019e+00 6.01395988e+00 5.46423733e-01
      3.21603346e+00 9.99932766e-01 1.11838599e+03 3.06300125e+01
      5.07487221e+01</_>
    <_>
      3.12248778e+00 5.42511463e-01 9.99264717e-01 9.99277771e-01
      3.27504463e-02 1.79495215e+00 4.29753828e+00 2.31635466e-01
      3.22185326e+00 9.99844730e-01 4.42626416e+03 6.36397171e+01
      2.09027693e-01</_>
    <_>
      9.18189335e+00 6.04873717e-01 9.92968976e-01 9.93210554e-01
      1.71859741e-01 3.32656288e+00 6.47474957e+00 6.99131429e-01
      1.10660200e+01 9.99970376e-01 8.00751099e+02 2.61118698e+01
      4.54773855e+00</_>
    <_>
      4.33921576e+00 4.90004182e-01 9.96400237e-01 9.96482551e-01
      7.63498917e-02 2.01817322e+00 5.81629658e+00 5.05900860e-01
      4.07302284e+00 9.99933362e-01 1.38984021e+03 3.44370537e+01
      2.48817015e+00</_>
    <_>
      1.11291054e+02 7.61344016e-01 9.63082790e-01 9.64322209e-01
      2.31855273e+00 1.52746429e+01 8.49940491e+00 1.79090095e+00
      2.33314713e+02 9.99997795e-01 6.22356758e+01 7.57826853e+00
      6.29485205e+03</_>
    <_>
      7.64785528e+00 4.65108126e-01 9.96813774e-01 9.96883631e-01
      9.44213867e-02 2.60948920e+00 5.71267366e+00 4.83439535e-01
      6.80943394e+00 9.99946117e-01 1.35076416e+03 3.44749031e+01
      1.94976246e+00</_>
    <_>
      4.80116415e+00 6.02872908e-01 9.97487903e-01 9.97686386e-01
      6.33392334e-02 2.40502810e+00 5.22944260e+00 4.19753790e-01
      5.78416061e+00 9.99919713e-01 2.97302368e+03 5.19130516e+01
      1.77903044e+00</_>
    <_>
      4.20609665e+00 5.77845693e-01 9.97932017e-01 9.97991562e-01
      6.42954484e-02 2.18203402e+00 5.28791618e+00 3.72966766e-01
      4.76127243e+00 9.99920905e-01 1.88940186e+03 4.12623978e+01
      1.11623573e+01</_>
    <_>
      4.23529434e+00 5.88142455e-01 9.99188125e-01 9.99192953e-01
      4.94333915e-02 2.21885848e+00 4.64275599e+00 2.57684231e-01
      4.92333269e+00 9.99897122e-01 2.64086719e+03 4.95139771e+01
      2.71527350e-01</_>
    <_>
      4.60888481e+00 7.36352801e-01 9.97503102e-01 9.97609615e-01
      1.01369224e-01 2.90751839e+00 5.60616302e+00 4.42390352e-01
      8.45366287e+00 9.99949813e-01 1.26814331e+03 3.39759178e+01
      5.52183304e+01</_>
    <_>
      2.48138180e+01 7.09756851e-01 9.88756299e-01 9.89674449e-01
      5.15792847e-01 6.33442688e+00 7.26976442e+00 9.73806024e-01
      4.01249657e+01 9.99990165e-01 2.12845337e+02 1.40415211e+01
      2.28917789e+00</_>
    <_>
      5.81424618e+00 6.06071293e-01 9.98897076e-01 9.98936534e-01
      6.90714493e-02 2.65143371e+00 4.93864965e+00 2.81322330e-01
      7.03010035e+00 9.99926388e-01 1.78327942e+03 4.11469917e+01
      3.38276327e-01</_>
    <_>
      6.24773264e+00 4.30123925e-01 9.98667300e-01 9.98699605e-01
      5.69305420e-02 2.29464602e+00 4.91589308e+00 3.02585214e-01
      5.26539993e+00 9.99910653e-01 2.45235376e+03 4.72207870e+01
      1.03097824e+02</_>
    <_>
      1.38330269e+00 6.39121175e-01 9.99785542e-01 9.99805570e-01
      1.61387119e-02 1.34646833e+00 3.36976361e+00 1.27916023e-01
      1.81297708e+00 9.99684930e-01 8.07725635e+03 8.79163971e+01
      1.19186819e-01</_>
    <_>
      2.94488358e+00 4.78643507e-01 9.97656286e-01 9.97695208e-01
      5.31311035e-02 1.64298415e+00 5.44484425e+00 3.99062514e-01
      2.69939685e+00 9.99904275e-01 1.47639685e+03 3.65425072e+01
      6.23269606e+00</_>
    <_>
      5.51112127e+00 5.44645429e-01 9.98391569e-01 9.98444378e-01
      5.99670410e-02 2.41391611e+00 4.97901964e+00 3.34420025e-01
      5.82699060e+00 9.99915183e-01 2.83263135e+03 5.01789055e+01
      1.78301334e+01</_>
    <_>
      3.07414222e+00 7.99197197e-01 9.97932017e-01 9.98033285e-01
      9.31854248e-02 2.74631119e+00 5.55865622e+00 4.22507495e-01
      7.54222488e+00 9.99945402e-01 1.47483020e+03 3.59662552e+01
      1.47313137e+01</_>
    <_>
      3.56669736e+00 6.12100959e-01 9.98544753e-01 9.98577237e-01
      5.75968437e-02 2.09796762e+00 5.09893608e+00 3.30472738e-01
      4.40146780e+00 9.99911726e-01 1.90954541e+03 4.18671913e+01
      1.59904242e+00</_>
    <_>
      7.51776981e+00 6.72930539e-01 9.97043550e-01 9.97273028e-01
      1.28514603e-01 3.30172181e+00 5.81612158e+00 4.93358999e-01
      1.09013662e+01 9.99960423e-01 1.00820526e+03 3.02473221e+01
      6.39994955e+00</_>
    <_>
      1.82579346e+01 7.91818440e-01 9.95527029e-01 9.95655239e-01
      3.62497956e-01 6.57377768e+00 6.46714735e+00 6.20499730e-01
      4.32145538e+01 9.99985993e-01 4.41827454e+02 2.02818832e+01
      3.30325171e+03</_>
    <_>
      2.01393986e+00 3.81848842e-01 9.96369600e-01 9.96539533e-01
      4.95045967e-02 1.25490403e+00 5.92111540e+00 5.19560635e-01
      1.57478416e+00 9.99897242e-01 2.13668018e+03 3.89009781e+01
      4.62276983e+00</_>
    <_>
      4.60323830e+01 6.75888181e-01 9.76547956e-01 9.77659523e-01
      9.38832581e-01 8.18809414e+00 7.96081352e+00 1.40747201e+00
      6.70448837e+01 9.99994576e-01 1.17625641e+02 1.02678509e+01
      1.16384668e+01</_>
    <_>
      2.63250618e+01 7.74233639e-01 9.89981711e-01 9.90386128e-01
      5.90962708e-01 7.67253590e+00 7.17539883e+00 9.23991203e-01
      5.88678055e+01 9.99991417e-01 2.61451202e+02 1.53520555e+01
      1.10316504e+03</_>
    <_>
      2.51694250e+00 2.08218068e-01 9.99417901e-01 9.99421597e-01
      2.00805664e-02 1.22681272e+00 4.02693129e+00 1.84712350e-01
      1.50506961e+00 9.99746799e-01 4.79198486e+03 6.70142822e+01
      2.40071967e-01</_>
    <_>
      4.87438738e-02 -7.62715936e-05 9.99846816e-01 9.99847293e-01
      1.28682458e-03 1.51736140e-01 2.67716932e+00 9.32877064e-02
      2.30238568e-02 9.96062994e-01 1.59897139e+04 1.23948853e+02
      2.11371779e-02</_>
    <_>
      5.14036751e+01 5.69680154e-01 9.93949234e-01 9.94134367e-01
      4.46960449e-01 7.68402386e+00 6.58369780e+00 6.73523307e-01
      5.90442238e+01 9.99988616e-01 3.98684662e+02 1.93124809e+01
      2.19689844e+03</_>
    <_>
      1.53706188e+01 4.93174136e-01 9.97273326e-01 9.97319341e-01
      1.37725830e-01 3.85408568e+00 5.64121628e+00 4.27599102e-01
      1.48539772e+01 9.99963045e-01 1.21044458e+03 3.30001297e+01
      1.19448181e+03</_>
    <_>
      8.91091156e+01 8.77704680e-01 9.63435054e-01 9.65749025e-01
      3.13584900e+00 1.86887970e+01 8.64920425e+00 1.83158696e+00
      3.49271149e+02 9.99998391e-01 4.17260094e+01 6.37755585e+00
      1.11776857e+01</_>
    <_>
      2.70074139e+01 8.31375539e-01 9.88327384e-01 9.89299655e-01
      7.90588379e-01 8.75313187e+00 7.43849754e+00 1.00333107e+00
      7.66173172e+01 9.99993563e-01 1.57931351e+02 1.21787500e+01
      4.39043060e+02</_>
    <_>
      1.28194857e+01 4.63526338e-01 9.94669199e-01 9.94778693e-01
      1.70374557e-01 3.38956571e+00 6.33388329e+00 6.26004219e-01
      1.14891558e+01 9.99970138e-01 6.65280029e+02 2.41444035e+01
      9.56506729e+01</_>
    <_>
      7.33700991e+00 5.06800830e-01 9.97962654e-01 9.98001099e-01
      7.85827637e-02 2.64435911e+00 5.29403019e+00 3.75149161e-01
      6.99263477e+00 9.99935269e-01 1.79846155e+03 4.03303337e+01
      5.76607727e+02</_>
    <_>
      4.74163580e+00 6.87717438e-01 9.98085201e-01 9.98120248e-01
      8.36334229e-02 2.70144773e+00 5.35861969e+00 3.93795729e-01
      7.29782009e+00 9.99939203e-01 1.55134973e+03 3.76864967e+01
      2.84551382e+00</_>
    <_>
      3.87061882e+00 2.55725265e-01 9.98774529e-01 9.98779774e-01
      3.34828682e-02 1.56372440e+00 4.67295313e+00 2.81367511e-01
      2.44523406e+00 9.99848127e-01 4.35366406e+03 6.05829468e+01
      3.30689222e-01</_>
    <_>
      9.94044113e+00 6.35730207e-01 9.94623244e-01 9.94845212e-01
      1.82657883e-01 3.65220547e+00 6.34523535e+00 6.46174490e-01
      1.33386049e+01 9.99972165e-01 6.85108398e+02 2.45764065e+01
      5.94698372e+01</_>
    <_>
      3.74540448e+00 4.87543255e-01 9.97441828e-01 9.97488439e-01
      5.32786064e-02 1.86785054e+00 5.34499502e+00 4.07656074e-01
      3.48886561e+00 9.99904573e-01 3.12645313e+03 5.11386261e+01
      2.99447870e+00</_>
    <_>
      8.49955902e+01 8.00682485e-01 9.64614630e-01 9.66175854e-01
      2.19835401e+00 1.44035616e+01 8.49951935e+00 1.78347301e+00
      2.07462601e+02 9.99997675e-01 5.76393700e+01 7.36546707e+00
      3.49404419e+03</_>
    <_>
      6.15297174e+00 7.14168131e-01 9.97273326e-01 9.97380555e-01
      1.12253822e-01 3.22676158e+00 5.62016010e+00 4.50818032e-01
      1.04119902e+01 9.99954700e-01 1.30921265e+03 3.44864769e+01
      5.75645018e+00</_>
    <_>
      3.91312485e+01 7.03992546e-01 9.86427963e-01 9.86876786e-01
      6.86162293e-01 8.04629135e+00 7.37764263e+00 1.04523885e+00
      6.47427979e+01 9.99992609e-01 2.15047348e+02 1.38942270e+01
      9.04801086e+02</_>
    <_>
      2.60296268e+01 8.74785602e-01 9.87576783e-01 9.88323629e-01
      9.02460754e-01 1.00163298e+01 7.45034933e+00 1.03488111e+00
      1.00326859e+02 9.99994338e-01 1.64372971e+02 1.24002085e+01
      4.20076275e+00</_>
    <_>
      3.16666663e-01 8.68118256e-02 9.99371946e-01 9.99396563e-01
      6.83593750e-03 4.06643003e-01 4.10523653e+00 1.94425061e-01
      1.65358543e-01 9.99256492e-01 5.84744873e+03 7.07820206e+01
      8.12185764e-01</_>
    <_>
      6.49969339e-01 7.40753189e-02 9.98789847e-01 9.98793960e-01
      1.30666094e-02 5.76457322e-01 4.70705938e+00 2.84906417e-01
      3.32303017e-01 9.99610901e-01 3.25272925e+03 5.26042442e+01
      4.83993435e+00</_>
    <_>
      3.46044731e+00 4.07368571e-01 9.97778833e-01 9.97830272e-01
      4.77345772e-02 1.66729474e+00 5.29728842e+00 3.86442453e-01
      2.77987170e+00 9.99893486e-01 2.74932593e+03 4.80510101e+01
      2.34077811e+00</_>
    <_>
      3.36862755e+00 6.10418141e-01 9.98207748e-01 9.98250067e-01
      5.59285469e-02 2.00038028e+00 5.17756462e+00 3.63666058e-01
      4.00152063e+00 9.99909043e-01 2.07117505e+03 4.32642708e+01
      5.06411135e-01</_>
    <_>
      4.41406250e+00 7.86659718e-01 9.97395873e-01 9.97524858e-01
      1.26459762e-01 3.18169188e+00 5.84391069e+00 4.85292941e-01
      1.01231632e+01 9.99959767e-01 9.70649170e+02 2.95158253e+01
      4.92118740e+00</_>
    <_>
      2.87444854e+00 6.29112840e-01 9.98851120e-01 9.98901665e-01
      5.14780693e-02 1.93654418e+00 5.00410748e+00 3.04462045e-01
      3.75020337e+00 9.99901175e-01 2.01132703e+03 4.26194763e+01
      1.53716803e+00</_>
    <_>
      3.78363967e+00 4.49823707e-01 9.98621345e-01 9.98651028e-01
      4.50744629e-02 1.81619835e+00 4.93159389e+00 3.26493353e-01
      3.29857659e+00 9.99887168e-01 2.69997949e+03 4.88121223e+01
      5.32246828e+00</_>
    <_>
      2.12475491e+00 8.66934001e-01 9.97732878e-01 9.97827590e-01
      8.30586776e-02 2.76794457e+00 5.37355852e+00 4.21344191e-01
      7.66151762e+00 9.99938786e-01 1.96231030e+03 4.19109192e+01
      4.84898834e+01</_>
    <_>
      5.73207712e+00 5.37934184e-01 9.97395873e-01 9.97536421e-01
      8.08003768e-02 2.43918586e+00 5.55297041e+00 4.46817636e-01
      5.94962788e+00 9.99937057e-01 1.69278613e+03 3.84399071e+01
      7.08637146e+02</_>
    <_>
      1.48590682e-02 -3.03539127e-05 9.99938726e-01 9.99938965e-01
      4.52677399e-04 8.66142809e-02 1.73031628e+00 5.99665567e-02
      7.50203291e-03 9.88888860e-01 4.50321836e+04 2.06766861e+02
      4.71503939e-03</_>
    <_>
      7.99163580e+00 3.23124021e-01 9.95312631e-01 9.95376170e-01
      1.02991737e-01 2.36619616e+00 6.08774996e+00 5.56787968e-01
      5.59888458e+00 9.99950588e-01 1.10182849e+03 3.02312775e+01
      1.88470642e+02</_>
    <_>
      3.26449132e+00 3.86735886e-01 9.96905744e-01 9.97193336e-01
      5.58115654e-02 1.58634889e+00 5.71901035e+00 4.67799604e-01
      2.51650286e+00 9.99908864e-01 2.05172021e+03 4.06337585e+01
      4.10898542e+00</_>
    <_>
      3.72999382e+00 4.47279364e-01 9.97411251e-01 9.97454405e-01
      5.02624512e-02 1.79297483e+00 5.32918453e+00 4.15949911e-01
      3.21475887e+00 9.99898791e-01 3.21424683e+03 5.22472382e+01
      7.06590576e+01</_>
    <_>
      3.07395840e+00 3.96341741e-01 9.98943031e-01 9.98958409e-01
      2.93223057e-02 1.55237269e+00 4.44292784e+00 2.48520613e-01
      2.40986109e+00 9.99826550e-01 4.77596338e+03 6.57340927e+01
      8.48416686e-01</_>
    <_>
      8.46665421e+01 8.08856428e-01 9.75352705e-01 9.76591229e-01
      1.93055725e+00 1.46011639e+01 8.19206715e+00 1.47961986e+00
      2.13194000e+02 9.99997377e-01 7.10740814e+01 8.24003887e+00
      3.21389014e+03</_>
    <_>
      8.22319221e+00 6.24905169e-01 9.96369541e-01 9.96591210e-01
      1.33229569e-01 3.22391963e+00 5.98218775e+00 5.38807690e-01
      1.03936577e+01 9.99961853e-01 1.07360852e+03 3.06770153e+01
      4.91953049e+01</_>
    <_>
      2.93719363e+00 6.15637720e-01 9.99433219e-01 9.99446094e-01
      3.21400948e-02 1.88791120e+00 4.13789463e+00 2.10732445e-01
      3.56420851e+00 9.99841750e-01 4.69216699e+03 6.61351929e+01
      8.56294215e-01</_>
    <_>
      9.11325378e+01 7.87014723e-01 9.77436006e-01 9.78567064e-01
      1.80030823e+00 1.43465767e+01 8.08659077e+00 1.39624083e+00
      2.05824265e+02 9.99997199e-01 7.87734833e+01 8.67237186e+00
      7.35682487e+00</_>
    <_>
      3.28906860e+01 7.27325559e-01 9.93841946e-01 9.94017065e-01
      4.75275666e-01 7.69544840e+00 6.70067739e+00 7.12962866e-01
      5.92199287e+01 9.99989271e-01 3.53567169e+02 1.81702213e+01
      2.65862280e+03</_>
    <_>
      3.89901972e+00 5.69532931e-01 9.96384919e-01 9.96528804e-01
      7.80436173e-02 2.10440254e+00 5.82784700e+00 5.13836443e-01
      4.42851019e+00 9.99934852e-01 1.67993958e+03 3.75303879e+01
      3.47246265e+00</_>
    <_>
      1.99142154e-02 -3.05439207e-05 9.99938726e-01 9.99938905e-01
      5.18798828e-04 9.80447233e-02 1.74615216e+00 5.57011701e-02
      9.61276796e-03 9.90291238e-01 4.32759766e+04 2.02586029e+02
      3.08014755e-03</_>
    <_>
      4.03946066e+00 5.99447370e-01 9.99234080e-01 9.99267757e-01
      4.46879081e-02 2.18968153e+00 4.48466969e+00 2.24962920e-01
      4.79470491e+00 9.99886215e-01 3.23417017e+03 5.47660942e+01
      1.61051452e+00</_>
    <_>
      4.40410525e-01 8.23156759e-02 9.99126852e-01 9.99197841e-01
      9.50113963e-03 4.78895485e-01 4.44252539e+00 2.47916117e-01
      2.29340881e-01 9.99464929e-01 4.50384473e+03 6.12003403e+01
      1.06196814e+01</_>
    <_>
      2.34463234e+01 6.63398504e-01 9.96001899e-01 9.96166050e-01
      2.78355926e-01 5.80475044e+00 6.19688129e+00 5.61762571e-01
      3.36951256e+01 9.99981701e-01 6.00330688e+02 2.35612564e+01
      1.57645569e+03</_>
    <_>
      8.19574165e+00 4.45542127e-01 9.97365236e-01 9.97395098e-01
      9.91516113e-02 2.67496586e+00 5.68995667e+00 4.37395364e-01
      7.15544176e+00 9.99948680e-01 1.10330835e+03 3.13220558e+01
      1.51103616e+00</_>
    <_>
      3.42411160e+00 6.08574748e-01 9.98345613e-01 9.98401046e-01
      4.87925224e-02 2.03173184e+00 4.97873545e+00 3.42482567e-01
      4.12793446e+00 9.99895751e-01 3.63451709e+03 5.64186783e+01
      3.45614052e+00</_>
    <_>
      6.21451912e+01 8.96504939e-01 9.69776750e-01 9.72597659e-01
      2.60906482e+00 1.69468098e+01 8.48703384e+00 1.70332360e+00
      2.87194366e+02 9.99998033e-01 5.20601959e+01 7.06017303e+00
      1.82837906e+01</_>
    <_>
      3.61758590e+00 5.21501422e-01 9.97824788e-01 9.97872889e-01
      5.95296212e-02 1.90665984e+00 5.38243771e+00 3.94743919e-01
      3.63535190e+00 9.99914587e-01 1.69398767e+03 3.87084198e+01
      1.05313232e+02</_>
    <_>
      5.36678934e+00 3.75032812e-01 9.94163811e-01 9.94863808e-01
      9.97924805e-02 2.02316356e+00 6.36229706e+00 6.64598465e-01
      4.09319067e+00 9.99949038e-01 9.38934570e+02 2.77666035e+01
      5.95980978e+00</_>
    <_>
      7.85218430e+01 6.36002421e-01 9.85769212e-01 9.86118674e-01
      9.22063172e-01 1.00371542e+01 7.49127674e+00 1.04064488e+00
      1.00744461e+02 9.99994457e-01 1.58471436e+02 1.21825809e+01
      6.79593445e+02</_>
    <_>
      4.08958340e+00 1.66227341e-01 9.96783197e-01 9.96805787e-01
      4.92350273e-02 1.52104747e+00 5.61580133e+00 4.41492677e-01
      2.31358552e+00 9.99896705e-01 4.52084277e+03 5.55361671e+01
      1.44556107e+02</_>
    <_>
      2.56497860e+01 5.71775913e-01 9.88878906e-01 9.89155769e-01
      4.21315521e-01 5.36120844e+00 7.18083191e+00 9.38616931e-01
      2.87425575e+01 9.99987900e-01 2.22268845e+02 1.43454542e+01
      1.51723358e+02</_>
    <_>
      5.57199764e+00 3.93752992e-01 9.98100519e-01 9.98143971e-01
      5.86903878e-02 2.10067391e+00 5.18502617e+00 3.60300839e-01
      4.41283035e+00 9.99913335e-01 2.18039014e+03 4.39381943e+01
      1.23340866e+02</_>
    <_>
      8.69843769e+00 5.15515804e-01 9.94408846e-01 9.94529963e-01
      1.39546707e-01 2.92718077e+00 6.27961063e+00 6.07544303e-01
      8.56838703e+00 9.99963582e-01 8.52090149e+02 2.71156139e+01
      4.13245392e+02</_>
    <_>
      7.99364281e+00 8.44299018e-01 9.91054296e-01 9.91481960e-01
      2.99260467e-01 4.95272541e+00 6.79678535e+00 8.41954708e-01
      2.45294876e+01 9.99983013e-01 5.30242371e+02 2.16519566e+01
      1.11784966e+02</_>
    <_>
      2.11564026e+01 5.15170395e-01 9.95021522e-01 9.95094657e-01
      2.18607590e-01 4.53278542e+00 6.26495504e+00 6.18866384e-01
      2.05461445e+01 9.99976754e-01 7.30164246e+02 2.53993168e+01
      1.24786890e+03</_>
    <_>
      9.31323528e+00 5.66104949e-01 9.95358527e-01 9.95535135e-01
      1.56255081e-01 3.24716353e+00 6.26189518e+00 5.96864283e-01
      1.05440712e+01 9.99967456e-01 7.54217407e+02 2.56421814e+01
      5.79559517e+00</_>
    <_>
      4.43544722e+00 5.72029352e-01 9.96338964e-01 9.96522248e-01
      8.45591202e-02 2.22993994e+00 5.87398005e+00 5.30910015e-01
      4.97263193e+00 9.99939859e-01 1.65318396e+03 3.69551582e+01
      5.05336702e-01</_>
    <_>
      1.15944853e+01 6.75411701e-01 9.94071782e-01 9.94216263e-01
      2.37360641e-01 4.17394447e+00 6.55443811e+00 6.86763465e-01
      1.74218140e+01 9.99978542e-01 4.66263458e+02 2.04866219e+01
      3.16892290e+00</_>
    <_>
      7.85140932e-01 1.74120322e-01 9.98269081e-01 9.98307824e-01
      1.92057285e-02 6.74751163e-01 5.14613533e+00 3.38396400e-01
      4.55289096e-01 9.99735236e-01 1.94645386e+03 4.08870316e+01
      3.92130196e-01</_>
    <_>
      5.20713854e+00 5.73265135e-01 9.95848715e-01 9.96147335e-01
      1.06959023e-01 2.43522835e+00 6.07973909e+00 5.51141262e-01
      5.93033743e+00 9.99952435e-01 8.83921692e+02 2.78883495e+01
      7.06426144e-01</_>
    <_>
      1.69955883e+01 4.75686163e-01 9.96078491e-01 9.96128500e-01
      1.54500321e-01 3.97244883e+00 5.86077738e+00 4.99531835e-01
      1.57803488e+01 9.99967098e-01 1.13676074e+03 3.18337574e+01
      3.20824280e+02</_>
    <_>
      1.57102938e+01 5.30920565e-01 9.93505001e-01 9.93753374e-01
      2.34181717e-01 4.00525665e+00 6.60917711e+00 7.06588686e-01
      1.60420818e+01 9.99978304e-01 4.23295685e+02 1.96948166e+01
      3.18329926e+01</_>
    <_>
      7.38803635e+01 6.24009252e-01 9.79841113e-01 9.80448186e-01
      1.03801978e+00 9.62426376e+00 7.82021093e+00 1.28118455e+00
      9.26264496e+01 9.99995112e-01 1.21687668e+02 1.05833139e+01
      6.54959822e+00</_>
    <_>
      1.50655639e+00 2.41863266e-01 9.99371946e-01 9.99390006e-01
      1.43788652e-02 9.69228566e-01 3.97469831e+00 2.12319449e-01
      9.39404070e-01 9.99646366e-01 8.78583887e+03 8.76622772e+01
      3.68313074e+00</_>
    <_>
      2.10328426e+01 5.77022195e-01 9.89032090e-01 9.89489973e-01
      3.59359741e-01 4.84023046e+00 7.11440516e+00 9.31056976e-01
      2.34278316e+01 9.99985874e-01 2.98266266e+02 1.62427616e+01
      1.08593388e+01</_>
    <_>
      1.30679260e+02 7.37182498e-01 9.71798956e-01 9.73326385e-01
      2.05384827e+00 1.54802332e+01 8.21613979e+00 1.51181626e+00
      2.39637604e+02 9.99997497e-01 7.48014908e+01 8.40069675e+00
      3.86473584e+03</_>
    <_>
      7.17496920e+00 5.47159255e-01 9.99111533e-01 9.99174118e-01
      6.40513077e-02 2.77345252e+00 4.70577908e+00 2.56774664e-01
      7.69203901e+00 9.99920607e-01 2.36775366e+03 4.71122017e+01
      1.11558366e+00</_>
    <_>
      4.66390944e+00 4.44123030e-01 9.97043550e-01 9.97105598e-01
      7.22045898e-02 2.01101065e+00 5.66523123e+00 4.49133813e-01
      4.04416370e+00 9.99929547e-01 1.30948755e+03 3.38875961e+01
      9.08520584e+01</_>
    <_>
      1.99893814e+02 5.40926695e-01 9.76042271e-01 9.76410747e-01
      1.73808801e+00 1.46017361e+01 7.99238396e+00 1.33994818e+00
      2.13210709e+02 9.99997079e-01 9.22859192e+01 9.31545353e+00
      1.93444360e+03</_>
    <_>
      5.17248774e+00 6.02295458e-01 9.98560071e-01 9.98601198e-01
      6.28509521e-02 2.46114874e+00 4.96907520e+00 3.34640473e-01
      6.05725288e+00 9.99919057e-01 2.20075146e+03 4.50485001e+01
      6.85415411e+00</_>
    <_>
      1.39746323e+02 7.60340154e-01 9.69776988e-01 9.71161366e-01
      2.38487244e+00 1.66970539e+01 8.34056854e+00 1.58733034e+00
      2.78791626e+02 9.99997854e-01 5.98301582e+01 7.58397770e+00
      2.42152417e+03</_>
    <_>
      5.06311274e+00 3.22043151e-01 9.96829093e-01 9.96864259e-01
      6.42852783e-02 1.87745130e+00 5.63807869e+00 4.61031288e-01
      3.52482343e+00 9.99920905e-01 1.79723950e+03 3.91454315e+01
      1.01864510e+01</_>
    <_>
      1.84024506e+02 8.56264472e-01 9.34101164e-01 9.40730572e-01
      5.71225977e+00 2.50203629e+01 9.24227524e+00 2.46986842e+00
      6.26018494e+02 9.99999106e-01 2.09782639e+01 4.60594225e+00
      1.30014150e+04</_></support_vectors>
  <decision_functions>
    <_>
      <sv_count>274</sv_count>
      <rho>-5.0183072727220923e-01</rho>
      <alpha>
        2.4257582439445158e-01 4.8425120816676182e-01
        7.9239412903347226e+00 1.7737654678237092e+02
        4.5312352936302680e-01 2.2422184922811166e+01
        1.0230597591622312e+01 2.3113005882160582e+00
        4.0650478477872076e-01 4.8708894873572952e+01
        6.8135081983142531e-01 1.0067789973257489e+02
        6.2381254680282860e-01 1.6449333982184191e+00
        7.8244942295186730e+00 1.9723080078534234e+00
        7.3765407800294170e+01 1.9956563142474257e+00
        8.9928057147559066e+00 9.6917956382873001e+01
        7.8209021513715484e+00 3.5117945417010596e+01
        2.9428565924902250e+02 1.1038095751491467e+02
        3.3689241649186627e+01 2.0448174186599779e+01
        8.8237021885475653e-01 3.1970238560644115e-01
        1.7644175278065735e+01 2.1227718623092133e+02
        3.1250000000000000e+02 3.1250000000000000e+02
        5.9509369961905163e+00 9.1009522808926657e-01
        9.2796690965105185e+01 7.7648830553289483e-01
        1.9690452929348965e+00 8.5626332375881331e-01
        1.5749396358162002e+01 8.9650445808636157e+00
        3.1250000000000000e+02 1.6691580906058208e+00
        3.1250000000000000e+02 3.3392483486776849e+00
        3.4947623760537070e+01 1.7064514811886227e+00
        2.8044840653180916e+02 5.3267327729839211e+00
        1.9878691440535157e+00 1.9677123171281885e+00
        3.1250000000000000e+02 3.1250000000000000e+02
        2.6103611648083369e+00 1.0024793717836201e+02
        3.1250000000000000e+02 7.2956130935424810e+01
        2.7284700505233508e+02 3.6720514025957769e+01
        3.0573710821450092e+01 6.2639114874084856e-01
        1.1081742574937036e+02 3.1250000000000000e+02
        8.2870318380105812e-01 1.8203953407107778e+00
        3.1250000000000000e+02 1.7177693943188885e+02
        7.3837544028778523e-01 2.2158299005672293e+02
        6.3021655689718259e-01 5.1909395307608889e+01
        3.1250000000000000e+02 5.5188246799953422e-01
        5.3493663670116874e+01 7.8200392108904406e+00
        3.0873287216447659e+02 6.6676114292984701e-01
        2.5766494084629237e+00 6.4417602918619610e-01
        5.9546312270344370e-01 3.9937165999412227e-01
        3.1250000000000000e+02 1.3962991541042831e+01
        3.1250000000000000e+02 3.1250000000000000e+02
        1.9682670171861063e+00 6.0993356877832802e+01
        6.3694821402681441e+01 6.1023581415762919e+01
        3.1250000000000000e+02 1.3534511698371695e+01
        1.0757601068008193e+00 1.9109860768523805e+00
        1.1852093927567106e+01 3.1250000000000000e+02
        2.1078749408093538e+00 5.9625487003832255e+01
        5.3268365308232601e-01 2.3176703275519566e+02
        7.8280098999508354e+00 3.2276826727393015e+01
        5.9199183412951992e+00 3.1250000000000000e+02
        8.2736788374382343e+01 9.6167374974918616e+00
        3.1250000000000000e+02 3.1250000000000000e+02
        3.1250000000000000e+02 7.9220027708760455e+01
        4.4766477473645205e-01 3.1250000000000000e+02
        1.9028677987411049e+02 2.3386223084549883e+01
        3.1250000000000000e+02 1.8176734739957521e+01
        3.7681932846499526e+00 3.1250000000000000e+02
        2.5322457832817612e+01 1.6660198324357665e+02
        3.1250000000000000e+02 7.8353782031399319e+00
        7.0228277929376914e-01 3.8967939556570790e+00
        3.1250000000000000e+02 3.7204742109500533e+00
        6.6032756810115811e-01 3.1250000000000000e+02
        7.1607160175069396e+01 8.1240636651677693e+00
        3.1250000000000000e+02 6.6497034750270401e-01
        1.3002705127792800e+02 3.1250000000000000e+02
        6.7652415113421660e-01 3.1250000000000000e+02
        1.6099551224232445e+02 1.5747350720575026e+01
        7.2236584776277056e+01 3.1250000000000000e+02
        2.4407624527824736e+00 2.6951666649158074e+01
        1.7011645496075871e+00 2.3641545148903813e+02
        1.4849659517227713e+02 1.1909512416607522e+02
        1.2828710173825233e+00 2.1696989833511046e+02
        2.0183764464156475e+00 3.1250000000000000e+02
        5.8078475915553229e-01 -2.7379921013859484e+02
        -3.1250000000000000e+02 -3.1250000000000000e+02
        -1.0784391475940973e+00 -3.1250000000000000e+02
        -2.8066945759508393e+01 -1.6242894410011914e+02
        -7.7495492011029711e+01 -1.7832594296203470e+00
        -2.0573160860999490e+01 -3.1282301060936843e+00
        -3.1250000000000000e+02 -1.2340768202717056e+00
        -1.1390384317218634e+00 -1.4260099312264292e+00
        -3.1250000000000000e+02 -1.7955662260929522e+01
        -4.9856664395889894e+00 -1.1198960621786769e+01
        -1.1082899332367935e+00 -5.5630386117087784e+00
        -1.9318771617817641e+00 -3.3016629118682495e+01
        -3.1250000000000000e+02 -4.4548741202736668e+00
        -3.1250000000000000e+02 -3.8659413736253243e+00
        -7.7420583638486722e+00 -9.4539847862166093e-01
        -3.2012460004832839e+00 -1.2324785263590069e+01
        -3.1250000000000000e+02 -3.1250000000000000e+02
        -3.1250000000000000e+02 -3.2468446498747530e+00
        -3.1250000000000000e+02 -1.1737656176477733e+00
        -5.0139021496777694e+01 -3.1250000000000000e+02
        -2.0743238117415768e+02 -3.1250000000000000e+02
        -6.0127201600121287e+00 -3.8603299173520220e+01
        -2.7076936627782235e+01 -5.3413019388957128e+00
        -4.9514187804803491e+01 -3.1250000000000000e+02
        -1.0848515474581116e+02 -2.5346324118104974e+02
        -3.1250000000000000e+02 -7.9529230433576750e+00
        -1.1950144291411595e+00 -3.1250000000000000e+02
        -1.9572699121878205e+02 -1.2982194834083467e+00
        -3.1250000000000000e+02 -1.0982924143190349e+01
        -1.1184162236792656e+00 -1.1289372588083642e+00
        -6.9209925841643460e-01 -4.3532505629895413e+00
        -1.0499290883495497e+02 -8.2766267654227399e-01
        -6.8116750249429089e+01 -3.1250000000000000e+02
        -4.8491608257639221e+01 -3.1250000000000000e+02
        -6.5951384953791781e-01 -5.8779116862700977e+00
        -7.0721226499931422e-01 -2.8534159536963898e+01
        -1.4868018461671977e+02 -3.1250000000000000e+02
        -3.1250000000000000e+02 -2.6775837757243767e+02
        -6.8496574157149169e+01 -3.1250000000000000e+02
        -3.1250000000000000e+02 -5.5232347330166839e+01
        -1.6307268197294631e+00 -1.7853965628802797e+00
        -1.3818903103737364e+02 -3.1250000000000000e+02
        -1.9506160462222764e+00 -3.1250000000000000e+02
        -1.1163499773977725e+00 -2.0001567565616059e+00
        -3.1250000000000000e+02 -1.9998680270634286e+00
        -9.9733454531141175e-01 -3.1250000000000000e+02
        -1.5273473419114971e+00 -3.1250000000000000e+02
        -3.0273377930461538e+02 -1.2767538146990054e+00
        -1.9754867095336395e+00 -3.1250000000000000e+02
        -8.0799465637660883e-01 -5.4308930838223022e+00
        -3.1250000000000000e+02 -3.0347792067106272e+00
        -6.5771493983439342e+00 -4.9415888388687303e+00
        -9.8056267442387181e+01 -7.1191957958966778e+00
        -1.1706724805054492e+01 -1.0501992684268477e+00
        -1.1603202973026552e+02 -3.1250000000000000e+02
        -7.8890061970774624e+01 -3.1250000000000000e+02
        -3.1250000000000000e+02 -7.0073527670381361e+00
        -3.1250000000000000e+02 -8.0349285076860625e+01
        -2.6139147998345567e+01 -2.0766073456241500e+01
        -1.4218963191516352e+00 -2.5646772839368384e+02
        -9.7749204930211391e+01 -1.1271626247029398e+00
        -3.1250000000000000e+02 -6.2563619523846470e-01
        -3.1250000000000000e+02 -1.2990626921632731e+00</alpha>
      <index>
        0 1 2 3 4 5 6 7 8 9 10 11 12 13 14 15 16 17 18 19 20 21 22 23 24
        25 26 27 28 29 30 31 32 33 34 35 36 37 38 39 40 41 42 43 44 45
        46 47 48 49 50 51 52 53 54 55 56 57 58 59 60 61 62 63 64 65 66
        67 68 69 70 71 72 73 74 75 76 77 78 79 80 81 82 83 84 85 86 87
        88 89 90 91 92 93 94 95 96 97 98 99 100 101 102 103 104 105 106
        107 108 109 110 111 112 113 114 115 116 117 118 119 120 121 122
        123 124 125 126 127 128 129 130 131 132 133 134 135 136 137 138
        139 140 141 142 143 144 145 146 147 148 149 150 151 152 153 154
        155 156 157 158 159 160 161 162 163 164 165 166 167 168 169 170
        171 172 173 174 175 176 177 178 179 180 181 182 183 184 185 186
        187 188 189 190 191 192 193 194 195 196 197 198 199 200 201 202
        203 204 205 206 207 208 209 210 211 212 213 214 215 216 217 218
        219 220 221 222 223 224 225 226 227 228 229 230 231 232 233 234
        235 236 237 238 239 240 241 242 243 244 245 246 247 248 249 250
        251 252 253 254 255 256 257 258 259 260 261 262 263 264 265 266
        267 268 269 270 271 272 273</index></_></decision_functions></opencv_ml_svm>
</opencv_storage>
